111 100
0 0.0081924337685 0.1720411091389 0.0052665645655 0.0032057349529 0.0081924337685 0.0081924337685 0.0052665645655 0.0032057349529 0.0077612530439 0.0052665645655 0.0081924337685 0.0018666304789 0.0073731903917 0.0092164879896 0.0092164879896 0.0058985523133 0.0050849588908 0.0020200521621 0.0113433698333 0.0098309205222 0.0077612530439 0.0086743416373 0.0070220860873 0.0774184991125 0.0105331291310 0.0073731903917 0.0058985523133 0.0033514501780 0.0073731903917 0.0031375278262 0.0034293908798 0.0030721626632 0.0026811601424 0.0070220860873 0.0040962168843 0.0040962168843 0.0070220860873 0.0050849588908 0.0098309205222 0.0098309205222 0.0077612530439 0.0035110430437 0.0092164879896 0.0049154602611 0.0056716849167 0.0044686002374 0.0030094654660 0.0659295860419 0.0054616225123 0.0077612530439 0.0035966782398 0.0141505674183 0.0054616225123 0.0081924337685 0.0021685854093 0.0070220860873 0.0067029003561 0.0025870843480 0.0042132516524 0.0061443253264 0.0141505674183 0.0067029003561 0.0021066258262 0.0020769550399 0.0092164879896 0.0081924337685 0.0098309205222 0.0031375278262 0.0098309205222 0.0064114699058 0.0058985523133 0.0105331291310 0.0098309205222 0.0023041219974 0.0092164879896 0.0042132516524 0.0081924337685 0.0092164879896 0.0018432975979 0.0046082439948 0.0814931569605 0.0098309205222 0.0049154602611 0.0046082439948 0.0052665645655 0.0049154602611 0.0064114699058 0.0081924337685 0.0081924337685 0.0025870843480 0.0086743416373 0.0081924337685 0.0081924337685 0.0029492761567 0.0064114699058 0.0038806265219 0.0039855083198 0.0031375278262 0.0054616225123 0.0058985523133
1 0.0076454432314 0.0076454432314 0.0049149277916 0.0029916951775 0.0076454432314 0.0076454432314 0.0049149277916 0.0029916951775 0.0072430514824 0.0049149277916 0.0161403801553 0.0017419997236 0.0068808989083 0.0086011236354 0.0086011236354 0.0055047191266 0.0047454475230 0.0018851777831 0.0105859983205 0.0091745318777 0.0072430514824 0.0080951751862 0.0065532370555 0.0034404494541 0.0098298555833 0.0068808989083 0.0055047191266 0.0066028827908 0.0068808989083 0.0029280420886 0.0032004180969 0.0028670412118 0.0191831121080 0.0065532370555 0.0038227216157 0.0038227216157 0.2614013447701 0.0047454475230 0.0091745318777 0.0091745318777 0.0072430514824 0.0032766185278 0.0086011236354 0.0045872659389 0.0052929991602 0.0041702417626 0.0028085301667 0.0032766185278 0.0050969621543 0.0072430514824 0.0033565360528 0.0062553626439 0.0050969621543 0.0076454432314 0.0020237937966 0.0065532370555 0.0062553626439 0.0024143504941 0.0039319422333 0.0057340824236 0.0062553626439 0.0062553626439 0.0019659711167 0.0019382813826 0.0086011236354 0.0076454432314 0.0091745318777 0.0322084629750 0.0091745318777 0.0059833903550 0.0055047191266 0.0098298555833 0.0091745318777 0.0021502809088 0.0086011236354 0.0039319422333 0.0076454432314 0.0086011236354 0.0017202247271 0.0043005618177 0.0036215257412 0.0091745318777 0.0147811902474 0.0043005618177 0.0049149277916 0.0045872659389 0.0059833903550 0.0076454432314 0.0076454432314 0.0024143504941 0.0080951751862 0.0076454432314 0.0076454432314 0.0027523595633 0.0059833903550 0.0036215257412 0.0037194048153 0.0029280420886 0.0050969621543 0.1155991016593
2 0.0043434395935 0.0043434395935 0.0027922111673 0.0016996067975 0.0043434395935 0.0043434395935 0.0027922111673 0.0186956747721 0.0041148375096 0.0027922111673 0.0043434395935 0.0009896444643 0.0039090956342 0.0048863695427 0.0048863695427 0.0066020281821 0.0026959280236 0.0010709851052 0.0060139932833 0.3874348117413 0.0041148375096 0.0454783675085 0.0450890395898 0.0019545478171 0.0055844223345 0.0039090956342 0.0031272765073 0.0017768616519 0.0039090956342 0.0016634449507 0.0018181840159 0.0016287898476 0.0014214893215 0.0037229482230 0.0021717197968 0.0021717197968 0.0037229482230 0.0056914036053 0.0052121275122 0.0052121275122 0.0041148375096 0.0018614741115 0.0048863695427 0.0547273388783 0.0030069966417 0.0023691488692 0.0015955492384 0.0018614741115 0.0028956263957 0.0041148375096 0.0019068759191 0.0035537233038 0.0028956263957 0.0043434395935 0.0011497340100 0.0202693847697 0.0035537233038 0.0013716125032 0.0469091476099 0.0032575796951 0.0035537233038 0.0035537233038 0.0011168844669 0.0011011536998 0.0048863695427 0.0043434395935 0.0052121275122 0.0016634449507 0.0052121275122 0.0033992135949 0.0031272765073 0.0055844223345 0.0052121275122 0.0025789172586 0.0048863695427 0.0022337689338 0.0043434395935 0.0048863695427 0.0009772739085 0.0024431847714 0.0020574187548 0.0052121275122 0.0026060637561 0.0024431847714 0.0027922111673 0.0778923500437 0.0033992135949 0.0043434395935 0.0043434395935 0.0013716125032 0.0045989360402 0.0043434395935 0.0043434395935 0.0015636382537 0.0033992135949 0.0020574187548 0.0021130246671 0.0016634449507 0.0028956263957 0.0031272765073
3 0.0982928939456 0.0026888633602 0.0017285550173 0.0010521639236 0.0026888633602 0.0026888633602 0.0017285550173 0.0022212349497 0.0025473442360 0.0017285550173 0.0026888633602 0.0006126524112 0.0024199770242 0.0030249712802 0.0030249712802 0.0019359816194 0.0016689496719 0.0006630074039 0.0037230415757 0.0032266360323 0.0082081092049 0.0028470317932 0.1661973638838 0.0012099885121 0.0034571100346 0.0024199770242 0.0019359816194 0.0010999895565 0.0024199770242 0.0216253265992 0.0011255707089 0.0010083237601 0.0008799916452 0.0023047400230 0.0013444316801 0.0013444316801 0.0023047400230 0.0016689496719 0.1466326819104 0.0032266360323 0.0534942289559 0.0024327811354 0.0030249712802 0.0016133180161 0.0018615207878 0.0014666527419 0.0569600034266 0.0011523700115 0.0316688351314 0.0025473442360 0.0011804765972 0.0021999791129 0.0017925755735 0.0026888633602 0.0007117579483 0.0023047400230 0.0021999791129 0.0008491147453 0.0136747908034 0.0020166475202 0.0877547223925 0.0021999791129 0.0014596686813 0.0006816836688 0.0030249712802 0.0026888633602 0.1251217750287 0.0010297774571 0.0032266360323 0.0021043278471 0.0019359816194 0.0034571100346 0.0032266360323 0.0007562428201 0.0030249712802 0.0013828440138 0.0026888633602 0.0030249712802 0.0006049942560 0.0015124856401 0.0012736721180 0.0139820894731 0.0016133180161 0.0015124856401 0.0017285550173 0.0016133180161 0.0021043278471 0.0026888633602 0.0026888633602 0.0017925755735 0.0028470317932 0.0026888633602 0.0026888633602 0.0009679908097 0.0021043278471 0.0012736721180 0.0013080956888 0.0010297774571 0.0017925755735 0.0019359816194
4 0.0082595662842 0.1734508919692 0.0053097211827 0.0032320041982 0.0082595662842 0.0082595662842 0.0053097211827 0.0032320041982 0.0078248522693 0.0053097211827 0.0082595662842 0.0018819264951 0.0074336096558 0.0092920120698 0.0092920120698 0.0059468877247 0.0051266273488 0.0020366053852 0.0114363225474 0.0099114795411 0.0078248522693 0.0087454231245 0.0070796282436 0.0780529013862 0.0106194423655 0.0074336096558 0.0059468877247 0.0033789134799 0.0074336096558 0.0031632381514 0.0034574928632 0.0030973373566 0.0027031307839 0.0070796282436 0.0041297831421 0.0041297831421 0.0070796282436 0.0051266273488 0.0099114795411 0.0099114795411 0.0078248522693 0.0035398141218 0.0092920120698 0.0049557397705 0.0057181612737 0.0045052179732 0.0030341263901 0.0743360965582 0.0055063775228 0.0078248522693 0.0036261510516 0.0067578269598 0.0055063775228 0.0082595662842 0.0021863557811 0.0070796282436 0.0067578269598 0.0026082840898 0.0042477769462 0.0061946747132 0.0067578269598 0.0067578269598 0.0021238884731 0.0020939745509 0.0092920120698 0.0082595662842 0.0099114795411 0.0031632381514 0.0099114795411 0.0064640083964 0.0059468877247 0.0106194423655 0.0099114795411 0.0023230030174 0.0092920120698 0.0042477769462 0.0082595662842 0.0092920120698 0.0018584024140 0.0046460060349 0.0778138086779 0.0099114795411 0.0049557397705 0.0046460060349 0.0053097211827 0.0049557397705 0.0064640083964 0.0082595662842 0.0082595662842 0.0026082840898 0.0087454231245 0.0082595662842 0.0082595662842 0.0062772703760 0.0064640083964 0.0039124261346 0.0040181673815 0.0031632381514 0.0055063775228 0.0059468877247
5 0.0075360304727 0.0075360304727 0.0048445910182 0.0029488814893 0.0075360304727 0.0075360304727 0.0048445910182 0.0029488814893 0.0071393972899 0.0048445910182 0.0242827648565 0.0017170702343 0.0067824274254 0.0084780342818 0.0084780342818 0.0054259419403 0.0046775361555 0.0018581992946 0.0104345037314 0.0090432365672 0.0071393972899 0.0079793263829 0.0064594546909 0.0033912137127 0.0096891820363 0.0067824274254 0.0054259419403 0.0065083899537 0.0067824274254 0.0028861393300 0.0031546174072 0.0028260114273 0.0079470866803 0.0064594546909 0.0037680152363 0.0037680152363 0.2576604704473 0.0046775361555 0.0090432365672 0.0090432365672 0.0071393972899 0.0032297273454 0.0084780342818 0.0045216182836 0.0052172518657 0.0041105620760 0.0027683377247 0.0032297273454 0.0050240203151 0.0071393972899 0.0033085011831 0.0130167799074 0.0050240203151 0.0075360304727 0.0019948315957 0.0064594546909 0.0061658431140 0.0023797990966 0.0038756728145 0.0056520228545 0.0061658431140 0.0061658431140 0.0019378364073 0.0019105429367 0.0084780342818 0.0075360304727 0.0090432365672 0.0317475326296 0.0090432365672 0.0058977629786 0.0054259419403 0.0096891820363 0.0090432365672 0.0021195085704 0.0084780342818 0.0038756728145 0.0075360304727 0.0084780342818 0.0016956068564 0.0042390171409 0.0035696986450 0.0090432365672 0.0246176995441 0.0042390171409 0.0048445910182 0.0045216182836 0.0058977629786 0.0075360304727 0.0075360304727 0.0023797990966 0.0079793263829 0.0075360304727 0.0075360304727 0.0027129709702 0.0058977629786 0.0035696986450 0.0036661769867 0.0028861393300 0.0050240203151 0.1139447807471
6 0.0043137070479 0.0043137070479 0.0027730973879 0.0016879723231 0.0043137070479 0.0043137070479 0.0027730973879 0.0148166459472 0.0040866698349 0.0027730973879 0.0043137070479 0.0009828699603 0.0038823363431 0.0048529204289 0.0048529204289 0.0100078003512 0.0026774733401 0.0010636537926 0.0059728251433 0.3905342780714 0.0040866698349 0.0502419997346 0.0365638025966 0.0019411681716 0.0055461947759 0.0038823363431 0.0031058690745 0.0017646983378 0.0038823363431 0.0016520580184 0.0018057378340 0.0016176401430 0.0014117586702 0.0036974631839 0.0021568535240 0.0021568535240 0.0036974631839 0.0026774733401 0.0051764484575 0.0051764484575 0.0040866698349 0.0018487315920 0.0048529204289 0.0543527088038 0.0029864125716 0.0023529311170 0.0015846270788 0.0018487315920 0.0028758046986 0.0040866698349 0.0018938226064 0.0035293966756 0.0028758046986 0.0043137070479 0.0011418636303 0.0201306328903 0.0035293966756 0.0013622232783 0.0416580852056 0.0032352802859 0.0035293966756 0.0035293966756 0.0035742144111 0.0010936158713 0.0048529204289 0.0043137070479 0.0166796672519 0.0016520580184 0.0051764484575 0.0033759446462 0.0031058690745 0.0055461947759 0.0051764484575 0.0039092970122 0.0048529204289 0.0022184779104 0.0043137070479 0.0048529204289 0.0009705840858 0.0024264602145 0.0020433349174 0.0051764484575 0.0025882242288 0.0024264602145 0.0027730973879 0.0744833416940 0.0033759446462 0.0043137070479 0.0043137070479 0.0013622232783 0.0045674545213 0.0043137070479 0.0043137070479 0.0015529345373 0.0033759446462 0.0020433349174 0.0020985601855 0.0016520580184 0.0028758046986 0.0031058690745
7 0.1010218930589 0.0026819971609 0.0017241410320 0.0010494771499 0.0026819971609 0.0026819971609 0.0017241410320 0.0033816485941 0.0025408394155 0.0017241410320 0.0026819971609 0.0006110879607 0.0024137974448 0.0030172468060 0.0030172468060 0.0019310379558 0.0016646878929 0.0006613143684 0.0037135345304 0.0032183965930 0.0053639943217 0.0028397616997 0.1683272503814 0.0012068987224 0.0034482820640 0.0024137974448 0.0019310379558 0.0010971806567 0.0024137974448 0.0215701048256 0.0011226964859 0.0010057489353 0.0008777445254 0.0022988547093 0.0013409985804 0.0013409985804 0.0022988547093 0.0016646878929 0.1462582451720 0.0032183965930 0.0533576277265 0.0024265688598 0.0030172468060 0.0016091982965 0.0018567672652 0.0014629075423 0.0557198593827 0.0011494273547 0.0315879665612 0.0025408394155 0.0011774621682 0.0021943613134 0.0017879981072 0.0026819971609 0.0007099404249 0.0022988547093 0.0021943613134 0.0008469464718 0.0151724410814 0.0020114978706 0.0850924553763 0.0021943613134 0.0006896564128 0.0006799429422 0.0030172468060 0.0026819971609 0.1248022678852 0.0010271478488 0.0032183965930 0.0020989542998 0.0019310379558 0.0034482820640 0.0032183965930 0.0007543117015 0.0030172468060 0.0013793128256 0.0026819971609 0.0030172468060 0.0006034493612 0.0015086234030 0.0012704197078 0.0103703890220 0.0016091982965 0.0015086234030 0.0017241410320 0.0016091982965 0.0020989542998 0.0026819971609 0.0026819971609 0.0008469464718 0.0028397616997 0.0086419908516 0.0026819971609 0.0009655189779 0.0020989542998 0.0012704197078 0.0013047553756 0.0010271478488 0.0017879981072 0.0019310379558
8 0.0156663737571 0.0156663737571 0.0047705874975 0.0029038358680 0.0074209138849 0.0156663737571 0.0047705874975 0.0029038358680 0.0148418277699 0.0153718930474 0.0074209138849 0.0035695535143 0.0066788224965 0.0083485281206 0.0176246704767 0.0112797891051 0.0199596994147 0.0058960685661 0.0216919021252 0.0187996485085 0.0070303394699 0.0165879251546 0.0134283203632 0.0144707820756 0.0201424805449 0.0066788224965 0.0053430579972 0.0030358284075 0.0066788224965 0.0059998878219 0.0031064290681 0.0398874121316 0.0024286627260 0.0063607833300 0.0160786467507 0.0078331868786 0.0134283203632 0.0199596994147 0.0089050966619 0.0187996485085 0.0148418277699 0.0031803916650 0.0176246704767 0.0143471001776 0.0279711369509 0.0085452947766 0.0027260499986 0.0067141601816 0.0104442491714 0.0070303394699 0.0032579621934 0.0060716568150 0.0104442491714 0.0239118336293 0.0019643595578 0.0063607833300 0.0128179421649 0.0075511053566 0.0038164699980 0.0179338752219 0.0060716568150 0.0060716568150 0.0082690183289 0.0018813584497 0.0083485281206 0.0074209138849 0.0187996485085 0.0028420521261 0.0385887522017 0.0316195461185 0.0053430579972 0.0095411749949 0.0089050966619 0.0044061676192 0.0083485281206 0.0080569922179 0.0074209138849 0.0083485281206 0.0016697056241 0.0041742640603 0.0035151697350 0.0089050966619 0.0044525483310 0.0041742640603 0.0100712402724 0.0044525483310 0.0058076717360 0.0156663737571 0.0156663737571 0.0023434464900 0.0078574382311 0.0074209138849 0.0074209138849 0.0026715289986 0.0122606403316 0.0035151697350 0.0036101743224 0.0028420521261 0.0049472759233 0.0112797891051
9 0.0045010531188 0.0045010531188 0.0028935341478 0.0017612816552 0.0095022232509 0.0045010531188 0.0286138376840 0.0037182612721 0.0042641555863 0.0061085720898 0.0045010531188 0.0033045706442 0.0175541071635 0.0050636847587 0.0050636847587 0.0176441282258 0.0058979316730 0.0011098487142 0.0062322273953 0.0114026679011 0.0137400568891 0.0047658209494 0.0038580455304 0.0020254739035 0.0186472200638 0.1210783288967 0.0032407582456 0.0018413399123 0.0040509478070 0.0017238075774 0.0018841617707 0.0016878949196 0.0014730719298 0.0038580455304 0.0047511116254 0.0022505265594 0.0810189561391 0.0058979316730 0.0054012637426 0.0054012637426 0.0042641555863 0.0019290227652 0.0219426339543 0.0507118651389 0.0031161136977 0.0079109418452 0.0016534480845 0.0040723813932 0.0030007020792 0.0042641555863 0.0019760721010 0.0036826798245 0.0030007020792 0.0045010531188 0.0051629726951 0.0724455216270 0.0036826798245 0.0014213851954 0.0074588880255 0.0033757898391 0.0036826798245 0.0323257451262 0.0037294440128 0.0011411120583 0.0050636847587 0.0045010531188 0.0054012637426 0.0017238075774 0.0054012637426 0.0152644410117 0.0032407582456 0.0250772959478 0.0474110928517 0.0026725002893 0.0050636847587 0.0023148273183 0.0045010531188 0.0050636847587 0.0010127369517 0.0109713169772 0.0021320777931 0.0414096886933 0.0027006318713 0.0025318423793 0.0028935341478 0.0027006318713 0.0035225633104 0.0045010531188 0.0595139245713 0.0014213851954 0.0047658209494 0.0045010531188 0.0145033933829 0.0052212216179 0.0035225633104 0.0021320777931 0.0021897015173 0.0017238075774 0.0030007020792 0.0032407582456
10 0.0075721522381 0.0075721522381 0.0102764923232 0.0029630160932 0.0075721522381 0.0075721522381 0.0048678121531 0.0029630160932 0.0071736179098 0.0102764923232 0.0075721522381 0.0036423010766 0.0068149370143 0.0085186712679 0.0179838615656 0.0054519496115 0.0046999565616 0.0018671060313 0.0104845184836 0.0090865826858 0.0071736179098 0.0080175729580 0.0064904162041 0.0071935446262 0.0313703449866 0.0219592414906 0.0054519496115 0.0030976986429 0.0068149370143 0.0028999731976 0.0031697381462 0.0154598108195 0.0024781589143 0.0209135633244 0.0037860761191 0.0079928273625 0.0209135633244 0.0099221305189 0.0090865826858 0.0090865826858 0.0071736179098 0.0032452081021 0.0085186712679 0.0499762047717 0.0052422592418 0.0087194480318 0.0027816069446 0.0032452081021 0.0050481014921 0.0071736179098 0.0033243595192 0.0061953972857 0.0050481014921 0.0075721522381 0.0020043932395 0.0064904162041 0.0199629468096 0.0023912059699 0.0038942497225 0.0056791141786 0.0956844691910 0.0061953972857 0.0019471248612 0.0061857018283 0.0085186712679 0.0159856547250 0.0292789886541 0.0028999731976 0.0090865826858 0.0059260321864 0.0054519496115 0.0097356243062 0.0090865826858 0.0021296678170 0.0085186712679 0.0038942497225 0.0412261621854 0.0085186712679 0.0017037342536 0.0042593356340 0.0075721522381 0.0090865826858 0.0045432913429 0.0042593356340 0.0535459336840 0.0045432913429 0.0322639530147 0.0075721522381 0.0159856547250 0.0050481014921 0.0169259873558 0.0075721522381 0.0075721522381 0.0087836965962 0.0059260321864 0.0035868089549 0.0036837497375 0.0028999731976 0.0050481014921 0.0054519496115
11 0.0055170108580 0.0017121757835 0.0011006844323 0.0006699818283 0.0093218459325 0.0017121757835 0.0023236671348 0.0006699818283 0.0016220612686 0.0011006844323 0.0188339336187 0.0016905026723 0.0015409582052 0.0040664174859 0.0040664174859 0.0258880978468 0.0010627297967 0.0266911786526 0.0076389381111 0.0271665224318 0.0016220612686 0.0018128920061 0.0014675792430 0.0101874459119 0.0022013688645 0.0015409582052 0.0012327665641 0.0007004355478 0.0255114191744 0.0006557268958 0.0023094464057 0.0006420659188 0.0098994890756 0.0014675792430 0.0056121317349 0.0018072966604 0.0014675792430 0.0010627297967 0.0682587412362 0.0020546109402 0.0034243515670 0.0023644332249 0.0019261977565 0.0010273054701 0.0011853524655 0.0019715963568 0.0006289625327 0.0007337896215 0.0011414505223 0.0034243515670 0.0007516869293 0.0605487617989 0.0011414505223 0.0074194283952 0.0004532230015 0.0014675792430 0.0014008710956 0.0011414505223 0.0008805475458 0.0012841318376 0.0014008710956 0.0045139179747 0.0004402737729 0.0004340727338 0.0040664174859 0.1272717332414 0.0066204130296 0.0006557268958 0.0089033140743 0.0058065091789 0.0026025071909 0.0022013688645 0.0066204130296 0.0004815494391 0.0190479555916 0.0233834292720 0.0093218459325 0.0040664174859 0.0012413274430 0.0715903499483 0.0017121757835 0.0020546109402 0.0021687559925 0.0020332087429 0.0047696325398 0.0044516570371 0.0028288121641 0.0017121757835 0.0017121757835 0.0071490848505 0.0058415409085 0.0017121757835 0.1348814033903 0.0019861239089 0.0013399636567 0.0017121757835 0.0137899563105 0.0057558249744 0.0188973475366 0.1025935729483
12 0.0063552031171 0.0063552031171 0.0040854877182 0.0024868186110 0.0063552031171 0.0134165399139 0.0040854877182 0.0024868186110 0.0060207187425 0.0086249185161 0.0063552031171 0.0030569331449 0.0057196828054 0.0071496035068 0.0071496035068 0.0045757462443 0.0039446088313 0.0015670363850 0.0087995120083 0.0330470562090 0.2267804059689 0.0216824576937 0.0054473169575 0.0028598414027 0.0081709754363 0.0057196828054 0.0045757462443 0.0025998558206 0.0120748859225 0.0024339075768 0.0026603175839 0.0023832011689 0.0020798846565 0.0054473169575 0.0031776015586 0.0031776015586 0.0054473169575 0.0039446088313 0.0076262437405 0.0076262437405 0.0060207187425 0.0027236584788 0.0150936074032 0.0038131218703 0.0043997560042 0.0034664744275 0.0023345644104 0.0027236584788 0.0042368020781 0.0060207187425 0.0027900891734 0.0051997116413 0.0042368020781 0.0063552031171 0.0016822596487 0.0054473169575 0.0051997116413 0.0020069062475 0.0032683901745 0.0471344231187 0.0051997116413 0.0051997116413 0.0016341950873 0.0034013763162 0.0071496035068 0.0134165399139 0.0160998478967 0.0024339075768 0.0160998478967 0.0049736372221 0.1011748336246 0.0081709754363 0.0076262437405 0.0017874008767 0.0071496035068 0.0032683901745 0.0134165399139 0.0071496035068 0.0014299207014 0.0035748017534 0.0030103593713 0.0076262437405 0.0038131218703 0.0035748017534 0.0494797956976 0.0165235281045 0.0049736372221 0.0063552031171 0.0063552031171 0.0020069062475 0.0067290385946 0.0063552031171 0.0063552031171 0.0022878731222 0.0049736372221 0.0030103593713 0.0030917204354 0.0024339075768 0.0042368020781 0.0147440712317
13 0.0083751678422 0.0083751678422 0.0053840364700 0.0032772395904 0.0176809098890 0.0083751678422 0.0352953501920 0.0032772395904 0.0079343695347 0.0053840364700 0.0083751678422 0.0040285617469 0.0075376510579 0.0722358226386 0.0094220638224 0.0060301208464 0.0225263135065 0.0020651098789 0.0115963862430 0.0100502014106 0.0079343695347 0.0285741020497 0.0151550656191 0.0037688255290 0.0227325984287 0.0075376510579 0.0194303893938 0.0034262050263 0.0075376510579 0.0032075110885 0.0035058842130 0.0031406879408 0.0027409640211 0.0071787152933 0.0041875839211 0.0088404549445 0.0071787152933 0.0051983800400 0.0100502014106 0.0100502014106 0.0167503356843 0.0035893576466 0.0094220638224 0.0050251007053 0.0057981931215 0.0045682733685 0.0030765922685 0.0035893576466 0.0117872732593 0.0431982341333 0.0036769029551 0.0068524100527 0.0117872732593 0.0083751678422 0.0022169561935 0.0071787152933 0.0068524100527 0.0026447898449 0.0090930393715 0.0062813758816 0.0068524100527 0.0144661990001 0.0021536145880 0.0021232819882 0.0094220638224 0.0176809098890 0.0100502014106 0.0032075110885 0.0100502014106 0.0065544791808 0.0060301208464 0.0107680729399 0.0100502014106 0.0023555159556 0.0198910236251 0.0569511413267 0.0083751678422 0.0094220638224 0.0039782047250 0.0047110319112 0.0039671847673 0.0100502014106 0.0050251007053 0.0047110319112 0.0053840364700 0.0106085459334 0.0138372338262 0.0083751678422 0.0362923939827 0.0055834452281 0.0088678247741 0.0176809098890 0.0083751678422 0.0063651275600 0.0065544791808 0.0039671847673 0.0040744059773 0.0032075110885 0.0055834452281 0.0060301208464
14 0.0087809457080 0.0087809457080 0.0056448936694 0.0148894296788 0.0087809457080 0.0087809457080 0.0056448936694 0.0034360222336 0.0083187906707 0.0056448936694 0.0087809457080 0.0020007218069 0.0079028511372 0.0098785639215 0.0098785639215 0.0133470374762 0.0054502421636 0.0021651646951 0.0121582325188 0.0222450624603 0.0083187906707 0.0092974719261 0.0075265248926 0.0083418984226 0.0112897873388 0.0079028511372 0.0063222809098 0.0035922050624 0.0079028511372 0.0033629153775 0.0159282270982 0.0032928546405 0.0028737640499 0.0075265248926 0.0043904728540 0.0043904728540 0.0075265248926 0.0054502421636 0.0105371348496 0.0105371348496 0.0083187906707 0.0037632624463 0.0208547460565 0.0052685674248 0.0060791162594 0.0101113920274 0.0032256535254 0.0037632624463 0.0253671764898 0.0083187906707 0.0038550493352 0.0151670880411 0.0253671764898 0.0087809457080 0.0049069990721 0.0075265248926 0.0071844101247 0.0027729302236 0.0045159149355 0.0358555283076 0.0151670880411 0.0071844101247 0.0047667990986 0.0022261552499 0.0208547460565 0.0087809457080 0.0105371348496 0.0033629153775 0.0105371348496 0.0145076494306 0.0063222809098 0.0112897873388 0.0105371348496 0.0024696409804 0.0537832924615 0.0045159149355 0.0087809457080 0.0098785639215 0.0019757127843 0.0049392819607 0.0041593953354 0.0105371348496 0.1106399159207 0.0159154640957 0.0119169977466 0.0052685674248 0.0068720444671 0.0087809457080 0.0087809457080 0.0027729302236 0.0092974719261 0.0087809457080 0.0087809457080 0.0031611404549 0.0068720444671 0.0041593953354 0.0090182685650 0.0033629153775 0.0123583680335 0.0063222809098
15 0.0054566702693 0.0115196372351 0.0035078594588 0.0021352188010 0.0115196372351 0.0054566702693 0.0074054810797 0.0021352188010 0.0166572039799 0.0113031027006 0.0054566702693 0.0026247274713 0.0158243437809 0.0129595918895 0.0879888080921 0.0082941388093 0.0109133405386 0.0013454803404 0.0243451442783 0.0065480043231 0.0051694770972 0.0186168750364 0.0150708036009 0.0024555016212 0.0070157189176 0.0049110032424 0.0170248112401 0.0022322742011 0.0594777059351 0.0020897886138 0.0022841875546 0.0065934765754 0.0097227942980 0.0046771459451 0.0239487195152 0.0057598186176 0.0046771459451 0.0146765614139 0.0138235646822 0.0065480043231 0.0051694770972 0.0023385729725 0.0129595918895 0.0032740021616 0.0037776948018 0.0029763656014 0.0020044911193 0.0023385729725 0.0036377801795 0.0109133405386 0.0077191920882 0.0044645484021 0.0036377801795 0.0054566702693 0.0014444127183 0.0046771459451 0.0243069857450 0.0036377801795 0.0028062875671 0.0086397279264 0.0044645484021 0.0094251577378 0.0014031437835 0.0013833811950 0.0334221053993 0.0115196372351 0.0138235646822 0.0044117759624 0.0429258061183 0.0042704376020 0.0039288025939 0.0381966918850 0.0065480043231 0.0015346885132 0.0129595918895 0.0028062875671 0.0054566702693 0.0061387540529 0.0012277508106 0.0030693770265 0.0025847385486 0.0065480043231 0.0214629030592 0.0064797959448 0.0113031027006 0.0032740021616 0.0090153682710 0.0115196372351 0.0175826042010 0.0610764145930 0.0057776508734 0.0115196372351 0.0054566702693 0.0019644012969 0.0042704376020 0.0025847385486 0.0026545963472 0.0020897886138 0.0036377801795 0.0039288025939
16 0.0044260795224 0.0044260795224 0.0028453368358 0.0017319441609 0.0044260795224 0.0044260795224 0.0123297929552 0.0017319441609 0.0088521590447 0.0028453368358 0.0044260795224 0.0021290002766 0.0039834715701 0.0049793394627 0.0215771376715 0.0031867772561 0.0027472217725 0.0168554809208 0.0061284178002 0.0525228103321 0.0088521590447 0.0046864371413 0.0037937824477 0.0174830141134 0.0056906736716 0.0039834715701 0.0138093681098 0.0018106688955 0.0039834715701 0.0016950942852 0.0039114191128 0.0016597798209 0.0014485351164 0.0080090962786 0.0022130397612 0.0022130397612 0.0037937824477 0.0027472217725 0.0112127347900 0.0053112954268 0.0135111901209 0.0018968912239 0.0049793394627 0.0026556477134 0.0064688854558 0.0050966976318 0.0034324698337 0.0018968912239 0.0029507196816 0.0041931279686 0.0019431568635 0.0036213377910 0.0029507196816 0.0044260795224 0.0011716092853 0.0037937824477 0.0639769676415 0.0060567403990 0.0022762694686 0.0070079592437 0.0076450464477 0.0036213377910 0.0024027288836 0.0036156705957 0.0049793394627 0.0093439456583 0.0053112954268 0.0016950942852 0.0112127347900 0.0881367139672 0.0881675040856 0.0056906736716 0.0112127347900 0.0026279847164 0.0049793394627 0.0022762694686 0.0044260795224 0.1100987281189 0.0009958678925 0.0024896697313 0.0044260795224 0.0643256890584 0.0026556477134 0.0052559694328 0.0123297929552 0.0026556477134 0.0111614179260 0.0437690086101 0.0093439456583 0.0013977093229 0.0046864371413 0.0191796779303 0.0044260795224 0.0015933886281 0.0073126531239 0.0020965639843 0.0021532278757 0.0016950942852 0.0062292971056 0.0031867772561
17 0.0018976300334 0.0061145856633 0.0012199050215 0.0007425508826 0.0124400191081 0.0040061078484 0.0391725056903 0.0056928901003 0.0057927653652 0.0025753550454 0.0293078416275 0.0110014500673 0.0017078670301 0.0021348337876 0.0021348337876 0.0013662936241 0.0024865496990 0.0015077060540 0.0230635034833 0.0073375027960 0.0297628289455 0.0020092553295 0.0016265400287 0.0008539335150 0.0051507100908 0.0055031270970 0.0878982231489 0.0016388623016 0.0111960171973 0.0055717647790 0.0007943567582 0.0007116112625 0.0040712789808 0.0251210071093 0.0009488150167 0.0009488150167 0.0052410734257 0.0051039704348 0.0048073294180 0.0048073294180 0.0037952600669 0.0062350701099 0.0021348337876 0.0011385780201 0.0027734592796 0.0010350709273 0.0037952600669 0.0017169033636 0.0673307248901 0.0037952600669 0.0008331058683 0.0015526063910 0.0434346429876 0.0018976300334 0.0005023138324 0.0016265400287 0.0015526063910 0.0005992515895 0.0063977241127 0.0520266900834 0.0050028428154 0.0015526063910 0.0021145020373 0.0004810893043 0.0021348337876 0.0124400191081 0.0048073294180 0.0007267519277 0.0048073294180 0.0031352148379 0.0651266627476 0.0024398100430 0.0022771560401 0.0005337084469 0.0139950214966 0.0020602840363 0.0018976300334 0.0021348337876 0.0013757817742 0.0034394544356 0.0008988773843 0.0933633976452 0.0568023923342 0.0022534356647 0.0012199050215 0.0226450517324 0.0031352148379 0.0018976300334 0.0018976300334 0.0019309217884 0.0399618559983 0.0187654525529 0.0018976300334 0.0022012508388 0.0014851017653 0.0298627042104 0.0050261552237 0.0071867690628 0.0040763904422 0.0013662936241
18 0.0110545764696 0.0233374392136 0.0071065134447 0.0043257038359 0.0110545764696 0.0110545764696 0.0150026394944 0.0475827421952 0.0104727566554 0.0071065134447 0.0110545764696 0.0025187642589 0.0210036952922 0.0124363985283 0.0124363985283 0.0079592950581 0.0068614612570 0.0027257859788 0.0153063366502 0.0132654917635 0.0104727566554 0.0117048456737 0.0094753512597 0.0049745594113 0.0142130268895 0.0099491188226 0.0079592950581 0.0045223267376 0.0099491188226 0.0042336675841 0.0046274971268 0.0041454661761 0.0036178613900 0.0094753512597 0.0055272882348 0.0055272882348 0.0094753512597 0.0068614612570 0.0132654917635 0.0132654917635 0.0104727566554 0.0047376756298 0.0124363985283 0.0066327458818 0.0076531683251 0.0060297689834 0.0040608648256 0.0047376756298 0.0073697176464 0.0104727566554 0.0048532286940 0.0090446534751 0.0073697176464 0.0110545764696 0.0029262114184 0.0094753512597 0.0090446534751 0.0034909188851 0.0056852107558 0.0082909323522 0.0090446534751 0.0190942684475 0.0028426053779 0.0028025686824 0.0124363985283 0.0110545764696 0.0132654917635 0.0042336675841 0.0132654917635 0.0086514076719 0.0079592950581 0.0142130268895 0.0132654917635 0.0065636547788 0.0124363985283 0.0120021115956 0.0110545764696 0.0124363985283 0.0024872797057 0.0062181992641 0.0052363783277 0.0132654917635 0.0066327458818 0.0131273095576 0.0071065134447 0.0729602046993 0.0086514076719 0.0110545764696 0.0110545764696 0.0073697176464 0.0117048456737 0.0110545764696 0.0110545764696 0.0039796475291 0.0086514076719 0.0052363783277 0.0053779020663 0.0042336675841 0.0073697176464 0.0168029562338
19 0.0088074656190 0.0283796114389 0.0056619421836 0.0034463995900 0.0088074656190 0.0088074656190 0.0056619421836 0.0034463995900 0.0083439147969 0.0119529890543 0.0088074656190 0.0020067643182 0.0255416502950 0.1310110510823 0.0099083988213 0.0063413752457 0.0054667027980 0.0021717038513 0.0121949523955 0.0105689587428 0.0083439147969 0.0196872760895 0.0075492562448 0.0039633595285 0.0113238843673 0.0167341846761 0.0063413752457 0.0036030541169 0.0079267190571 0.0033730719392 0.0036868460731 0.0510099050432 0.0028824432935 0.0075492562448 0.0044037328095 0.0044037328095 0.0159373187391 0.0176149312380 0.0105689587428 0.0105689587428 0.0083439147969 0.0037746281224 0.0209177308451 0.0052844793714 0.0128724497508 0.0048040721558 0.0032353955335 0.0037746281224 0.0058716437460 0.0083439147969 0.0038666922230 0.0072061082337 0.0058716437460 0.0088074656190 0.0023313879580 0.0159373187391 0.0072061082337 0.0027813049323 0.0045295537469 0.0066055992142 0.0152128951600 0.0072061082337 0.0022647768735 0.0047138548383 0.0099083988213 0.0088074656190 0.0223122462347 0.0033730719392 0.0105689587428 0.0068927991801 0.0133873477408 0.0239059781086 0.0105689587428 0.0024770997053 0.0099083988213 0.0045295537469 0.0088074656190 0.0209177308451 0.0019816797643 0.0104588654225 0.0041719573985 0.0105689587428 0.0052844793714 0.0049541994107 0.0056619421836 0.0052844793714 0.0068927991801 0.0088074656190 0.0088074656190 0.0027813049323 0.0196872760895 0.0088074656190 0.0088074656190 0.0031706876228 0.0068927991801 0.0041719573985 0.0042847130038 0.0033730719392 0.0058716437460 0.0063413752457
20 0.0073428010665 0.0073428010665 0.0047203721142 0.0028732699826 0.0155014689182 0.0155014689182 0.0099652300189 0.0028732699826 0.0301441306942 0.0047203721142 0.0073428010665 0.0035319802599 0.0066085209599 0.0082606511999 0.0174391525330 0.0111610576211 0.0298776043397 0.0058340063268 0.0101669553229 0.0088113612798 0.0069563378525 0.0164133200311 0.0062938294856 0.0033042604799 0.0094407442284 0.0066085209599 0.0052868167679 0.0030038731636 0.0066085209599 0.0028121365787 0.0030737306790 0.0027535504000 0.0024030985309 0.0062938294856 0.0036714005333 0.0077507344591 0.0062938294856 0.0045576006620 0.0088113612798 0.0088113612798 0.0069563378525 0.0031469147428 0.0174391525330 0.0093008813509 0.0050834776614 0.0040051642181 0.0056944171536 0.0066434866792 0.0048952007110 0.1151660377804 0.0139692312973 0.0060077463272 0.0048952007110 0.0073428010665 0.0062629773803 0.0062938294856 0.0260335674177 0.0048952007110 0.0037762976914 0.0055071007999 0.0260335674177 0.0060077463272 0.0270634667881 0.0018615552000 0.0174391525330 0.0073428010665 0.0088113612798 0.0028121365787 0.0088113612798 0.0057465399651 0.0052868167679 0.0094407442284 0.0283921641239 0.0020651628000 0.0174391525330 0.0037762976914 0.0073428010665 0.0082606511999 0.0016521302400 0.0041303255999 0.0150720653471 0.0088113612798 0.0044056806399 0.0041303255999 0.0047203721142 0.0044056806399 0.0057465399651 0.0073428010665 0.0644534760285 0.0023187792842 0.0077747305410 0.0073428010665 0.0073428010665 0.0026434083840 0.0057465399651 0.0034781689263 0.0194485001222 0.0028121365787 0.0048952007110 0.0229095393276
21 0.0081094047336 0.0081094047336 0.0052131887573 0.0631123237964 0.0081094047336 0.0081094047336 0.0052131887573 0.0031732453305 0.0076825939582 0.0052131887573 0.0171198544376 0.0018477124710 0.0072984642603 0.0091230803253 0.0091230803253 0.0123262951951 0.0050334236278 0.0019995792494 0.0112284065542 0.0097312856803 0.0076825939582 0.0181269046987 0.0069509183431 0.0117586368637 0.0220112414198 0.0072984642603 0.0253013427689 0.0033174837547 0.0072984642603 0.0100073505223 0.0033946345397 0.0064199454141 0.0026539870037 0.0301206461534 0.0040547023668 0.0040547023668 0.0069509183431 0.0050334236278 0.0097312856803 0.0097312856803 0.0076825939582 0.0073370804733 0.0091230803253 0.0048656428402 0.0056142032771 0.0142528931682 0.0029789650042 0.0034754591716 0.0114132362918 0.0076825939582 0.0035602264684 0.0066349675093 0.0054062698224 0.0081094047336 0.0069168452140 0.0146741609465 0.0066349675093 0.0025608646527 0.0088044965679 0.0060820535502 0.0066349675093 0.0066349675093 0.0044022482840 0.0043402447870 0.0496701039934 0.0081094047336 0.0097312856803 0.0031057294724 0.0529814442596 0.0063464906611 0.0058387714082 0.0335961053250 0.0097312856803 0.0022807700813 0.0192598362423 0.0041705510059 0.0081094047336 0.0091230803253 0.0018246160651 0.0045615401627 0.0038412969791 0.0097312856803 0.0102719126626 0.0045615401627 0.0052131887573 0.0048656428402 0.0063464906611 0.0531616532537 0.0081094047336 0.0025608646527 0.0181269046987 0.0081094047336 0.0171198544376 0.0029193857041 0.0133981469512 0.0038412969791 0.0039451158164 0.0031057294724 0.0054062698224 0.0123262951951
22 0.0200121384559 0.0062106636587 0.0084287578225 0.0024302596925 0.0062106636587 0.0062106636587 0.0173011344779 0.0105311253344 0.0058837866241 0.0039925694949 0.0338136132530 0.0014150879222 0.0055895972928 0.0069869966161 0.0069869966161 0.0044716778343 0.0381206252156 0.0015313965186 0.0372639819523 0.0240145661470 0.0058837866241 0.0869492912221 0.0053234259932 0.0027947986464 0.0079851389898 0.0055895972928 0.0044716778343 0.0025407260422 0.0055895972928 0.0023785520395 0.0054884934658 0.0023289988720 0.0020325808338 0.0289830970740 0.0031053318294 0.0100060692279 0.0053234259932 0.0081381110011 0.0074527963905 0.0074527963905 0.0124213273174 0.0144915485370 0.0069869966161 0.0037263981952 0.0090771238089 0.0033876347229 0.0022814682828 0.0144915485370 0.0041404424391 0.0581841121712 0.0087858168831 0.0050814520844 0.0041404424391 0.0062106636587 0.0034706649858 0.0112383437634 0.0163735678275 0.0019612622080 0.0031940555959 0.0046579977440 0.0163735678275 0.0050814520844 0.0015970277980 0.0015745344487 0.0069869966161 0.0062106636587 0.0074527963905 0.0103070588379 0.0074527963905 0.0048605193851 0.0044716778343 0.0079851389898 0.0074527963905 0.0036875815474 0.0302769853363 0.0031940555959 0.0062106636587 0.0069869966161 0.0029500652379 0.0034934983080 0.0029418933120 0.0240145661470 0.0037263981952 0.0151384926681 0.0039925694949 0.0037263981952 0.0156616735742 0.0062106636587 0.0407143506516 0.0019612622080 0.0065759968151 0.0269128758545 0.0062106636587 0.0022358389171 0.0156616735742 0.0062106636587 0.0063785194333 0.0023785520395 0.0087409340382 0.0044716778343
23 0.0032740419763 0.0069118663943 0.0044433426821 0.0012811468603 0.0505657594112 0.0032740419763 0.0021047412705 0.0012811468603 0.0031017239775 0.0067819440937 0.0069118663943 0.0007459842478 0.0029466377786 0.0077758496936 0.0036832972233 0.0049765438039 0.0020321639853 0.0008072980215 0.0045332888902 0.0039288503715 0.0031017239775 0.0034666326808 0.0028063216939 0.0031103398775 0.0135638881874 0.0127687637074 0.0023573102229 0.0058039835034 0.0029466377786 0.0026470977680 0.0013705291994 0.0107770548385 0.0034526260841 0.0028063216939 0.0016370209881 0.0016370209881 0.0028063216939 0.0200958438543 0.0082942396732 0.0563135219917 0.0031017239775 0.0014031608470 0.0077758496936 0.0019644251858 0.0022666444451 0.0017858410780 0.0012027092974 0.0014031608470 0.0021826946508 0.0031017239775 0.0014373842823 0.0473247885660 0.0021826946508 0.3270404151846 0.0008666581702 0.0028063216939 0.0026787616169 0.0010339079925 0.0016837930164 0.0051838997958 0.0830416101253 0.0026787616169 0.0008418965082 0.0008300388109 0.0036832972233 0.0105496908124 0.0170250182766 0.0012538884164 0.0039288503715 0.0025622937206 0.0023573102229 0.0088866853641 0.0126596289749 0.0009208243058 0.0036832972233 0.0035546741457 0.0032740419763 0.0036832972233 0.0015551699387 0.0018416486116 0.0015508619888 0.0039288503715 0.0019644251858 0.0038879248468 0.0044433426821 0.0041471198366 0.0025622937206 0.0032740419763 0.0069118663943 0.0711098941511 0.0034666326808 0.0032740419763 0.0032740419763 0.0011786551115 0.0025622937206 0.0015508619888 0.0033625295972 0.0026470977680 0.0021826946508 0.0023573102229
24 0.0855004180779 0.0205633916896 0.0062617846874 0.0038115211141 0.0205633916896 0.0205633916896 0.0132193232290 0.0080465445742 0.0092278932236 0.0062617846874 0.0097405539582 0.0022193667247 0.0185070525207 0.0109581232030 0.0109581232030 0.0070131988499 0.0060458610775 0.0024017804281 0.0134869208653 0.0116886647499 0.0092278932236 0.0103135277205 0.0083490462499 0.0092535262603 0.0125235693749 0.0087664985624 0.0070131988499 0.0039847720738 0.0087664985624 0.0037304249202 0.0040774411918 0.0401797850777 0.0031878176591 0.0083490462499 0.0048702769791 0.0048702769791 0.0083490462499 0.0060458610775 0.0506508805828 0.0116886647499 0.0194811079165 0.0134512411804 0.0109581232030 0.0058443323749 0.0067434604326 0.0053130294318 0.0035781626785 0.0041745231250 0.0064937026388 0.0092278932236 0.0042763407622 0.0079695441476 0.0064937026388 0.0097405539582 0.0025783819301 0.0083490462499 0.0079695441476 0.0030759644079 0.0105754585832 0.0073054154687 0.0079695441476 0.0079695441476 0.0025047138750 0.0052132542312 0.0109581232030 0.0097405539582 0.0116886647499 0.0078753414981 0.0116886647499 0.0076230422282 0.0070131988499 0.0125235693749 0.0116886647499 0.0027395308008 0.0109581232030 0.0050094277500 0.0097405539582 0.0109581232030 0.0021916246406 0.0115669078254 0.0046139466118 0.0116886647499 0.0058443323749 0.0054790616015 0.0062617846874 0.0058443323749 0.0160930891484 0.0205633916896 0.0097405539582 0.0030759644079 0.0103135277205 0.0097405539582 0.0205633916896 0.0035065994250 0.0076230422282 0.0046139466118 0.0047386478716 0.0037304249202 0.0064937026388 0.0070131988499
25 0.0144248109112 0.0068328051685 0.0092730927286 0.0026737063703 0.0068328051685 0.0068328051685 0.0043925176083 0.0353523397847 0.0064731838438 0.0043925176083 0.0068328051685 0.0015568416840 0.0061495246516 0.0076869058145 0.0247689187357 0.0049196197213 0.0042410514839 0.0016848012744 0.0094608071563 0.0081993662022 0.0496277428026 0.0072347348843 0.0058566901444 0.0030747623258 0.0087850352166 0.0129823298201 0.0049196197213 0.0121127000714 0.0061495246516 0.0026168190007 0.0028602440240 0.0025623019382 0.0072055036322 0.0058566901444 0.0034164025842 0.0034164025842 0.0123641236382 0.0042410514839 0.0081993662022 0.0081993662022 0.0064731838438 0.0029283450722 0.0162279122751 0.0040996831011 0.0099864075539 0.0037269846373 0.0052989101306 0.0029283450722 0.0096165406075 0.0064731838438 0.0029997681227 0.0055904769560 0.0045552034456 0.0068328051685 0.0038183323000 0.0058566901444 0.0118021180183 0.0021577279479 0.0152273943754 0.1133106857104 0.0055904769560 0.0863418107652 0.0017570070433 0.0036569943155 0.0076869058145 0.0068328051685 0.0355305868760 0.0026168190007 0.0173097730935 0.0588215401459 0.0049196197213 0.0087850352166 0.0081993662022 0.0019217264536 0.0076869058145 0.0035140140866 0.0068328051685 0.0162279122751 0.0015373811629 0.0081139561376 0.0032365919219 0.0081993662022 0.0040996831011 0.0038434529073 0.0190342429693 0.0040996831011 0.0053474127405 0.0068328051685 0.0068328051685 0.0021577279479 0.0072347348843 0.0068328051685 0.0144248109112 0.0024598098606 0.0053474127405 0.0032365919219 0.0033240673793 0.0055243956681 0.0045552034456 0.0049196197213
26 0.0520198072244 0.0227951964242 0.0033817049640 0.0455141547332 0.0052604299440 0.0227951964242 0.0033817049640 0.0020584291085 0.0105208598881 0.0033817049640 0.0111053521041 0.0011985789746 0.0047343869496 0.0124935211171 0.0190690585471 0.0037875095597 0.0032650944480 0.0041795196816 0.0072836722302 0.0063125159328 0.0049835652101 0.0488910547740 0.0045089399520 0.0023671934748 0.0067634099281 0.0205156767818 0.0037875095597 0.0021519940680 0.0047343869496 0.0020146327445 0.0242224448586 0.0019726612290 0.0017215952544 0.0145288065121 0.0026302149720 0.0026302149720 0.0045089399520 0.0504275698084 0.0063125159328 0.0133264225249 0.0049835652101 0.0022544699760 0.0256445959772 0.0031562579664 0.0076883206874 0.0092456041441 0.0062266313623 0.0022544699760 0.0035069532960 0.0049835652101 0.0048755204359 0.0043039881360 0.0035069532960 0.0052604299440 0.0029396520276 0.0045089399520 0.0043039881360 0.0016611884034 0.0057113239392 0.0258637805582 0.0043039881360 0.0090861971761 0.0028556619696 0.0028154413785 0.0059179836870 0.0052604299440 0.0063125159328 0.0020146327445 0.0203403291170 0.0086911451249 0.0079958535149 0.1119720088088 0.0063125159328 0.0014794959218 0.0124935211171 0.0027053639712 0.0052604299440 0.0190690585471 0.0011835967374 0.0062467605585 0.0052604299440 0.0203403291170 0.0031562579664 0.0029589918435 0.0033817049640 0.0136771178545 0.0086911451249 0.0111053521041 0.0052604299440 0.0035069532960 0.0055698669996 0.0344850407443 0.0052604299440 0.0061020987351 0.0041168582171 0.0024917826051 0.0025591280809 0.0042531135718 0.0113001828428 0.0037875095597
27 0.0033712962098 0.0033712962098 0.0045753305704 0.0013192028647 0.0033712962098 0.0108630655649 0.0069833992917 0.0027849838255 0.0067425924196 0.0021672618492 0.0146089502424 0.0016216361515 0.0165193514280 0.0164350690227 0.0080068284983 0.0024273332711 0.0067425924196 0.0008312785175 0.0098545581517 0.0175307402909 0.0031938595672 0.0035696077515 0.0028896824655 0.0015170832944 0.0043345236983 0.0030341665888 0.0024273332711 0.0013791666313 0.0030341665888 0.0012911347186 0.0061153745201 0.0363819049307 0.0023292591995 0.0028896824655 0.0073044751212 0.0016856481049 0.0028896824655 0.0044175605508 0.0085406170648 0.0175307402909 0.0031938595672 0.0030502203803 0.0037927082360 0.0020227777259 0.0075205838526 0.0161413576105 0.0012384353424 0.0014448412328 0.0047447872582 0.0493273866485 0.0014800812628 0.0027583332626 0.1570774308118 0.1194937212137 0.0028755173554 0.0028896824655 0.0058231479987 0.0010646198557 0.0017338094793 0.0053378856655 0.0058231479987 0.0027583332626 0.0095359521363 0.0027540166221 0.0037927082360 0.0071171808873 0.0040455554518 0.0113332936414 0.0355109867431 0.0260909011019 0.0051243702389 0.0043345236983 0.0040455554518 0.0030552371901 0.0037927082360 0.0055867194334 0.0033712962098 0.0037927082360 0.0016013656997 0.0145387149047 0.0015969297836 0.0040455554518 0.0020227777259 0.0018963541180 0.0021672618492 0.0177554933716 0.0055699676510 0.0108630655649 0.0033712962098 0.0259057498226 0.0154683002567 0.0033712962098 0.0033712962098 0.0079562590551 0.0055699676510 0.0015969297836 0.0471981469371 0.0027257288505 0.0272200953235 0.0024273332711
28 0.0145841762593 0.0299359407427 0.0044410461541 0.0027032454851 0.0069082940175 0.0069082940175 0.0044410461541 0.0027032454851 0.0210884764746 0.0044410461541 0.0069082940175 0.0015740416749 0.0062174646158 0.0077718307697 0.0077718307697 0.0049739716926 0.0138165880351 0.0035960982557 0.0095653301781 0.0082899528211 0.0065446995956 0.0073146642539 0.0059213948722 0.0203794673518 0.0088820923083 0.0476672287211 0.0049739716926 0.0028261202799 0.0062174646158 0.0055854292057 0.0061050040155 0.0025906102566 0.0022608962239 0.0059213948722 0.0072920881296 0.0072920881296 0.0125007225079 0.0090522473333 0.0082899528211 0.0175010115111 0.0138165880351 0.0194090165255 0.0423133008575 0.0041449764105 0.0047826650891 0.0037681603732 0.0053574525034 0.0029606974361 0.0046055293450 0.0065446995956 0.0030329095687 0.0244930424258 0.0046055293450 0.0069082940175 0.0058923684267 0.0059213948722 0.0056522405598 0.0046055293450 0.0075004335048 0.0051812205132 0.0056522405598 0.0056522405598 0.0116454099153 0.0017513984833 0.0077718307697 0.0069082940175 0.0082899528211 0.0026457296237 0.0175010115111 0.0054064909703 0.0105006069067 0.0088820923083 0.0082899528211 0.0062606414534 0.0423133008575 0.0588191890637 0.0683153519513 0.0164071982917 0.0015543661539 0.0038859153849 0.0032723497978 0.0082899528211 0.0041449764105 0.0038859153849 0.0044410461541 0.0041449764105 0.0054064909703 0.0452877052261 0.0069082940175 0.0046055293450 0.0073146642539 0.0069082940175 0.0069082940175 0.0024869858463 0.0234281275378 0.0032723497978 0.0033607916842 0.0026457296237 0.0046055293450 0.0049739716926
29 0.0408733792752 0.0028516311122 0.0018331914293 0.0011158556526 0.0155255471666 0.0028516311122 0.0018331914293 0.0110345725647 0.0177101300654 0.0059069501610 0.0028516311122 0.0013716706616 0.0025664680010 0.0032080850013 0.0103371627818 0.0020531744008 0.0017699779317 0.0007031419181 0.0083355370973 0.0072241321510 0.0027015452642 0.0030193741188 0.0051600943935 0.0012832340005 0.0036663828586 0.0054180991132 0.0020531744008 0.0037589682843 0.0139729924499 0.0023055740907 0.0131307665168 0.0165156968583 0.0019702178594 0.0078759335480 0.0014258155561 0.0045942945697 0.0024442552390 0.0076699043708 0.0528502299466 0.0034219573347 0.0027015452642 0.0025800471968 0.0459825516846 0.0017109786673 0.0019742061546 0.0067402189925 0.0010475379596 0.0012221276195 0.0019010874081 0.0087049791847 0.0026429751772 0.0049255446484 0.0061257260929 0.0028516311122 0.0007548435297 0.0024442552390 0.0101103284888 0.0029016597282 0.0014665531434 0.0045150825944 0.0127027204090 0.0101103284888 0.0064365387962 0.0007229487327 0.0673697850263 0.0250309842073 0.0186306565999 0.0059459542340 0.0034219573347 0.0022317113052 0.0020531744008 0.0036663828586 0.1555089499866 0.0008020212503 0.0032080850013 0.1285678255740 0.0028516311122 0.0032080850013 0.0042061558905 0.0016040425006 0.0013507726321 0.0110263069673 0.0017109786673 0.0212090063972 0.0018331914293 0.0074142408918 0.0022317113052 0.0281994632209 0.0028516311122 0.0079045213286 0.0030193741188 0.0028516311122 0.0028516311122 0.0010265872004 0.0022317113052 0.0043524895923 0.0198843466744 0.0010921140430 0.0061257260929 0.0020531744008
30 0.0096501537165 0.0029948752913 0.0340132265230 0.0063803864902 0.1693768359211 0.0029948752913 0.0019252769730 0.0024740274146 0.0028372502760 0.0019252769730 0.0096501537165 0.0014405729249 0.0026953877622 0.0071128288169 0.0033692347028 0.0333030132397 0.0018588881119 0.0007384624006 0.0686517566783 0.0035938503496 0.0122947511960 0.0066944271218 0.0025670359640 0.0013476938811 0.0166857337660 0.0026953877622 0.0021563102098 0.0012251762555 0.0056902630535 0.0036958035510 0.0193622169998 0.0011230782343 0.0075144143674 0.0082715603285 0.0048250768583 0.0014974376457 0.0025670359640 0.0018588881119 0.0035938503496 0.0035938503496 0.0091422508893 0.0012835179820 0.0071128288169 0.0097832592850 0.0066808756499 0.0016335683407 0.0011001582703 0.0027096490731 0.0019965835276 0.0028372502760 0.0013148232986 0.0160634220172 0.0019965835276 0.0029948752913 0.0007927611065 0.0025670359640 0.0106181942147 0.0019965835276 0.0032515788877 0.0371863682008 0.1059096807572 0.0078955803135 0.0007701107892 0.0016028910010 0.0071128288169 0.0029948752913 0.0075870174047 0.0011469735158 0.0035938503496 0.0049480548292 0.0093440109090 0.0081289472193 0.0035938503496 0.0073935983755 0.0108564229311 0.0015402215784 0.0096501537165 0.0782411169862 0.0059148787004 0.0147871967510 0.0014186251380 0.0035938503496 0.0137764263401 0.0054282114655 0.0019252769730 0.0017969251748 0.0023438154454 0.0096501537165 0.0096501537165 0.0009457500920 0.0031710444261 0.0029948752913 0.0029948752913 0.0034740553379 0.0049480548292 0.0029948752913 0.0160266299374 0.0075190486038 0.0108702880945 0.0021563102098
31 0.0025792158790 0.0197739884057 0.0127118496894 0.0010092583874 0.0083108067212 0.0025792158790 0.0016580673508 0.0010092583874 0.0024434676748 0.0108695526330 0.0369687609324 0.0012406354861 0.0023212942911 0.0029016178639 0.0029016178639 0.0039204081361 0.0033796621863 0.0062890469378 0.1900683701605 0.0030950590548 0.0024434676748 0.0087996777048 0.0341439054459 0.0011606471456 0.0033161347016 0.0152173736861 0.0369343713874 0.0033998754769 0.0049005101701 0.0009877848047 0.0106767541038 0.0009672059546 0.0008441070149 0.0022107564677 0.0213501758873 0.0012896079395 0.0095799446934 0.0016008926146 0.0030950590548 0.0030950590548 0.0051584317580 0.0011053782339 0.0061256377126 0.0118643930434 0.0236097453540 0.0045331673025 0.0020002082327 0.0060181703843 0.0418406131483 0.0051584317580 0.0023904927659 0.0021102675374 0.0055405378142 0.0025792158790 0.0067514768597 0.0022107564677 0.0021102675374 0.0089593814744 0.0013264538806 0.0019344119093 0.0021102675374 0.0044550092456 0.0006632269403 0.0006538857158 0.0029016178639 0.0111766021424 0.0030950590548 0.0009877848047 0.0168508770762 0.0020185167749 0.0018570354329 0.0033161347016 0.0030950590548 0.0071734441635 0.0093496575614 0.0013264538806 0.0025792158790 0.0029016178639 0.0005803235728 0.0014508089319 0.0025792158790 0.0030950590548 0.0015475295274 0.0062868387051 0.0016580673508 0.0170228248014 0.0199608881071 0.1057478510392 0.0054450113001 0.0026244652804 0.0027309344601 0.1000162601970 0.0025792158790 0.0009285177164 0.0042613131914 0.0012217338374 0.0012547536709 0.0020853234766 0.0131826589371 0.0018570354329
32 0.0243526799030 0.0024626305520 0.0051011632863 0.0009636380421 0.0051988867209 0.0106713990586 0.0051011632863 0.0009636380421 0.0204787172218 0.0015831196406 0.0270889360719 0.0105363180579 0.0046789980488 0.0058487475610 0.0150836121310 0.0017730939974 0.0253056518791 0.0026313038775 0.0034097961489 0.0062386640650 0.0023330184177 0.0055047035868 0.0021108261874 0.0023394990244 0.2318390762519 0.0219174119127 0.0017730939974 0.0010074397713 0.0022163674968 0.0030389908939 0.0010308686032 0.0142627352803 0.0097609720061 0.0021108261874 0.0012313152760 0.0012313152760 0.0021108261874 0.0015285293081 0.0029551566624 0.0095221714677 0.0049252611040 0.0010554130937 0.0027704593710 0.0047610857339 0.0054935604621 0.0028357563932 0.0009046397946 0.0010554130937 0.0052900952598 0.0075175037903 0.0046850044648 0.0020148795425 0.0016417537013 0.0024626305520 0.0042733883108 0.0959253234062 0.0020148795425 0.0016417537013 0.0012664957125 0.0018469729140 0.0020148795425 0.0042536345898 0.0027440740436 0.0047865213546 0.0027704593710 0.0051988867209 0.0095221714677 0.0009431351050 0.0029551566624 0.0019272760842 0.0392050783877 0.0102023265725 0.0325067232863 0.0006926148427 0.0027704593710 0.0434830194609 0.0106713990586 0.0058487475610 0.0005540918742 0.0013852296855 0.0167199653267 0.0029551566624 0.0064028394352 0.0044635178755 0.0051011632863 0.0211786227471 0.0019272760842 0.0216164237342 0.0024626305520 0.0025058345968 0.0055047035868 0.0024626305520 0.0024626305520 0.0048267558819 0.0019272760842 0.0024626305520 0.0011980364848 0.0522916019338 0.0016417537013 0.0017730939974
33 0.0149078265943 0.0149078265943 0.0045396013314 0.0027632355930 0.0070616020710 0.0070616020710 0.0448916131656 0.0027632355930 0.0066899388041 0.0045396013314 0.0070616020710 0.0033967199835 0.0063554418639 0.0079443023299 0.0167713049186 0.0163829168047 0.0043830633544 0.0017412169490 0.0206416060537 0.0084739224852 0.0066899388041 0.0074769904281 0.0060528017751 0.0067085219675 0.0090792026627 0.0134170439349 0.0050843534911 0.0028888372109 0.0487250542899 0.0057093803978 0.0062404855511 0.0026481007766 0.0023110697687 0.0060528017751 0.0035308010355 0.0035308010355 0.0060528017751 0.0043830633544 0.0084739224852 0.0084739224852 0.0066899388041 0.0433784127219 0.0079443023299 0.0042369612426 0.0103208030268 0.0038517829478 0.0025940579036 0.0063890685404 0.0936316126451 0.0215564694799 0.0099895834175 0.0057776744217 0.0047077347140 0.0070616020710 0.0018692476070 0.0060528017751 0.0057776744217 0.0047077347140 0.0036316810651 0.0406042119083 0.0057776744217 0.0057776744217 0.0018158405325 0.0017902653138 0.0079443023299 0.0149078265943 0.0178893919132 0.0027044433463 0.0178893919132 0.0055264711860 0.0050843534911 0.0090792026627 0.0084739224852 0.0019860755825 0.0344253100961 0.0036316810651 0.0070616020710 0.0079443023299 0.0015888604660 0.0039721511649 0.0070616020710 0.0084739224852 0.0042369612426 0.0039721511649 0.0045396013314 0.0042369612426 0.0055264711860 0.0070616020710 0.0070616020710 0.0022299796014 0.0074769904281 0.0070616020710 0.0070616020710 0.0646842749704 0.0055264711860 0.0033449694021 0.0034353739805 0.0087143174493 0.0047077347140 0.0107336351479
34 0.0034754324172 0.0034754324172 0.0022342065539 0.0058931245334 0.0034754324172 0.0034754324172 0.0022342065539 0.0013599518154 0.0032925149215 0.0047166582804 0.0073370239918 0.0007918706773 0.0031278891754 0.0125984425122 0.0212870235551 0.0025023113404 0.0045540148914 0.0027613024684 0.0208525945029 0.0366078881273 0.0032925149215 0.0731885179612 0.0625577835088 0.0015639445877 0.0044684131078 0.0135541864269 0.0025023113404 0.0030015098148 0.0031278891754 0.0116833685513 0.0014548321746 0.0013032871564 0.0024012078519 0.0062888777072 0.0229764698690 0.0017377162086 0.0029789420718 0.0093477147772 0.0180722485692 0.0041705189006 0.0069508648343 0.0014894710359 0.0039098614693 0.0020852594503 0.0024060685965 0.0124273037947 0.0026952333031 0.0014894710359 0.0048913493278 0.0032925149215 0.0032211324842 0.0470763118323 0.0023169549448 0.0034754324172 0.0019421534096 0.0029789420718 0.0344383757700 0.0047558548866 0.0017873652431 0.0026065743129 0.0028435356140 0.0028435356140 0.0008936826216 0.0018600905895 0.0647299287695 0.0111986155664 0.0180722485692 0.0057677389051 0.0180722485692 0.0057420187762 0.0108433491415 0.0044684131078 0.0041705189006 0.0009774653673 0.0039098614693 0.0017873652431 0.0382297565887 0.0082541519907 0.0016508303981 0.0041270759954 0.0016462574608 0.0041705189006 0.0044022143951 0.0019549307346 0.0047166582804 0.0020852594503 0.0027199036308 0.0034754324172 0.0227833902902 0.0010975049738 0.0854547500218 0.0034754324172 0.0189217987156 0.0012511556702 0.0027199036308 0.0144504821555 0.0223554841968 0.0013310166704 0.0460816594571 0.0025023113404
35 0.0385949560082 0.0082393726310 0.0025089818914 0.0049209982990 0.0039028607199 0.0039028607199 0.0052967395485 0.0117085821598 0.0036974469978 0.0025089818914 0.0169123964530 0.0008892594045 0.0113182960878 0.0385407496093 0.0092692942098 0.0028100597184 0.0024224652744 0.0020316261282 0.0114083621044 0.0046834328639 0.0036974469978 0.0041324407623 0.0070623193980 0.0037077176839 0.0050179637828 0.0113182960878 0.0028100597184 0.0104667628398 0.0113182960878 0.0297281731433 0.0542769932679 0.0079683406365 0.0012772998720 0.0776855133777 0.0496530613814 0.0041196863155 0.0033453091885 0.0051140933572 0.0254986900369 0.0046834328639 0.0036974469978 0.0016726545943 0.0043907183099 0.0023417164320 0.0027019804984 0.0021288331200 0.0014337039379 0.0016726545943 0.0083839230280 0.0324553680921 0.0207517960231 0.0031932496799 0.0054929150873 0.0039028607199 0.0044768108258 0.0033453091885 0.0031932496799 0.0012324823326 0.0020071855131 0.0029271455400 0.0031932496799 0.0102893600798 0.0010035927566 0.0009894576473 0.0043907183099 0.0125758845420 0.0307025043301 0.0014947126161 0.0046834328639 0.0403861239715 0.0028100597184 0.0105934790970 0.0046834328639 0.0096351874023 0.0092692942098 0.0020071855131 0.0082393726310 0.1312336917078 0.0008781436620 0.0021953591550 0.0018487234989 0.0046834328639 0.0023417164320 0.0021953591550 0.0108722548627 0.0075455307252 0.0030544127373 0.0039028607199 0.0082393726310 0.0026019071466 0.0041324407623 0.0039028607199 0.0039028607199 0.0014050298592 0.0064482046677 0.0080111351620 0.0040083434421 0.0014947126161 0.0054929150873 0.0028100597184
36 0.0845029553114 0.0063909798135 0.0041084870229 0.0025008181879 0.0063909798135 0.0063909798135 0.0041084870229 0.0025008181879 0.0060546124549 0.0041084870229 0.0134920684951 0.0014561726157 0.0057518818321 0.0151785770570 0.0071898522901 0.0046015054657 0.0039668150566 0.0033268114097 0.0186813256086 0.0161904821941 0.0195093067990 0.0067669198025 0.0054779826973 0.0188533904497 0.0082169740459 0.0057518818321 0.0046015054657 0.0026144917419 0.0057518818321 0.0051671751683 0.0086203913763 0.0023966174300 0.0020915933935 0.0054779826973 0.0031954899067 0.0031954899067 0.0054779826973 0.0127819596269 0.0161904821941 0.0247117886121 0.0060546124549 0.0027389913486 0.0071898522901 0.0038345878881 0.0044245244862 0.0073593100882 0.0023477068703 0.0057823150693 0.0042606532090 0.0666007370035 0.0028057960157 0.0052289834837 0.0042606532090 0.0134920684951 0.0016917299506 0.0115646301387 0.0575188183212 0.0065031022663 0.0032867896184 0.0047932348601 0.0052289834837 0.0110389651323 0.0071213775064 0.0016202484034 0.0071898522901 0.0134920684951 0.0076691757762 0.0024476092903 0.0076691757762 0.0050016363758 0.1119699663319 0.0082169740459 0.0076691757762 0.0037946442642 0.0071898522901 0.0032867896184 0.0205931571767 0.0071898522901 0.0014379704580 0.0035949261451 0.0030273062274 0.0076691757762 0.0038345878881 0.0075892885285 0.0041084870229 0.0080952410971 0.0050016363758 0.0063909798135 0.0063909798135 0.0020182041516 0.0067669198025 0.0063909798135 0.0134920684951 0.0023007527328 0.0161163838774 0.0063909798135 0.0342003784612 0.0024476092903 0.0042606532090 0.0046015054657
37 0.0095455256577 0.0045215647852 0.0029067202191 0.0017693079594 0.0095455256577 0.0045215647852 0.0125957876160 0.0076670011576 0.0042835876913 0.0029067202191 0.0748570170002 0.0010302299511 0.0085909730920 0.0050867603834 0.0050867603834 0.0032555266454 0.0059248090289 0.0011149063854 0.0062606281642 0.0235121368833 0.0042835876913 0.0101070271670 0.0038756269588 0.0020347041534 0.0058134404382 0.0040694083067 0.0032555266454 0.0018497310485 0.0085909730920 0.0017316631092 0.0018927480496 0.0016955867945 0.0080566063446 0.0081818791352 0.0022607823926 0.0047727628289 0.0081818791352 0.0028064884874 0.0054258777423 0.0235121368833 0.0090431295705 0.0019378134794 0.0050867603834 0.0268279510591 0.0066084408400 0.0052066503588 0.0016609829823 0.0019378134794 0.0130622982685 0.0138026714497 0.0041907185814 0.0900202443608 0.0030143765235 0.0095455256577 0.0131657327570 0.0813881661344 0.0036994620970 0.0157064882014 0.0023253761753 0.0033911735889 0.0324730561849 0.0036994620970 0.0011626880876 0.0024199924203 0.0050867603834 0.0145694865302 0.0054258777423 0.0017316631092 0.0054258777423 0.0074704113843 0.0032555266454 0.0058134404382 0.0054258777423 0.0012716900959 0.0050867603834 0.0023253761753 0.0145694865302 0.0898661001067 0.0010173520767 0.0025433801917 0.0021417938456 0.0114546307893 0.0268279510591 0.0053693581825 0.0029067202191 0.0027129388711 0.0035386159189 0.0045215647852 0.0045215647852 0.0030143765235 0.0154265151497 0.0045215647852 0.0396892908927 0.0016277633227 0.0074704113843 0.0021417938456 0.0144201255313 0.0017316631092 0.0130622982685 0.0032555266454
38 0.0090093758465 0.0090093758465 0.0122270100774 0.0035254079399 0.0090093758465 0.0090093758465 0.0057917416156 0.0074425278732 0.0275023052156 0.0057917416156 0.0090093758465 0.0020527691802 0.0081084382618 0.0101355478273 0.0213972676354 0.0064867506095 0.0055920263875 0.0022214899347 0.0124745204028 0.0108112510158 0.0085351981703 0.0413371362368 0.0077223221541 0.0040542191309 0.0115834832312 0.0261271899548 0.0064867506095 0.0036856537554 0.0261271899548 0.0111179531723 0.0079617740039 0.0033785159424 0.0062246596757 0.0077223221541 0.0045046879232 0.0045046879232 0.0077223221541 0.0055920263875 0.0108112510158 0.0108112510158 0.0180187516930 0.0038611610771 0.0101355478273 0.0054056255079 0.0062372602014 0.0049142050072 0.0069868629014 0.0510531297967 0.0060062505643 0.0085351981703 0.0039553357375 0.0237519908680 0.0060062505643 0.0190197934537 0.0023848347829 0.0077223221541 0.0073713075108 0.0028450660568 0.0046333932925 0.0067570318849 0.0073713075108 0.0073713075108 0.0023166966462 0.0048219194671 0.0101355478273 0.0090093758465 0.0108112510158 0.0034503992604 0.0108112510158 0.0070508158799 0.0064867506095 0.0244540201547 0.0108112510158 0.0025338869568 0.0101355478273 0.0046333932925 0.0090093758465 0.0101355478273 0.0020271095655 0.0163294937217 0.0042675990852 0.0708737566590 0.0054056255079 0.0050677739136 0.0057917416156 0.0054056255079 0.0070508158799 0.0090093758465 0.0090093758465 0.0028450660568 0.0095393391316 0.0190197934537 0.0290302110609 0.0032433753047 0.0070508158799 0.0042675990852 0.0092528724910 0.0034503992604 0.0060062505643 0.0064867506095
39 0.0092266655561 0.0092266655561 0.0059314278575 0.0036104343480 0.0092266655561 0.0297303667919 0.0059314278575 0.0036104343480 0.0087410515795 0.0059314278575 0.0092266655561 0.0021022782280 0.0083039990005 0.0103799987506 0.0103799987506 0.0656938587594 0.0057268958624 0.0022750682193 0.0127753830777 0.0110719986673 0.0087410515795 0.0097694105888 0.0079085704767 0.0041519995002 0.0118628557150 0.0083039990005 0.0066431992004 0.0037745450002 0.0083039990005 0.0035336165960 0.0038623251165 0.0034599995835 0.0030196360002 0.0079085704767 0.0251170340138 0.0046133327781 0.0079085704767 0.0057268958624 0.0110719986673 0.0110719986673 0.0087410515795 0.0039542852383 0.0103799987506 0.0055359993337 0.0063876915388 0.0050327266670 0.0033893873471 0.0039542852383 0.0061511103707 0.0087410515795 0.0490588558837 0.0075490900004 0.0061511103707 0.0092266655561 0.0051560778108 0.0166958710063 0.0075490900004 0.0029136838598 0.0047451422860 0.0069199991671 0.0159369677787 0.0243248455570 0.0023725711430 0.0023391546480 0.0103799987506 0.0194785161740 0.0110719986673 0.0035336165960 0.0479786608917 0.0152440561362 0.0066431992004 0.0118628557150 0.0356764401503 0.0054783326739 0.0103799987506 0.0047451422860 0.0194785161740 0.0103799987506 0.0043826661391 0.0051899993753 0.0043705257897 0.0110719986673 0.0116871097044 0.0051899993753 0.0125219032547 0.0116871097044 0.0072208686961 0.0194785161740 0.0092266655561 0.0029136838598 0.0097694105888 0.0092266655561 0.0092266655561 0.0033215996002 0.0072208686961 0.0140828053225 0.0044886481084 0.0035336165960 0.0061511103707 0.0066431992004
40 0.0073281602720 0.0154705605742 0.0047109601749 0.0092398542560 0.0073281602720 0.0073281602720 0.0099453603692 0.0028675409760 0.0069424676261 0.0099453603692 0.0236129608765 0.0016697074037 0.0065953442448 0.0082441803060 0.0082441803060 0.0052762753958 0.0096024169081 0.0018069436287 0.0101466834535 0.0087937923264 0.0146563205440 0.0077592285233 0.0062812802331 0.0179539926664 0.0094219203497 0.1678148702290 0.0052762753958 0.0263147573404 0.0065953442448 0.0028065294659 0.0269267284413 0.0058014602153 0.0023983069981 0.0062812802331 0.0036640801360 0.0077352802871 0.0062812802331 0.0045485132723 0.0087937923264 0.0087937923264 0.0146563205440 0.0031406401166 0.0082441803060 0.0043968961632 0.0107103880899 0.0039971783302 0.0026919772428 0.0031406401166 0.0048854401813 0.0146563205440 0.0103666657506 0.0059957674953 0.0048854401813 0.0073281602720 0.0019398071308 0.0062812802331 0.0059957674953 0.0074567244873 0.0037687681399 0.0116029204307 0.0393055869135 0.0059957674953 0.0018843840699 0.0059863844476 0.0082441803060 0.0073281602720 0.0087937923264 0.0090432616123 0.0087937923264 0.0312243350720 0.0111388036135 0.0094219203497 0.0087937923264 0.0020610450765 0.0540451820060 0.0037687681399 0.0073281602720 0.0082441803060 0.0016488360612 0.0132822904930 0.0034712338131 0.0087937923264 0.0043968961632 0.0041220901530 0.0047109601749 0.0043968961632 0.0057350819520 0.0073281602720 0.0073281602720 0.0023141558754 0.0077592285233 0.0073281602720 0.0073281602720 0.0055694018067 0.0057350819520 0.0034712338131 0.0035650509431 0.0028065294659 0.0048854401813 0.0052762753958
41 0.0035300391954 0.0035300391954 0.0022693109113 0.0013813196852 0.0035300391954 0.0035300391954 0.0022693109113 0.0013813196852 0.1854199535262 0.0047907674795 0.0035300391954 0.0016979935370 0.0031770352758 0.0083838430890 0.0039712940948 0.0844385375537 0.0021910588109 0.0076403588065 0.0048877465782 0.0089427659617 0.0033442476588 0.0328085995807 0.0030257478818 0.0033535372356 0.0045386218226 0.0031770352758 0.0025416282207 0.0014441069436 0.0031770352758 0.0043562185815 0.0261058712589 0.0513326532996 0.0011552855549 0.0030257478818 0.0017650195977 0.0017650195977 0.0131115741543 0.0046255686009 0.0042360470345 0.0183562038160 0.0107759091228 0.0015128739409 0.0172089410775 0.0021180235172 0.0024438732891 0.0019254759248 0.0012967490922 0.0015128739409 0.0023533594636 0.0033442476588 0.0032717436445 0.0413977323823 0.0049682033120 0.0898198861938 0.0009344221400 0.0030257478818 0.0028882138871 0.0729541433714 0.0018154487291 0.0085309280555 0.0028882138871 0.0028882138871 0.0039334722463 0.0018893167525 0.0039712940948 0.0035300391954 0.0089427659617 0.0028540742431 0.0042360470345 0.0058322386706 0.0138377536459 0.0045386218226 0.0042360470345 0.0009928235237 0.0039712940948 0.0018154487291 0.0152968365133 0.0039712940948 0.0007942588190 0.0152232940301 0.0016721238294 0.0277696416704 0.0044713829808 0.0019856470474 0.0022693109113 0.0044713829808 0.0027626393703 0.0035300391954 0.0035300391954 0.0035919697076 0.0078906758485 0.0035300391954 0.0113745707407 0.0012708141103 0.0027626393703 0.0016721238294 0.0017173163653 0.0013519299046 0.0023533594636 0.0025416282207
42 0.0171871006230 0.0171871006230 0.0052336659792 0.0031857097265 0.0443246279224 0.0081412581898 0.0052336659792 0.0031857097265 0.0077127709167 0.0052336659792 0.0081412581898 0.0018549702205 0.0073271323708 0.0091589154636 0.0091589154636 0.0058617058967 0.0050531947385 0.0020074335263 0.0112725113398 0.0097695098278 0.0077127709167 0.0086201557304 0.0069782213056 0.0036635661854 0.0104673319584 0.0073271323708 0.0058617058967 0.0033305147140 0.0154683905607 0.0031179286684 0.0034079685446 0.0030529718212 0.0026644117712 0.0147318005340 0.0040706290949 0.0040706290949 0.0069782213056 0.0050531947385 0.0206245207476 0.0097695098278 0.0077127709167 0.0034891106528 0.0091589154636 0.0103122603738 0.0056362556699 0.0093747821580 0.0029906662738 0.0073659002670 0.0054275054599 0.0077127709167 0.0035742109126 0.0066610294280 0.0054275054599 0.0081412581898 0.0021550389326 0.0147318005340 0.0214633170459 0.0025709236389 0.0041869327833 0.0128903254672 0.0066610294280 0.0214633170459 0.0044195401602 0.0020639809495 0.0193354882008 0.0081412581898 0.0097695098278 0.0031179286684 0.0097695098278 0.0063714194529 0.0058617058967 0.0104673319584 0.0097695098278 0.0022897288659 0.0091589154636 0.0041869327833 0.0081412581898 0.0091589154636 0.0018317830927 0.0045794577318 0.0038563854583 0.0097695098278 0.0103122603738 0.0758154668928 0.0052336659792 0.0048847549139 0.0205301293483 0.0081412581898 0.0081412581898 0.0025709236389 0.0756658114113 0.0805079976550 0.0081412581898 0.0029308529483 0.0205301293483 0.0038563854583 0.0039606120923 0.0031179286684 0.0054275054599 0.0058617058967
43 0.0044946653444 0.0094887379493 0.0028894277214 0.0017587820913 0.0044946653444 0.0044946653444 0.0028894277214 0.0017587820913 0.0042581040105 0.0638884573952 0.0044946653444 0.0010241009645 0.0040451988099 0.0050564985124 0.0106748301929 0.0032361590480 0.0461865611251 0.0011082736466 0.0200531223057 0.0053935984133 0.0184517840454 0.0946523643112 0.0038525702952 0.0042699320772 0.0057788554428 0.0040451988099 0.0032361590480 0.0018387267318 0.0175291948431 0.0017213611957 0.0018814878186 0.0016854995041 0.0014709813854 0.0038525702952 0.0022473326722 0.0122354778819 0.1194296791508 0.0058895614857 0.0053935984133 0.0053935984133 0.0137205573671 0.0083472356396 0.0050564985124 0.0026967992066 0.0065691262726 0.0024516356424 0.0016511015551 0.0019262851476 0.0029964435629 0.0326454640803 0.0282835038744 0.0036774534636 0.0063258252995 0.0144828105541 0.0025117247513 0.0038525702952 0.0118495722716 0.0140359724790 0.0023115421771 0.0146076623693 0.0077635128676 0.0036774534636 0.0011557710886 0.0011394926225 0.0106748301929 0.0044946653444 0.0053935984133 0.0036339847465 0.0053935984133 0.0113343734771 0.0032361590480 0.0121998059348 0.0233722597908 0.0012641246281 0.0050564985124 0.0023115421771 0.0044946653444 0.0106748301929 0.0010112997025 0.0137649126172 0.0021290520052 0.0113864855391 0.0026967992066 0.0081465809367 0.0093103782134 0.0026967992066 0.0035175641826 0.0044946653444 0.0094887379493 0.0045735191224 0.0047590574235 0.0044946653444 0.0194768831590 0.0070116779372 0.0152427781244 0.0092258920227 0.0021865939513 0.0017213611957 0.0096552070361 0.0391934818030
44 0.0050830565794 0.0050830565794 0.0032676792296 0.0019890221398 0.0050830565794 0.0050830565794 0.0032676792296 0.0019890221398 0.0850743153823 0.0032676792296 0.0163787378671 0.0011581647903 0.0045747509215 0.0184260801005 0.0184260801005 0.0036598007372 0.0697605696075 0.0012533564168 0.0070380783408 0.0196544854405 0.0048155272858 0.0173421930357 0.0043569056395 0.0251611300682 0.0137968678585 0.0045747509215 0.0036598007372 0.0020794322370 0.0045747509215 0.0019467025198 0.0021277911263 0.0019061462173 0.0016635457896 0.0043569056395 0.0081893689335 0.0025415282897 0.0043569056395 0.0136716694206 0.0264318942131 0.0060996678953 0.0048155272858 0.0045989559528 0.0057184386519 0.0064385383340 0.0035190391704 0.0027725763161 0.0018672452741 0.0070194590859 0.0033887043863 0.0048155272858 0.0022315858154 0.0041588644741 0.0071539314822 0.0050830565794 0.0013455149769 0.0043569056395 0.0041588644741 0.0016051757619 0.0026141433837 0.0038122924346 0.0041588644741 0.0226427065812 0.0013070716919 0.0012886622314 0.0057184386519 0.0050830565794 0.0060996678953 0.0019467025198 0.0060996678953 0.0039780442796 0.0524571438999 0.0137968678585 0.0060996678953 0.0014296096630 0.0184260801005 0.0026141433837 0.0672093036615 0.0057184386519 0.0024144518752 0.0028592193259 0.0024077636429 0.0264318942131 0.0064385383340 0.0123899504124 0.0068984339292 0.0030498339477 0.0083980934791 0.0107308972233 0.0050830565794 0.0016051757619 0.0053820599076 0.0050830565794 0.0050830565794 0.0038631230004 0.0039780442796 0.0050830565794 0.0024728383359 0.0041097053195 0.0749280192081 0.0605900344270
45 0.0038757609161 0.0124885629519 0.0107967625520 0.0048868289812 0.0038757609161 0.0081821619340 0.0024915605889 0.0015166020976 0.0077515218322 0.0080283618976 0.0038757609161 0.0018642900609 0.0034881848245 0.0140496333209 0.0092049321757 0.0120923740582 0.0024056447065 0.0009556670752 0.0113291472932 0.0098185943208 0.0118312701649 0.0086634655772 0.0070132816577 0.0017440924122 0.0105199224865 0.0073639457406 0.0027905478596 0.0015855385566 0.0034881848245 0.0031335939322 0.0016224115463 0.0014534103435 0.0054965336628 0.0070132816577 0.0019378804580 0.0019378804580 0.0070132816577 0.0024056447065 0.0718307689783 0.0253216379852 0.0036717734995 0.0035066408288 0.0043602310306 0.0023254565497 0.0026832190958 0.0068119434283 0.0283167838360 0.0035066408288 0.0054547746227 0.0077515218322 0.0035921686539 0.0066944961278 0.0025838406107 0.0124885629519 0.0010259367131 0.0033220807852 0.0701160383912 0.0039437567216 0.0019932484711 0.0029068206871 0.0031710771132 0.0066944961278 0.0054260652825 0.0042578781895 0.0043602310306 0.0038757609161 0.0046509130993 0.0014843339679 0.0046509130993 0.0030332041952 0.0027905478596 0.0049831211778 0.0046509130993 0.0023012330439 0.0043602310306 0.0019932484711 0.0038757609161 0.1884588745452 0.0008720462061 0.0021801155153 0.0018358867497 0.0046509130993 0.0049092971604 0.0021801155153 0.0606279743304 0.0074931377711 0.1108804644692 0.0081821619340 0.0038757609161 0.0012239244998 0.0041037468523 0.0038757609161 0.0038757609161 0.0013952739298 0.0097736579623 0.0018358867497 0.0039805112111 0.0047828538965 0.0054547746227 0.0027905478596
46 0.0023788040724 0.0023788040724 0.0015292311894 0.0029993616565 0.0023788040724 0.0340961917038 0.0015292311894 0.0019650990163 0.0197816338649 0.0015292311894 0.0023788040724 0.0011442348702 0.0068985318098 0.0324112054859 0.0056496596719 0.0017127389321 0.0014764990794 0.0012382815719 0.0032937287156 0.0028545648868 0.0022536038580 0.0892751175391 0.0020389749192 0.0010704618326 0.0030584623787 0.0021409236651 0.0017127389321 0.0009731471205 0.0021409236651 0.0120458589196 0.0009957784489 0.0048567249811 0.0016435373591 0.0065700302951 0.0011894020362 0.0064756333081 0.0156321410469 0.0031170536121 0.0028545648868 0.0060263036500 0.0122696210048 0.0010194874596 0.0026761545814 0.0014272824434 0.0016468643578 0.0402234143144 0.0008738463939 0.0010194874596 0.0033479464722 0.0022536038580 0.0010443530074 0.0603351214716 0.0015858693816 0.0023788040724 0.0006296834309 0.0405529456145 0.0387096299047 0.0007512012860 0.0012233849515 0.0017841030543 0.0019462942410 0.0019462942410 0.0012913507821 0.0012731627430 0.2167685210936 0.0050219197083 0.0028545648868 0.0009110313469 0.0028545648868 0.0080672485932 0.0188401282531 0.0030584623787 0.0028545648868 0.0036425437358 0.0026761545814 0.0012233849515 0.0023788040724 0.1008018225662 0.0005352309163 0.0072850874716 0.0023788040724 0.0028545648868 0.0014272824434 0.0013380772907 0.0015292311894 0.0014272824434 0.0266839761160 0.0023788040724 0.0208806135240 0.0007512012860 0.0025187337237 0.0023788040724 0.0103081509802 0.0008563694660 0.0039301980326 0.0011268019290 0.0024430960743 0.0009110313469 0.0068721006535 0.0093249119636
47 0.0072635693867 0.0034406381305 0.0046694374629 0.0013463366598 0.0034406381305 0.0110865006429 0.0095846347922 0.0028422662818 0.0575854171324 0.0218726281156 0.0034406381305 0.0007839428652 0.0099778505786 0.0468786945287 0.0038707178969 0.0024772594540 0.0068812762611 0.0017910171091 0.0047639604885 0.0041287657567 0.0177464493049 0.0117386477395 0.0062259166172 0.0015482871587 0.0093388749258 0.0202997649702 0.0052297699584 0.0029714602037 0.0030965743175 0.0027817925311 0.0014402671244 0.0041574377411 0.0023771681629 0.0029491183976 0.0017203190653 0.0017203190653 0.1110834596435 0.0045084223780 0.0867040808898 0.0133038007715 0.0068812762611 0.0080281556379 0.0038707178969 0.0020643828783 0.0314950721181 0.0039619469382 0.0012639078847 0.0031129583086 0.0022937587537 0.0032595519132 0.0048672441847 0.0028150675614 0.0048423795911 0.0034406381305 0.0009107571522 0.0062259166172 0.0059429204073 0.0010865173044 0.0017694710386 0.0025804785979 0.0028150675614 0.0028150675614 0.0028508144510 0.0115334066911 0.0038707178969 0.0340240881799 0.0087162832641 0.0086381978597 0.0041287657567 0.0056845325635 0.0024772594540 0.0044236775964 0.0041287657567 0.0418252572745 0.0167731108864 0.0037355499703 0.0034406381305 0.0038707178969 0.0016343031120 0.0019353589484 0.0034406381305 0.0362413883085 0.0020643828783 0.0019353589484 0.0390758187684 0.0020643828783 0.0026926733196 0.0034406381305 0.0034406381305 0.0022937587537 0.0198342668702 0.0034406381305 0.0034406381305 0.0494075635547 0.0176519695393 0.0016297759566 0.0053934327452 0.0086381978597 0.0022937587537 0.0024772594540
48 0.0293603275213 0.0094550207272 0.0092772947737 0.0017525324460 0.0044786940287 0.0044786940287 0.0028791604470 0.0036997907193 0.0042429732903 0.0060782276103 0.0094550207272 0.0010204619306 0.0085095186545 0.0050385307823 0.0442271035331 0.0032246597006 0.0058686335548 0.0011043355139 0.0130915671607 0.0053744328344 0.0042429732903 0.0047421466186 0.0038388805960 0.0020154123129 0.1657116790608 0.0085095186545 0.0032246597006 0.0018321930117 0.0219456007405 0.0074327262603 0.0018748021515 0.0016795102608 0.0014657544094 0.0038388805960 0.0047275103636 0.0047275103636 0.0081043034805 0.0027798790523 0.0352323930255 0.0053744328344 0.0089573880573 0.0061848631825 0.0274320009256 0.0146304004937 0.0031006343275 0.0160147241025 0.0071293496783 0.0019194402980 0.0029857960191 0.0089573880573 0.0085204422984 0.0036643860235 0.0029857960191 0.0044786940287 0.0011855366546 0.0038388805960 0.0036643860235 0.0014143244301 0.0023033283576 0.0070912655454 0.0036643860235 0.0036643860235 0.0011516641788 0.0011354435566 0.0050385307823 0.0044786940287 0.0053744328344 0.0150560352453 0.0053744328344 0.0035050648920 0.0103905701465 0.0057583208940 0.0053744328344 0.0012596326956 0.0162352658539 0.0048625820883 0.0691709411095 0.0050385307823 0.0021273796636 0.0025192653911 0.0044786940287 0.0591187611785 0.0056730124363 0.0193143679986 0.0060782276103 0.0026872164172 0.0619228130921 0.0044786940287 0.0044786940287 0.0014143244301 0.0047421466186 0.0194076741242 0.0044786940287 0.0034038074618 0.0035050648920 0.0021214866452 0.0021788241221 0.0074327262603 0.0063033471515 0.0032246597006
49 0.0071789571203 0.0151555761429 0.0046150438631 0.0059304428385 0.0071789571203 0.0071789571203 0.0046150438631 0.0028091571340 0.0068011172719 0.0046150438631 0.0071789571203 0.0016357117489 0.0064610614083 0.0260237195612 0.0080763267604 0.0051688491266 0.0094069093301 0.0017701538105 0.0099400944743 0.0086147485444 0.0143579142406 0.0160470806219 0.0129904938368 0.0104094878245 0.0092300877261 0.0064610614083 0.0051688491266 0.0029368460947 0.0136400185286 0.0088591385740 0.0096832444879 0.0026921089201 0.0258442456332 0.0061533918174 0.0075777880714 0.0035894785602 0.0061533918174 0.0044559044195 0.0181866913715 0.0086147485444 0.0143579142406 0.0064952469184 0.0080763267604 0.0138793170993 0.0049700472371 0.0082666778961 0.0026371679218 0.0099137979281 0.0047859714135 0.0823690869595 0.0136575281801 0.0058736921894 0.0047859714135 0.0071789571203 0.0019003121789 0.0198275958561 0.0058736921894 0.0073049037365 0.0077942963021 0.0532439319757 0.0189263414990 0.0058736921894 0.0018460175452 0.0018200172981 0.0080763267604 0.0071789571203 0.0086147485444 0.0027493878333 0.0181866913715 0.0056183142681 0.0051688491266 0.0092300877261 0.0181866913715 0.0020190816901 0.0349974159616 0.0036920350905 0.0071789571203 0.0080763267604 0.0034100046322 0.0040381633802 0.0071789571203 0.0277586341986 0.0043073742722 0.0040381633802 0.0199985234066 0.0043073742722 0.0118608856771 0.0071789571203 0.0071789571203 0.0022670390906 0.0244929125282 0.0231321951655 0.0231321951655 0.0025844245633 0.0056183142681 0.0034005586359 0.0073729829884 0.0027493878333 0.0047859714135 0.0051688491266
50 0.0067921482301 0.0568395562416 0.0066644762709 0.0012589565369 0.0139417779461 0.0032173333722 0.0020682857393 0.0026577971335 0.0030480000368 0.0112606668026 0.0032173333722 0.0048056371888 0.0125476001515 0.0116628334741 0.0036195000437 0.0023164800280 0.0086535173458 0.0060820822652 0.0094045129340 0.0038608000466 0.0030480000368 0.0034065882764 0.0027577143190 0.0014478000175 0.1420222874285 0.0028956000350 0.0048903467257 0.0013161818341 0.0093302667793 0.0026012482583 0.0148146978532 0.0025470555863 0.0010529454673 0.0119500953823 0.0033960741151 0.0016086666861 0.0088859683612 0.0019969655413 0.0210199113648 0.0038608000466 0.0064346667443 0.0059750476912 0.0398145004806 0.0019304000233 0.0022273846423 0.0115044041793 0.0011818775653 0.0044429841806 0.0045280988201 0.0538480006500 0.0014124878219 0.0026323636681 0.0021448889148 0.0890128899633 0.0008516470691 0.0027577143190 0.0055572121883 0.0258515558676 0.0034931048041 0.0024130000291 0.0172566062689 0.0026323636681 0.0017465524020 0.0116911550707 0.0076411667589 0.0103669630881 0.0081505778762 0.0026012482583 0.0038608000466 0.0025179130739 0.0023164800280 0.0041365714785 0.0124403557057 0.0059319584049 0.0076411667589 0.0034931048041 0.0032173333722 0.0036195000437 0.0023325666948 0.0038205833794 0.0082973334335 0.0038608000466 0.0019304000233 0.0058314167371 0.0043663810051 0.0019304000233 0.0864483488695 0.0032173333722 0.0067921482301 0.0044026667198 0.0034065882764 0.0032173333722 0.0032173333722 0.0011582400140 0.0025179130739 0.0015240000184 0.0015651892081 0.0012321702276 0.0331266176838 0.0177596802144
51 0.0133245378800 0.0063116232063 0.0040574720612 0.0024697656025 0.0063116232063 0.0063116232063 0.0040574720612 0.0216790536218 0.0059794325113 0.0040574720612 0.0063116232063 0.0014380913635 0.0056804608857 0.0149901051150 0.0071005761071 0.0045443687086 0.0169760900032 0.0067439261657 0.0087391705934 0.0075739478476 0.0059794325113 0.0066828951596 0.0054099627483 0.0028402304428 0.0081149441224 0.0056804608857 0.0045443687086 0.0111887865930 0.0183037072984 0.0024172173982 0.0055777135312 0.0023668587024 0.0043607578516 0.0114210324686 0.0031558116032 0.0031558116032 0.0054099627483 0.0039175592315 0.0075739478476 0.0496514358898 0.0059794325113 0.0027049813741 0.0071005761071 0.0037869739238 0.0043695852967 0.0034427035671 0.0255041100991 0.0027049813741 0.0088830252534 0.0059794325113 0.0027709565296 0.0109018946291 0.0042077488042 0.0063116232063 0.0016707237899 0.0054099627483 0.0109018946291 0.0019931441704 0.0032459776490 0.0047337174047 0.0051640553506 0.0051640553506 0.0214595189015 0.0069338959168 0.0071005761071 0.0063116232063 0.0244049430645 0.0024172173982 0.0244049430645 0.0049395312050 0.0045443687086 0.0171315487029 0.0075739478476 0.0017751440268 0.0307691631309 0.0176725449777 0.0203374525537 0.1727806852734 0.0014201152214 0.0035502880536 0.0029897162556 0.0244049430645 0.0037869739238 0.0035502880536 0.0040574720612 0.0079947227280 0.0159162672160 0.0133245378800 0.0203374525537 0.0130661673394 0.0066828951596 0.0063116232063 0.0063116232063 0.0047968336368 0.0049395312050 0.0029897162556 0.0030705193977 0.0158462029436 0.0042077488042 0.0045443687086
52 0.0095739897268 0.0045350477653 0.0029153878491 0.0017745839082 0.0045350477653 0.0045350477653 0.0029153878491 0.0096616235000 0.0042963610408 0.0029153878491 0.0045350477653 0.0010333020225 0.0267567818154 0.0051019287360 0.0051019287360 0.0068932726033 0.0059424763821 0.0023607097956 0.0062792969058 0.0054420573184 0.0042963610408 0.0474846177781 0.0038871837988 0.0020407714944 0.0123094153630 0.0086165907541 0.0032652343910 0.0018552468131 0.0040815429888 0.0017368268037 0.0061170411718 0.0111486590897 0.0014841974505 0.0082062769087 0.0022675238827 0.0022675238827 0.0254826493480 0.0278358104216 0.0054420573184 0.0054420573184 0.0090700955306 0.0019435918994 0.0051019287360 0.0027210286592 0.0101166450149 0.0024736624174 0.0016659359138 0.0019435918994 0.0030233651769 0.0138438300205 0.0019909965799 0.0037104936262 0.0030233651769 0.0448465834571 0.0012004538202 0.0082062769087 0.0037104936262 0.0030233651769 0.0152895896088 0.0034012858240 0.0037104936262 0.0037104936262 0.0011661551397 0.0011497304194 0.0107707384426 0.0045350477653 0.1082364733323 0.0017368268037 0.0054420573184 0.0035491678163 0.0032652343910 0.0058307756983 0.0114887876721 0.0012754821840 0.0958028840424 0.0023323102793 0.0045350477653 0.0051019287360 0.0010203857472 0.0167229886346 0.0021481805204 0.0054420573184 0.0027210286592 0.0110541789280 0.0029153878491 0.0329546804280 0.0035491678163 0.0095739897268 0.0045350477653 0.0014321203469 0.0101371655931 0.0095739897268 0.1405864807249 0.0070746745139 0.0035491678163 0.0021481805204 0.0046576166238 0.0055964419232 0.0030233651769 0.0032652343910
53 0.0072814356950 0.0072814356950 0.0046809229468 0.0028492574459 0.0072814356950 0.0072814356950 0.0046809229468 0.0028492574459 0.0068982022374 0.0150829739397 0.0072814356950 0.0016590612976 0.0356790349057 0.0081916151569 0.0081916151569 0.0052426337004 0.0095411916004 0.0017954225001 0.0324864054086 0.0087377228340 0.0145628713901 0.0248425453125 0.0062412305957 0.0032766460628 0.0093618458936 0.0648047776858 0.0052426337004 0.0029787691480 0.0065532921255 0.0027886349470 0.0030480428491 0.0027305383856 0.0050308101166 0.0062412305957 0.0036407178475 0.0036407178475 0.0062412305957 0.0095411916004 0.0281548846875 0.0087377228340 0.0145628713901 0.0031206152979 0.0172934097757 0.0043688614170 0.0050409939427 0.0083846835276 0.0026748131125 0.0031206152979 0.0048542904634 0.0068982022374 0.0138524874198 0.0125770252914 0.0048542904634 0.0072814356950 0.0019274388604 0.0062412305957 0.0125770252914 0.0048542904634 0.0120663791518 0.0054610767713 0.0059575382959 0.0125770252914 0.0060331895759 0.0018459977818 0.0172934097757 0.0072814356950 0.0087377228340 0.0027886349470 0.0378634656142 0.0056985148918 0.0052426337004 0.0093618458936 0.0087377228340 0.0020479037892 0.0081916151569 0.0037447383574 0.0153719198006 0.0081916151569 0.0034586819551 0.0086467048879 0.0034491011187 0.0087377228340 0.0043688614170 0.0040958075785 0.0254850249326 0.0043688614170 0.0183618813179 0.0234624039062 0.0153719198006 0.0022994007458 0.0334089402478 0.0072814356950 0.0072814356950 0.0084464654062 0.0690153470225 0.0034491011187 0.0114141424409 0.0058871182215 0.0048542904634 0.0052426337004
54 0.0018536191985 0.0018536191985 0.0011916123419 0.0007253292516 0.0059727729731 0.0080323498604 0.0064876671949 0.0337681062692 0.0017560602934 0.0038396397684 0.0018536191985 0.0135619227438 0.0016682572787 0.0136704415893 0.0020853215984 0.0013346058230 0.0024288803291 0.0085825108097 0.0339354899426 0.0022243430383 0.0173654851232 0.1611558338501 0.0015888164559 0.0017609382386 0.0050312521103 0.0090827340729 0.0754793737648 0.0007582987630 0.0016682572787 0.0007098967143 0.0111217151913 0.0006951071995 0.0046508990800 0.0015888164559 0.0009268095993 0.0009268095993 0.0015888164559 0.0011505222612 0.0022243430383 0.0022243430383 0.0329749099531 0.0007944082279 0.0275725855784 0.0011121715191 0.0012832748298 0.0010110650174 0.0044638176618 0.0166825727869 0.0039818486487 0.0037072383971 0.0008137840384 0.0032017058884 0.0094740536815 0.0059727729731 0.0004906639055 0.0298344423385 0.0015165975261 0.0018861388336 0.0051901337559 0.0075689450607 0.0234230062362 0.0133123560623 0.0010062504221 0.0004699316278 0.0461087775639 0.0121515036349 0.0022243430383 0.0007098967143 0.0022243430383 0.0030625012846 0.0161635594113 0.0023832246838 0.0368252347445 0.0039968663969 0.0020853215984 0.0020125008441 0.0039131960858 0.0020853215984 0.0013438739189 0.0022011727983 0.0008780301467 0.1035555258922 0.0035836637839 0.0045181967965 0.0011916123419 0.0011121715191 0.0014506585032 0.0615813489295 0.0018536191985 0.0005853534311 0.0106855694975 0.0142110805222 0.0018536191985 0.0006673029115 0.0014506585032 0.0008780301467 0.0009017606912 0.0007098967143 0.0012357461324 0.0013346058230
55 0.0130142171196 0.0061646291619 0.0259795086108 0.0024122461938 0.0130142171196 0.0061646291619 0.0039629758898 0.0024122461938 0.0058401749955 0.0039629758898 0.0130142171196 0.0014045990495 0.0363713120552 0.0069352078071 0.0146409942595 0.0044385329966 0.0038263215488 0.0032089850432 0.0085356403780 0.0073975549943 0.0058401749955 0.0065272544067 0.0052839678531 0.0089387122847 0.0255391779564 0.0117127954076 0.0044385329966 0.0025218937480 0.0117127954076 0.0049841682586 0.0025805424399 0.0023117359357 0.0020175149984 0.0052839678531 0.0030823145809 0.0030823145809 0.0052839678531 0.0123292583238 0.0156170605435 0.0073975549943 0.0058401749955 0.0026419839265 0.0223467807119 0.0119182830463 0.0042678201890 0.0033625249974 0.0098130831557 0.0055775216227 0.0086761447464 0.0058401749955 0.0027064225589 0.0050437874961 0.0086761447464 0.0061646291619 0.0016318136017 0.0052839678531 0.0050437874961 0.0041097527746 0.0031703807118 0.0046234718714 0.0050437874961 0.0106479958251 0.0068691582090 0.0067724095018 0.0146409942595 0.0061646291619 0.0320560716418 0.0023609218067 0.0073975549943 0.0048244923876 0.0833457862688 0.0079259517796 0.0402755771910 0.0017338019518 0.0069352078071 0.0031703807118 0.0061646291619 0.0069352078071 0.0029281988519 0.0073204971297 0.0094091708260 0.0073975549943 0.0036987774971 0.0034676039036 0.0039629758898 0.0036987774971 0.0101850394849 0.0061646291619 0.0267133930349 0.0019467249985 0.0137797593031 0.1500059762727 0.0130142171196 0.0022192664983 0.0048244923876 0.0061646291619 0.0029990087815 0.0023609218067 0.0041097527746 0.0044385329966
56 0.0059060350960 0.0124682963137 0.0037967368474 0.0074467399036 0.0059060350960 0.0059060350960 0.0333269123272 0.0023110572115 0.0118120701919 0.0080153333445 0.0387173411846 0.0013456788826 0.0112214666823 0.0066442894830 0.0140268333529 0.0467757979600 0.0077389425395 0.0014562826264 0.0081775870559 0.0070872421152 0.0055951911435 0.0062534489251 0.0050623157965 0.0056107333412 0.0075934736948 0.0053154315864 0.0042523452691 0.0051006666738 0.0053154315864 0.0022618857814 0.0024722937611 0.0046756111176 0.0040805333390 0.0163119064555 0.0029530175480 0.0029530175480 0.0050623157965 0.0036658148871 0.0070872421152 0.0070872421152 0.0242458282887 0.0025311578983 0.0066442894830 0.0035436210576 0.0040887935280 0.0032214736887 0.0021695639128 0.0025311578983 0.0039373567306 0.0118120701919 0.0025928934568 0.0048322105331 0.0083121975425 0.0059060350960 0.0015633622313 0.0050623157965 0.0102013333476 0.0018650637145 0.0030373894779 0.0241163099752 0.0048322105331 0.0048322105331 0.0015186947390 0.0014973046722 0.2133555178415 0.0059060350960 0.0149619555764 0.0022618857814 0.0149619555764 0.0046221144229 0.0042523452691 0.0160306666890 0.0149619555764 0.0016610723707 0.0066442894830 0.0030373894779 0.0124682963137 0.0066442894830 0.0028053666706 0.0033221447415 0.0027975955718 0.0070872421152 0.0271677614414 0.0033221447415 0.0037967368474 0.0035436210576 0.0046221144229 0.0190305575314 0.0059060350960 0.0018650637145 0.0062534489251 0.0059060350960 0.0124682963137 0.0422872112871 0.0046221144229 0.0027975955718 0.0028732062629 0.0047750922052 0.0083121975425 0.0089771733459
57 0.0022101264584 0.0071215185881 0.0124714278723 0.0008648320924 0.0046658225232 0.0022101264584 0.0124714278723 0.0027866811866 0.0811930667340 0.0014207955804 0.0046658225232 0.0156107666300 0.0019891138125 0.0024863922657 0.0024863922657 0.0015912910500 0.0044202529168 0.0011504767866 0.0030601750962 0.0114926575836 0.0044202529168 0.0023401338971 0.0460969232747 0.0009945569063 0.0502014438402 0.0019891138125 0.0015912910500 0.0009041426421 0.0019891138125 0.0309417704173 0.0009251692151 0.0008287974219 0.0023306788107 0.0818799230770 0.0011050632292 0.0060164553589 0.0018943941072 0.0074687032042 0.0026521517501 0.0085458223057 0.0044202529168 0.0009471970536 0.0024863922657 0.0013260758750 0.0015300875481 0.0012055235228 0.0098328075087 0.0019996382242 0.0014734176389 0.0044202529168 0.0009702994208 0.0098451087691 0.0063848097686 0.0857037926637 0.0070854054107 0.0018943941072 0.0018082852841 0.0006979346711 0.0011366364643 0.0016575948438 0.0319463733529 0.0038174911554 0.0005683182322 0.0005603137500 0.0024863922657 0.0022101264584 0.0203331634171 0.0008464314096 0.0026521517501 0.0074952114675 0.0033593922167 0.0091562381847 0.0026521517501 0.0006215980664 0.2290243542492 0.0011366364643 0.0071215185881 0.0024863922657 0.0004972784531 0.0012431961328 0.0033733509102 0.0026521517501 0.0396349344869 0.0081498413153 0.0014207955804 0.0013260758750 0.0017296641848 0.0022101264584 0.0022101264584 0.0006979346711 0.0049402826717 0.0022101264584 0.0046658225232 0.0034477972751 0.0017296641848 0.0010469020066 0.0010751966554 0.0008464314096 0.0047476790587 0.0033593922167
58 0.0460070525951 0.0041824593268 0.0056761948007 0.0016366145192 0.0088296363566 0.0041824593268 0.0056761948007 0.0161842991343 0.0039623298886 0.0056761948007 0.0041824593268 0.0009529654162 0.0037642133941 0.0047052667427 0.0099333409012 0.0030113707153 0.0112493733618 0.0652005303279 0.0122256503400 0.0663616879857 0.0083649186537 0.0044284863461 0.0035849651373 0.0018821066971 0.0412270990788 0.0121291320478 0.0665847524832 0.0017110060882 0.0539537253161 0.0016017929337 0.0036961268470 0.0067964964061 0.0028896991713 0.0155348489282 0.0044148181783 0.0067384066932 0.0035849651373 0.0025960092373 0.0161721760637 0.0050189511922 0.0127675074187 0.0017924825686 0.0047052667427 0.0025094755961 0.0061128251700 0.0048161652854 0.0015364136303 0.0017924825686 0.0430638404763 0.0083649186537 0.0018362016557 0.0034220121765 0.0027883062179 0.0134768133865 0.0023372566826 0.0035849651373 0.0034220121765 0.0027883062179 0.0117108861151 0.0031368444951 0.0034220121765 0.0072242479282 0.0010754895412 0.0010603418012 0.0047052667427 0.0041824593268 0.0273254009353 0.0033815628600 0.0050189511922 0.0141839924997 0.0030113707153 0.0113523896014 0.0050189511922 0.0011763166857 0.0047052667427 0.0117108861151 0.0041824593268 0.0047052667427 0.0009410533485 0.0023526333713 0.0019811649443 0.0050189511922 0.0052977818140 0.0023526333713 0.0026887238530 0.0025094755961 0.0032732290384 0.0274183444759 0.0088296363566 0.0027883062179 0.0044284863461 0.0599485836846 0.0227711674461 0.0115435877421 0.0069101501922 0.0195915200046 0.0020347099428 0.0016017929337 0.0027883062179 0.0030113707153
59 0.0115123858779 0.0054532354158 0.0035056513387 0.0021338747279 0.0357489877260 0.0054532354158 0.0035056513387 0.0258435939272 0.0109064708317 0.0035056513387 0.0175715363399 0.0012425093353 0.0049079118742 0.0061348898428 0.0061348898428 0.0039263294994 0.0033847668098 0.0013446333902 0.0075506336527 0.0065438824990 0.0051662230255 0.0057740139697 0.0566097771739 0.0024539559371 0.0148016389858 0.0158143827059 0.0039263294994 0.0022308690337 0.0049079118742 0.0044089988468 0.0022827497090 0.0134058703972 0.0017846952270 0.0046742017850 0.0027266177079 0.0057561929389 0.0046742017850 0.0334715828972 0.0065438824990 0.0065438824990 0.0051662230255 0.0023371008925 0.0129514341126 0.0432623342989 0.0079701133001 0.0095844743672 0.0198097123269 0.0023371008925 0.0036354902772 0.0625687010869 0.0023941033533 0.0490791187425 0.0036354902772 0.0054532354158 0.0014435034924 0.0046742017850 0.0044617380675 0.0036354902772 0.0028045210710 0.0040899265619 0.0044617380675 0.0094192248092 0.0014022605355 0.0013825103871 0.0129514341126 0.0054532354158 0.0283568241623 0.0067295245557 0.0065438824990 0.0090096932957 0.0039263294994 0.0070113026775 0.0065438824990 0.0015337224607 0.0061348898428 0.0028045210710 0.0054532354158 0.1629154080479 0.0025902868225 0.0030674449214 0.0025831115128 0.0065438824990 0.0032719412495 0.0030674449214 0.0035056513387 0.0032719412495 0.0042677494559 0.0054532354158 0.0054532354158 0.0017220743418 0.0057740139697 0.0175715363399 0.0054532354158 0.0019631647497 0.0090096932957 0.0025831115128 0.0056006201568 0.0020884731380 0.0036354902772 0.0039263294994
60 0.0522378020600 0.0125635220144 0.0038257341472 0.0049161607883 0.0324006620372 0.0059511420068 0.0038257341472 0.0411405034385 0.0933389641071 0.0038257341472 0.0059511420068 0.0028625746362 0.0053560278061 0.0066950347577 0.1182789473857 0.0090457358504 0.0036938122801 0.0063587544731 0.0173956458661 0.0150762264173 0.0056379240065 0.0063012091837 0.0051009788630 0.0026780139031 0.0076514682945 0.0053560278061 0.0042848222449 0.0105497517394 0.0053560278061 0.0022791607686 0.0052591487502 0.0022316782526 0.0019476464750 0.0051009788630 0.0029755710034 0.0095879510110 0.0051009788630 0.0036938122801 0.0309459384355 0.0150762264173 0.0119022840137 0.0025504894315 0.0066950347577 0.0035706852041 0.0498980368265 0.0032460774583 0.0046151713522 0.0053843665776 0.0039674280046 0.0056379240065 0.0026126964908 0.0048691161874 0.0039674280046 0.0059511420068 0.0033256381803 0.0107687331552 0.0048691161874 0.0018793080022 0.0132625450438 0.0044633565051 0.0102792452845 0.0048691161874 0.0032306199466 0.0015087402271 0.0066950347577 0.0125635220144 0.0071413704082 0.0048115616225 0.0150762264173 0.0046574154836 0.0138066494558 0.0076514682945 0.0071413704082 0.0016737586894 0.0066950347577 0.0030605873178 0.0059511420068 0.0066950347577 0.0013390069515 0.0033475173788 0.0028189620032 0.0388807944446 0.0115055412132 0.0033475173788 0.0038257341472 0.0035706852041 0.0046574154836 0.0059511420068 0.0125635220144 0.0018793080022 0.0063012091837 0.0059511420068 0.0059511420068 0.0021424111225 0.0046574154836 0.0090833220104 0.0028951501655 0.0022791607686 0.0039674280046 0.0042848222449
61 0.0068028522028 0.0068028522028 0.0043732621304 0.0026619856446 0.0143615768727 0.0294790262123 0.0189508025651 0.0056197474719 0.0064448073501 0.0043732621304 0.0219203015425 0.0032722580216 0.0061225669826 0.0161567739818 0.0076532087282 0.0048980535861 0.0042224599880 0.0035412107357 0.0094193338193 0.0081634226434 0.0064448073501 0.0072030199795 0.0058310161739 0.0030612834913 0.0087465242608 0.0469396801997 0.0103403353483 0.0058751905388 0.0265311235911 0.0026053476522 0.0060118228769 0.0053855913273 0.0492279123043 0.0123099230337 0.0034014261014 0.0034014261014 0.0058310161739 0.0042224599880 0.0081634226434 0.0081634226434 0.0064448073501 0.0288311355264 0.0076532087282 0.0040817113217 0.0047096669097 0.0119565281141 0.0024990069317 0.0029155080869 0.0146135343617 0.0064448073501 0.0029866180403 0.0055659699841 0.0045352348019 0.0068028522028 0.0118049494108 0.0058310161739 0.0055659699841 0.0021482691167 0.0462593949794 0.0277783131616 0.0055659699841 0.0055659699841 0.0036929769101 0.0017246667557 0.0076532087282 0.0143615768727 0.0081634226434 0.0083950091014 0.0263043618510 0.0053239712892 0.0048980535861 0.0087465242608 0.0081634226434 0.0019133021821 0.0501710349960 0.0073859538202 0.0068028522028 0.0076532087282 0.0015306417456 0.0038266043641 0.0032224036750 0.0081634226434 0.0040817113217 0.0038266043641 0.0675426040140 0.0040817113217 0.0053239712892 0.0219203015425 0.0068028522028 0.0045352348019 0.0072030199795 0.0068028522028 0.0143615768727 0.0024490267930 0.0053239712892 0.0068028522028 0.0033094956663 0.0026053476522 0.0045352348019 0.0048980535861
