392 15
0 0.1311981113663 0.0056764624542 0.0048850053837 0.0358126179476 0.0057668622658 0.0201537489723 0.0105802509925 0.6871531945376 0.0027026608603 0.0041091301527 0.0389923547339 0.0245036638767 0.0073441237402 0.0130744861651 0.0080473265512
1 0.0029269612215 0.0060528265347 0.0005303651964 0.0020830631795 0.0033125863652 0.0059995864030 0.0142828807111 0.0441104896037 0.0744230005809 0.6795516139675 0.0586402674359 0.0942596864931 0.0069092888324 0.0036150460524 0.0033023374226
2 0.0337962407657 0.0026967329679 0.0176170459824 0.1100881933259 0.2282322331415 0.1028262946993 0.0151158536640 0.0114420215757 0.0129750472266 0.3991141306039 0.0059717845282 0.0119455288435 0.0342921662551 0.0106633184096 0.0032234080107
3 0.0306635093728 0.0183398571741 0.0095959496410 0.0124460569826 0.0136555182463 0.0113622433442 0.6175626187004 0.0026398053035 0.0011208038355 0.0053068250947 0.0137614999554 0.0054858299629 0.0070704995571 0.2440401917101 0.0069487911193
4 0.0046847158760 0.0052823337474 0.0032930752046 0.0036644427154 0.0064599598243 0.0532501885918 0.0361813359573 0.0086111959764 0.0129441457202 0.0310683861112 0.7951019097244 0.0208945842865 0.0062348196490 0.0070721143700 0.0052567922457
5 0.0067294065426 0.0061712264372 0.0916562092412 0.0049160654795 0.0031021737878 0.0034927989379 0.0166260100484 0.0129179981769 0.3728714890657 0.1128370765695 0.0226616946913 0.0062606916590 0.3273927039399 0.0046565798309 0.0077078755922
6 0.4255096843049 0.0028585825276 0.0035574496991 0.0071241704566 0.0052764857953 0.0183532787262 0.4407575984128 0.0316975218240 0.0041514087964 0.0148876423396 0.0102103426429 0.0134035853805 0.0090367400403 0.0056037630413 0.0075717460123
7 0.2448647964452 0.0037933358992 0.0496808540188 0.0164467120703 0.0046618971808 0.1989203806848 0.0124535059058 0.0107027313221 0.0184415546721 0.0040617393632 0.1709483203964 0.0066046581269 0.0541795869274 0.0397479284461 0.1644919985408
8 0.0053893060152 0.0056293614355 0.0032123449647 0.0075555466071 0.0093182176595 0.1895538637041 0.0048477205831 0.0048287510247 0.0630791989348 0.0131193332471 0.0077154432584 0.6681043096967 0.0081600946805 0.0038169526054 0.0056695555832
9 0.0181868929911 0.0082338502362 0.0130283024523 0.0148913513088 0.0516692285946 0.0042660703677 0.0169221799066 0.0168037748569 0.0867754519625 0.4842766142746 0.1838673435936 0.0036954880376 0.0348081645131 0.0042319769314 0.0583433099731
10 0.6688157645915 0.0345346056364 0.0086144516698 0.0084849490502 0.0233987228704 0.0047831595824 0.0349927872962 0.0859100238813 0.0113624747209 0.0306637826823 0.0132388418495 0.0071558137196 0.0363284715486 0.0196248112710 0.0120913396298
11 0.0079464970687 0.0176684825380 0.0063356649835 0.0450232156727 0.6293816524483 0.0414170973600 0.1596626405255 0.0291837512074 0.0078630680507 0.0104538505587 0.0048107282543 0.0046179627548 0.0226697536157 0.0055268165561 0.0074388184057
12 0.0139328222119 0.0016706848906 0.0024081529651 0.0058502504816 0.0070145463138 0.0055866080656 0.9049568046665 0.0032772801932 0.0045640497850 0.0114359597958 0.0094099208259 0.0101976369414 0.0046432230624 0.0069705751980 0.0080814846031
13 0.4329716782044 0.0025308810527 0.0053942410900 0.0131845283315 0.1338640947557 0.0031304782534 0.0156880734942 0.0046636376855 0.0021879432407 0.0113184326819 0.2298664053581 0.1116571733994 0.0108140511752 0.0168825699898 0.0058458112877
14 0.0021412055883 0.1412766704799 0.3150965698768 0.0487385120296 0.0093042174502 0.0202457648338 0.2901903843021 0.0140227032542 0.0019242235733 0.0167812259762 0.0138233035577 0.0144049460082 0.0133907903116 0.0604536288417 0.0382058539164
15 0.0084956880908 0.1420889912745 0.0344515525456 0.2231235611877 0.0045586892683 0.0086044848861 0.0069880454100 0.0212641995219 0.0109089198472 0.0603271724671 0.0095595488536 0.1764461088584 0.2773100690888 0.0051270757059 0.0107458929940
16 0.0027592958402 0.0731840739090 0.0147052687616 0.0144188213026 0.0037936063790 0.2374539955225 0.0343219524101 0.0393377548307 0.0056949029517 0.0421367822527 0.3739048130270 0.0023220362873 0.0389118014290 0.1130544207516 0.0040004743450
17 0.0021408894975 0.0115671041635 0.0140537702207 0.0097044160775 0.0057541120897 0.0122165202208 0.0913817664135 0.0193024963326 0.0074160384872 0.0114772357314 0.4804963230084 0.0043564346068 0.3120108509786 0.0099119730290 0.0082100691428
18 0.1814742417630 0.0968430181328 0.0421588520107 0.0062835341335 0.0146576375857 0.0300188072693 0.0059600457453 0.1893215354289 0.0022862321494 0.3804201663380 0.0149408869473 0.0067351620957 0.0056282829252 0.0105491036732 0.0127224938021
19 0.5208012785326 0.0301623310883 0.0210977257623 0.0054885931895 0.0038051958059 0.1482546247349 0.0083850104827 0.0259288565465 0.0120229253905 0.0096015821131 0.0105811960026 0.0115223620227 0.1464050857186 0.0048998943706 0.0410433382391
20 0.0128568141422 0.0762282623377 0.0021858962518 0.0045723692826 0.0116292444756 0.0100205488699 0.0122663382716 0.0443722872855 0.2237326785079 0.0078645454883 0.0157208500976 0.0177146234804 0.0293498746319 0.0187362111759 0.5127494557011
21 0.0395055628316 0.0069932944574 0.0042066645080 0.0040740908387 0.0065302969676 0.0067104430909 0.0055833910743 0.0037673671422 0.0033026519156 0.0048926622816 0.0655468193099 0.0039783516446 0.0213966986454 0.0026026614734 0.8209090438187
22 0.1541680310553 0.0370338588794 0.0119471897630 0.6812591290232 0.0047822844196 0.0203757504409 0.0162789344992 0.0191788256650 0.0044834727285 0.0086709101284 0.0231628949527 0.0016268988393 0.0037586973183 0.0027196139360 0.0105535083512
23 0.0082089811334 0.0719928122638 0.0020789511779 0.1608529720944 0.2913279722860 0.0075135228028 0.0050437163360 0.0032229537436 0.0040193582390 0.2593079252049 0.0466772081804 0.0028974004844 0.0042212786786 0.0020771343099 0.1305578130648
24 0.0039009729591 0.0371962260901 0.0320072311869 0.0020790104794 0.0075953192198 0.0026352385474 0.0429967390464 0.0089913653836 0.0142030663692 0.1353112386978 0.0108984217687 0.0705750744830 0.0823564582720 0.5348762516843 0.0143773858124
25 0.0513767065689 0.1106857270511 0.0229612803932 0.0779244485381 0.1309590007444 0.0882574747216 0.0142705592121 0.0365696532449 0.0252749822162 0.0765452372536 0.0833448626254 0.2152695272428 0.0173195765962 0.0413183941716 0.0079225694199
26 0.1291232350622 0.0458233721860 0.0034919438843 0.0387001562385 0.0028051019462 0.0220388045263 0.0090790540992 0.0012027147980 0.0079471424605 0.5096215624796 0.0971434566056 0.0247638104421 0.0132377403161 0.0013760602339 0.0936458447216
27 0.0180540072961 0.2101073974181 0.2024053871299 0.0188974770147 0.0314622564665 0.0228072998453 0.1103841943023 0.0095241018197 0.1706123923072 0.0219934371343 0.0725377628814 0.0161095402526 0.0515029144036 0.0162714451798 0.0273303865486
28 0.0263984437056 0.0152112377592 0.2639314932923 0.1477809174215 0.0214278277962 0.0560924629680 0.0209544585108 0.0074306856939 0.0072339497806 0.3115573930624 0.0166611828410 0.0427368500853 0.0166549851760 0.0039431818296 0.0419849300778
29 0.0258039105037 0.0226942666988 0.0207129444539 0.0346524797920 0.0140929887617 0.0200352384835 0.0385501810581 0.0584166695952 0.0573172242368 0.0344196703598 0.0312930974071 0.4767117514215 0.0376639699992 0.0342085205188 0.0934270867098
30 0.0073716565593 0.0073737631043 0.0266467352645 0.0094880089794 0.0084948930112 0.0028967839604 0.1956398455938 0.0037442340951 0.0019573094050 0.0979100151231 0.0636658728784 0.0182184294254 0.0181130003788 0.0062188385889 0.5322606136326
31 0.0027462557317 0.0700948642717 0.0413780030267 0.0011560428890 0.1205039623539 0.1112794477686 0.0099851041732 0.0047822044254 0.0126974737352 0.0478710921798 0.0037156300493 0.0046394520545 0.5531224523145 0.0030017378395 0.0130262771871
32 0.0409016250999 0.0209842747265 0.1288191141524 0.0160938880300 0.0023018091912 0.0047394077159 0.0122848054851 0.1664600566155 0.0121317948074 0.5591377962188 0.0047853138408 0.0049413396704 0.0070197164376 0.0066568041454 0.0127422538632
33 0.0543209710194 0.0119938407253 0.0157158394200 0.0190164475125 0.0125815861960 0.0179397746824 0.0306031450464 0.0170660426394 0.2474284919995 0.2620294049602 0.0432191988920 0.0100496444794 0.0265588843063 0.2160846137488 0.0153921143725
34 0.0011492621130 0.0012528039996 0.0971010163448 0.1778584220441 0.0028226137308 0.0041769733350 0.0061576254267 0.0201386084117 0.0025100983361 0.0349723641269 0.0042600467799 0.0030132394705 0.5981676386845 0.0452084638613 0.0012108233349
35 0.0100436666069 0.0027831244223 0.0069672281868 0.0468292526371 0.0057915501802 0.0281228905233 0.0904412573196 0.0166697385506 0.0018800457012 0.0800279247445 0.0190202026133 0.2463608145456 0.0323929713343 0.4100105697788 0.0026587628555
36 0.0025760691335 0.2757999347953 0.0818085878113 0.0023797174142 0.0241734249334 0.1994154832175 0.3487802132700 0.0115083753898 0.0030727415791 0.0164060762493 0.0116815709488 0.0030461377559 0.0065874604672 0.0024207282812 0.0103434787535
37 0.2143961637184 0.0112608595619 0.0078509202652 0.0722388679409 0.0331450004786 0.0042078765324 0.0251594607568 0.0075182197682 0.0064019775318 0.0588548943624 0.4450894735545 0.0026097065743 0.0223323841349 0.0047250206216 0.0842091741981
38 0.0042772719281 0.0344939252365 0.1417496093824 0.0143066972424 0.0155326070022 0.0117178574311 0.0684312889893 0.1145347123280 0.0086596492954 0.4420081617871 0.0097730059355 0.0329415037513 0.0777382463744 0.0168622266374 0.0069732366790
39 0.0623003141987 0.0091387946600 0.0051450067843 0.2268792269785 0.2131732260250 0.0100711079050 0.0438018785242 0.0025875547099 0.2157897121889 0.0050568887167 0.0114812619087 0.0306202400885 0.0096769227384 0.0040893585549 0.1501885060184
40 0.0045943476343 0.4943494168519 0.0063315484475 0.0060668083277 0.2632563435866 0.0514403218027 0.0180506412555 0.0044924207441 0.0024986872074 0.0067690160606 0.0793314761451 0.0441626159677 0.0067710161836 0.0072011571953 0.0046841825900
41 0.0024169202760 0.0038095886669 0.0020450863873 0.0029830631074 0.0119686656587 0.0069830324765 0.0119122318717 0.0156134683206 0.0016676512638 0.7588358987053 0.0158799424111 0.0036430442803 0.0084166885098 0.1457602241590 0.0080644939055
42 0.0063742237597 0.4062353444276 0.0806759122049 0.0086084937027 0.0054669260214 0.0062684409908 0.0129132691365 0.0633690386771 0.1631451251379 0.0323909328191 0.0191563083439 0.0209514565677 0.1601091415693 0.0070961529221 0.0072392337193
43 0.0120912008321 0.0066912696717 0.1611363339698 0.4678161052892 0.0056503517934 0.0019706772471 0.1982977447401 0.0016620700720 0.0031739564525 0.0638400982837 0.0472967692307 0.0073371520399 0.0121018099404 0.0073145217508 0.0036199386866
44 0.0830249210073 0.0378460177731 0.4145280718761 0.1746645524317 0.0266005178623 0.0155085973925 0.0201156624643 0.0145469447973 0.0034016488558 0.0358098365998 0.0355671380937 0.0133814792641 0.0754030933497 0.0044068451771 0.0451946730550
45 0.0065361650736 0.0145551732556 0.0052224897277 0.0110699175857 0.0116305883270 0.0229871356933 0.0199871922501 0.0036490670605 0.0900815063899 0.0147066060365 0.0145470637710 0.1251583355821 0.0073962694008 0.6480605703415 0.0044119195045
46 0.0036915273285 0.0067645477798 0.0865192376701 0.0071532362639 0.0119482391066 0.2375615080386 0.0120071783631 0.0255597167496 0.3321551616651 0.0105217542357 0.0149704932603 0.0223318554254 0.0136293958171 0.2056291047953 0.0095570435010
47 0.0093472050474 0.1157796916651 0.0190793046429 0.0038450988755 0.0034471667970 0.0040914488137 0.0102585043094 0.5090132673930 0.0093715653713 0.0208931972390 0.0087388610808 0.0108751471773 0.0118533024916 0.0089836354597 0.2544226036363
48 0.0041443584796 0.0097671408740 0.0179058583305 0.4654668471953 0.2608727240663 0.0404167182757 0.0071471863917 0.0176385450164 0.0386895798134 0.0210179319218 0.0211382056271 0.0258990707269 0.0267589686687 0.0167484192387 0.0263884453739
49 0.0660674630343 0.0058338447476 0.4481867523406 0.0033345017420 0.0185045256859 0.3070650766772 0.0239788499615 0.0442358612182 0.0014529851124 0.0123936927801 0.0097498781072 0.0138836561646 0.0345744659921 0.0029323507781 0.0078060956583
50 0.0192455663802 0.0006742081233 0.0011657720430 0.0019817093343 0.0021385384897 0.0144312196002 0.0081102909672 0.0229803610267 0.0008176566602 0.0075423719588 0.8731015423705 0.0222243380644 0.0052807669838 0.0174483159283 0.0028573420692
51 0.0026987626469 0.0037566012097 0.0235721192711 0.2596141962191 0.0065078854153 0.5071587096269 0.0072244925275 0.0223665931923 0.0807400504828 0.0047797798585 0.0234279345072 0.0291156278698 0.0168049948419 0.0057661882306 0.0064660641004
52 0.0036349495360 0.0054477457049 0.0030023201694 0.0025863787541 0.0037998384067 0.0049115943093 0.0085694585959 0.0027370785179 0.0036058550895 0.0111887186430 0.8873874775465 0.0018482699151 0.0111694950314 0.0096114010273 0.0404994187528
53 0.1430904727853 0.0228593311278 0.0757188168640 0.0047991638054 0.3034269613169 0.1226719889284 0.0987708991918 0.0058506486425 0.0420511789982 0.0272782534224 0.0711117543343 0.0143622330221 0.0490978598436 0.0096660091234 0.0092444285938
54 0.2173074940280 0.0232114626380 0.0099128298017 0.1291209522446 0.0030008327913 0.0016549127398 0.0066819815701 0.5147083898777 0.0076064845085 0.0117284867498 0.0136538418653 0.0283344351490 0.0110922808336 0.0158667847564 0.0061188304462
55 0.0171736730032 0.0051047814708 0.0257399518656 0.0176063180962 0.0130954501037 0.0146555193918 0.0163091795855 0.0980346738156 0.0231328201222 0.0344520416121 0.2002975475165 0.0801901698718 0.0279224108386 0.1550259699684 0.2712594927380
56 0.1578529677504 0.0797197578712 0.1029472027610 0.1480442959977 0.0023992515173 0.0158233280034 0.3142213286268 0.0068609828442 0.0146136356200 0.0071367040530 0.0130275303578 0.0228356255454 0.1074540573726 0.0019766677641 0.0050866639152
57 0.0174431898995 0.0202813811972 0.0373100553869 0.0098203083587 0.0770258646058 0.0029824264765 0.0100051179916 0.4028879787340 0.0061707629188 0.0208660125480 0.1256663747155 0.0028713349652 0.0977326743130 0.1596236926002 0.0093128252891
58 0.0060097454483 0.0120674310223 0.0550094749951 0.0384334572868 0.0474324991977 0.0348419102372 0.2567531309172 0.0069894028078 0.0068466635837 0.2020999826673 0.0074971770182 0.0439984906858 0.0062428033893 0.2634685585920 0.0123092721513
59 0.0050881443823 0.0198575923571 0.0081931298403 0.0114377985033 0.3955133143525 0.0293861316187 0.0093220250590 0.0035738749145 0.0252770892215 0.0682044325055 0.0107038221287 0.0099582822790 0.0581211888749 0.0049412320271 0.3404219419354
60 0.0035959707591 0.0179744757327 0.0211812374813 0.0022285557810 0.0012321612462 0.0140775113759 0.0436965635800 0.0375429118832 0.0059725164813 0.0095083041426 0.2663516370521 0.0056154763075 0.5521496146288 0.0044163405424 0.0144567230059
61 0.0090156256689 0.0026803211448 0.0038688798425 0.0257157668692 0.0152724339056 0.0186513381731 0.0106897513893 0.0050719923202 0.2254161787235 0.0162753521060 0.1573035227707 0.0045205416323 0.0039742692837 0.4417681066747 0.0597759194955
62 0.0164500961506 0.0235532959612 0.0026134553082 0.0292692481826 0.0592872379538 0.1618155136083 0.0163803841481 0.0025905158886 0.0067916351899 0.1399742946626 0.0500612402236 0.0015223247759 0.0776050171368 0.3665642271184 0.0455215136914
63 0.0859448902676 0.0016424503035 0.0147164771272 0.0031160602881 0.0072409931973 0.0092358580591 0.5789034564323 0.0043982577899 0.0056207036338 0.0164895963995 0.0469707720800 0.0027129878130 0.1370120245603 0.0022170551636 0.0837784168847
64 0.0058521613165 0.0105943577004 0.0036418211855 0.0102238983326 0.0112307217082 0.0127385141037 0.0210492024494 0.1196351359527 0.0100886604354 0.0506794680132 0.4059931384047 0.0086133326934 0.0238930332457 0.0084089323343 0.2973576221243
65 0.2449970627236 0.0058019754584 0.0088589106116 0.0090726919381 0.0089171300670 0.0058449984635 0.0073584221602 0.0056748383918 0.5347675931602 0.0060665574022 0.1278040255536 0.0055054402308 0.0173988673331 0.0077925189627 0.0041389675433
66 0.0040518436713 0.0410945793375 0.0109346295525 0.0086849881945 0.0089968919102 0.0114094825076 0.0068042203190 0.0057249581813 0.0636094751155 0.2176529406195 0.0243966884788 0.0044387900303 0.0112858024804 0.0389537703704 0.5419609392312
67 0.0065238014088 0.0037432802187 0.0101850464031 0.0243171962854 0.0548273807089 0.0173667388579 0.0415297642734 0.0039064274669 0.3141270720742 0.0257637687793 0.0096449583538 0.0623942667100 0.1031163834893 0.3172557238715 0.0052981910988
68 0.0077158944848 0.1160824183651 0.1368204077795 0.0068048124461 0.0223697848868 0.0138616549828 0.0191987627836 0.0132154239813 0.0178567171176 0.0356609586952 0.0751998874214 0.0052976474267 0.0412083682612 0.4809152067919 0.0077920545761
69 0.0152570890727 0.0066674871302 0.2826471221181 0.0077532926067 0.0170941250513 0.0316369985677 0.0091615273836 0.0059117548216 0.0120133565442 0.0052235512679 0.0158545912840 0.0830516570795 0.0144230942321 0.0138244153197 0.4794799375209
70 0.4161307426484 0.0151967494304 0.1394316822379 0.0068577461350 0.0216745748890 0.0402425438194 0.1016618966827 0.0611455749145 0.0076476082447 0.0281280797555 0.0237203308617 0.0527139508186 0.0371208236605 0.0382614621988 0.0100662337030
71 0.0167705405482 0.0320634700120 0.0124315693531 0.0200624153485 0.0064195618892 0.2187618724921 0.0453881057119 0.0101734921440 0.0058137394104 0.0685402271515 0.0124222691103 0.0062092060353 0.2447655157889 0.2969003948034 0.0032776202014
72 0.0050070203930 0.0067040768110 0.0681938603273 0.0439094489081 0.0914995521436 0.0067326956224 0.2806472296108 0.0018325951956 0.0094066305319 0.0096527094175 0.0056780800863 0.0029697730032 0.0119095740559 0.2308302871036 0.2250264667899
73 0.0112682996794 0.0133905281021 0.0355779430406 0.0102138232854 0.0038413275674 0.0345994760174 0.0078621611420 0.0030991441233 0.0159038701859 0.0098563027389 0.1602502197855 0.2742398689294 0.0613411148004 0.0060897675264 0.3524661530757
74 0.1051024408651 0.0041686280268 0.0012286315664 0.0077969643618 0.0255470418008 0.0028147946522 0.0142443989279 0.0025309295119 0.0019314394614 0.0160032786583 0.7094581094816 0.0338060710791 0.0372754187207 0.0340600154816 0.0040318374045
75 0.0146142712536 0.0159229801243 0.0209772880068 0.3679639719841 0.0132323755328 0.0125474137957 0.0339425609227 0.0206512042743 0.2383128277894 0.0956657087291 0.0878891689040 0.0200347504153 0.0165373863835 0.0106727281829 0.0310353637014
76 0.2497962426294 0.0581706105558 0.0031841221444 0.0028822201929 0.1094671591915 0.0032670801160 0.3953403279670 0.0199616941350 0.0156590008160 0.0353876453828 0.0421900013045 0.0475107165816 0.0114365425851 0.0017642158243 0.0039824205738
77 0.0054058891656 0.0334367296891 0.0025251589302 0.0015145443517 0.0017788272587 0.0031138569976 0.8433030405834 0.0011543009716 0.0373916742340 0.0063024283817 0.0079394227666 0.0048305706561 0.0068737551226 0.0404183817205 0.0040114191707
78 0.0052035487135 0.0042491860674 0.0170671578464 0.0063042248179 0.0065306282512 0.0177083886020 0.0187223334650 0.0038218260280 0.0049597522994 0.7347212351460 0.0861780263055 0.0310705513652 0.0115587073892 0.0057074536511 0.0461969800524
79 0.1100618101918 0.0062866657841 0.0105979858144 0.0266094412255 0.0661298913454 0.5961073004334 0.0111143823886 0.0995745207055 0.0018370540057 0.0272973525171 0.0258804775908 0.0054967411003 0.0076798545754 0.0024065915362 0.0029199307859
80 0.0199215601671 0.0115265127255 0.0041096101790 0.1181256941280 0.0127916078171 0.6667256556571 0.0248395727362 0.0051090178025 0.0031331099070 0.0341701393360 0.0398061309973 0.0379512437317 0.0095961110876 0.0060385557252 0.0061554780027
81 0.0109349674328 0.0035176532790 0.0247347256647 0.0084518468779 0.0249341933205 0.0038832523027 0.0335655956852 0.0027493864604 0.0151647326977 0.0582985870172 0.5552341368834 0.0018630995778 0.0953471598097 0.0025587393753 0.1587619236157
82 0.0077619591485 0.1142395743598 0.0109120559791 0.0020861845494 0.0048241291773 0.2567381024906 0.0149956457074 0.1191934906686 0.0050144272101 0.0051962985110 0.1286064853916 0.1652231658860 0.0200234055750 0.0604270205166 0.0847580548290
83 0.0039140858555 0.0027379793577 0.0023622646644 0.0329651405410 0.0026234195519 0.0034194916918 0.0079937136935 0.0045607139903 0.5944393761124 0.3058582650794 0.0081428217261 0.0049466468168 0.0189670218179 0.0046008714755 0.0024681876258
84 0.0114618445667 0.1261591968230 0.0103245964441 0.0085315531264 0.4530856961765 0.0051435796149 0.0050301884677 0.0119850470062 0.0118974787367 0.0058344010302 0.2693559899994 0.0037105425083 0.0177973580368 0.0303790138442 0.0293035136189
85 0.0049639121312 0.0111862690663 0.0020370230370 0.2419866279916 0.3352814255916 0.0281071882378 0.0235753869717 0.0040111527374 0.0066050598582 0.3041874489524 0.0051566657190 0.0171050563416 0.0083799534824 0.0023956859628 0.0050211439190
86 0.0351514196141 0.0383215552216 0.0141035996154 0.1401619802873 0.3779131372086 0.0259257865245 0.0089604223660 0.0216310556613 0.0283037209880 0.0258261832075 0.2041436862158 0.0130720941289 0.0084028518841 0.0314946612859 0.0265878457911
87 0.0023732605205 0.0040993172053 0.0034265348493 0.3001622772243 0.0628811305797 0.0056776325843 0.0091030862642 0.0045602525526 0.0494871878443 0.4947568304777 0.0147626131051 0.0033570823280 0.0282364559722 0.0035566322082 0.0135597062841
88 0.0034305909943 0.0021333393071 0.0442528197973 0.0041903543125 0.0215549141030 0.3579446032008 0.2219674183878 0.0072648648373 0.0078341207539 0.2905048159327 0.0162787503164 0.0026842287207 0.0066704159780 0.0012249115475 0.0120638518108
89 0.2408225163677 0.0050266822810 0.0092027522048 0.5158147385070 0.0054284536326 0.0018511189478 0.0440607234434 0.0025774227167 0.0038467099145 0.0053671306655 0.0390464604693 0.0025901078336 0.1055800393162 0.0099485703662 0.0088365733339
90 0.0029029062457 0.1946307832329 0.0166510343176 0.0032578401953 0.0080371077679 0.0048725163125 0.4008023689701 0.0089389763179 0.3016008813682 0.0081273254020 0.0187407292659 0.0074507128653 0.0106292344269 0.0109525499580 0.0024050333539
91 0.0550759299801 0.0011476729972 0.3557608314588 0.0025710634222 0.0082713668602 0.0066224868737 0.0020913298047 0.0112925651691 0.0086874017492 0.0019202932133 0.5284288668807 0.0022384880542 0.0037052295913 0.0098260973235 0.0023603766219
92 0.0038359103720 0.0062168987111 0.0014272572352 0.0039597610605 0.0109443272726 0.0137659349879 0.0113045385801 0.0064889689948 0.0569518976020 0.5556798205537 0.0050453897519 0.2549553418430 0.0612985858368 0.0048897703834 0.0032355968150
93 0.0305123244392 0.0077511036879 0.0155353384927 0.0441864252173 0.0106761503642 0.0728130227383 0.0266629762968 0.0081576738680 0.0037280394900 0.1936907714307 0.0198613977166 0.0268592575607 0.4983392742965 0.0314501190499 0.0097761253512
94 0.0447806327118 0.0081093698638 0.0288927006550 0.0194147505509 0.0189802012469 0.0011525846642 0.4603373151857 0.0011922094056 0.0115749125407 0.3272519305365 0.0213286281315 0.0028288442918 0.0157648684522 0.0282865522135 0.0101044995497
95 0.0018693288735 0.0020065084827 0.0014822593245 0.1526274610111 0.0023460704655 0.0154502808432 0.1409379916368 0.0038220404864 0.0158312559235 0.0106299520324 0.0559337461596 0.0051298773490 0.4861759128925 0.1039490652763 0.0018082492430
96 0.0042886693004 0.0044967187925 0.0286892596560 0.0341753918696 0.5649453257513 0.0109874023045 0.0064733905225 0.1397281036903 0.0018269555979 0.1176407109272 0.0205348775834 0.0022603786696 0.0578581668880 0.0035481360671 0.0025465123796
97 0.0091300910455 0.1342806465820 0.0022457168455 0.0056164308918 0.0095717889015 0.0017822330113 0.3196618919183 0.0043195393153 0.1012286923616 0.0101327361450 0.3628436789018 0.0024691712580 0.0084388857368 0.0273251870857 0.0009533100000
98 0.3684409805419 0.0497140341861 0.0333013418556 0.0056389191947 0.0121913336854 0.2293569770426 0.0581307712209 0.0037931631572 0.0061593290921 0.0050775543530 0.0121279405351 0.0043825471807 0.0085019174214 0.1904499450164 0.0127332455168
99 0.0070710257815 0.0189471368597 0.0734740037799 0.5512165080093 0.0141607575031 0.0125865556858 0.0039235679178 0.0144298929362 0.0319005676213 0.0357466855860 0.0139077590195 0.1935951522817 0.0157765367411 0.0067288481386 0.0065350021384
100 0.0183499611442 0.0134181455902 0.0113534105038 0.0032111061921 0.1916553063866 0.0185999144434 0.0080177182142 0.4066788035763 0.0142385991839 0.1272926445624 0.0793903637840 0.0050051379992 0.0154901124085 0.0051412718086 0.0821575042026
101 0.0180014028503 0.0188848420677 0.0471534146079 0.0366537156025 0.0592189740102 0.0065084468281 0.0145477529243 0.0125529629232 0.0016798151301 0.2988583049025 0.0048229482980 0.1591913509226 0.0729637586348 0.0034714699453 0.2454908403525
102 0.0960603903164 0.0557984461410 0.0143090822436 0.0061712090603 0.4121257600361 0.0154732779157 0.0314393353828 0.0624913063270 0.0140766490584 0.0782721169424 0.0609538134972 0.1320281451964 0.0063122713972 0.0039907007322 0.0104974957533
103 0.0057570749380 0.0484591013664 0.2614834881372 0.0167971162852 0.0052511904787 0.0182437911575 0.0225857704946 0.0268401604109 0.0990675638290 0.1427061179964 0.0183108839364 0.2371604036556 0.0310825154511 0.0155596634189 0.0506951584440
104 0.0065949467230 0.0055351954892 0.3689621156442 0.0042047797414 0.0035571011798 0.0228185599422 0.0893739108204 0.2543739696941 0.0213393395789 0.0077627713367 0.0155707832127 0.0066476080929 0.1551401833290 0.0041286345694 0.0339901006461
105 0.0042274453733 0.0021535081611 0.0039134706506 0.0039508913114 0.0096298877133 0.0045974096771 0.3139679946551 0.0029102466557 0.0252036206392 0.0610342122096 0.0102666530494 0.0576880575275 0.2682961694442 0.0045951767158 0.2275652562167
106 0.0104709017605 0.2092766241535 0.0027836310448 0.0069373293946 0.0133849166423 0.0278962812598 0.0554870454921 0.2158931685984 0.0030033640257 0.0493709976064 0.0261363578565 0.3645555788652 0.0039422739331 0.0076509106697 0.0032106186976
107 0.2262073123385 0.0033134041028 0.0050409332445 0.0163717307244 0.0047517833839 0.0045328407506 0.0758023159914 0.3414690669460 0.0015403450512 0.0873541182830 0.1212488874608 0.0046587457378 0.0218474756900 0.0025376907677 0.0833233495274
108 0.0059681712565 0.0036077092623 0.0019581598000 0.0082705281680 0.0072123236537 0.0058404918714 0.5690224995082 0.0101830555724 0.0057777599464 0.0044613743897 0.0050823573408 0.0528361007578 0.3129446928147 0.0041515850305 0.0026831906277
109 0.0046041054724 0.0070933946704 0.2841489668787 0.0054045264548 0.0071066532745 0.0146151476960 0.0073015518313 0.2270611606031 0.0199343528204 0.0148515584123 0.1062875514563 0.0018920203382 0.2367445928204 0.0048237664856 0.0581306507857
110 0.5625939828169 0.0440769727048 0.0026578755719 0.0046654653433 0.0265633026649 0.0083389027091 0.0099903545869 0.1544642774083 0.0091383446409 0.0057182143976 0.0299400649875 0.0046317880692 0.0475622123395 0.0865698210980 0.0030884206613
111 0.2766477086103 0.0391246483769 0.0029921666965 0.0073186180977 0.0315110928242 0.0071437502203 0.0284575261373 0.3767100930599 0.0105628372125 0.0984558798804 0.0130783159073 0.0022864409970 0.0812903797669 0.0044812889274 0.0199392532854
112 0.0046722714828 0.0071949109509 0.0057965656068 0.0045271401195 0.0754373648819 0.0145935156853 0.7324444459337 0.0045850311737 0.0127978700351 0.0392418931595 0.0084374719451 0.0085011619032 0.0121495582943 0.0272130766443 0.0424077221839
113 0.0141031567840 0.0031690831562 0.0037430739794 0.0052102977430 0.4143873819442 0.0207548582284 0.0244593427278 0.0149993419874 0.0021348835248 0.0249213933416 0.0072279809304 0.2182235093660 0.0151471187558 0.0219235102121 0.2095950673187
114 0.2005320824108 0.0034734274522 0.0038882517306 0.0041801493751 0.0070534890617 0.0094511282740 0.0089820060424 0.0081744831303 0.0098902010587 0.5960424805117 0.0937173227316 0.0220749920563 0.0087755231449 0.0192468860161 0.0045175770036
115 0.1303979113588 0.0054310513236 0.0464794443116 0.0072398824543 0.2676600530241 0.0060097374541 0.0290037207487 0.0249929449750 0.0099526936791 0.0617579457412 0.0126768957741 0.0038723245039 0.3407256354999 0.0055482346470 0.0482515245046
116 0.0102240899496 0.0490060401982 0.0079576738332 0.0061084620091 0.0148887424664 0.0063153237802 0.0405234571190 0.0050889815377 0.3456523675158 0.0161553844104 0.2920378260936 0.0119900311284 0.0175719259994 0.0234701762952 0.1530095176638
117 0.0657791837705 0.1063081459712 0.0372982808187 0.0145414323149 0.1067465180790 0.0261835945268 0.0111474882761 0.0144889350276 0.0227055876979 0.0044280526076 0.0338896438983 0.0089020474096 0.0044408408379 0.0345885911283 0.5085516576356
118 0.0240093389310 0.0032847905657 0.0188233682328 0.0038497000891 0.0028351344893 0.5803838302826 0.0243687652011 0.0402583692596 0.0597228414128 0.1638224872086 0.0277163722242 0.0102270703348 0.0368048987027 0.0020438750458 0.0018491580199
119 0.0053901777714 0.2941838276070 0.2145850313194 0.0033088155097 0.0082041846159 0.0090643796531 0.0828645627113 0.0095682271863 0.0100206324470 0.0173400125511 0.0270164229331 0.0097398798172 0.0214460264520 0.0093759010117 0.2778919184137
120 0.0056142298799 0.0076449902545 0.0197187067539 0.0062394942536 0.0794820430258 0.0237706198459 0.2414028900745 0.0482251026353 0.0310879947978 0.0738268176860 0.0536826600360 0.1013187087790 0.0447733174405 0.0076000832303 0.2556123413071
121 0.0031486273702 0.0126363190769 0.0104245763324 0.0608549807514 0.0069575134041 0.0098615629653 0.4943859032804 0.0032435310523 0.0019033187285 0.0115882471253 0.0059442546403 0.0034727930879 0.0229651116165 0.0042213112102 0.3483919493584
122 0.0026020830695 0.0028704048201 0.0030846749169 0.0036167557199 0.3639661231432 0.0071405153290 0.0108896198230 0.0019324743397 0.0130952234744 0.1913393307441 0.0155053593001 0.2370424382279 0.1377780234951 0.0037321069785 0.0054048666186
123 0.0057298724431 0.0084727454078 0.5029745676923 0.0077775828421 0.0596673765804 0.0270760312442 0.0895054746348 0.0071920365070 0.0111825786938 0.0694762143551 0.0182135989464 0.0131519938502 0.0398960137230 0.0126605045195 0.1270234085602
124 0.2355617801922 0.0249616974189 0.0016039864029 0.0068096995170 0.0041723337246 0.0076043575092 0.0483888038748 0.0296793906166 0.3174390495381 0.0040217239762 0.0164019464519 0.0725729360325 0.1484221528926 0.0097479812024 0.0726121606499
125 0.0228701602135 0.3241153825039 0.0050443749366 0.0068353121403 0.0075599432315 0.0213172589505 0.0060038055815 0.0025574297124 0.0012639936451 0.0220389561437 0.4862588760679 0.0442374035956 0.0152189782779 0.0049010587681 0.0297770662315
126 0.0040706623098 0.0042865058720 0.0559159899495 0.0089999066935 0.0216072271687 0.6203708742710 0.0107505375655 0.0562422752341 0.0039903742055 0.0235776521996 0.0048218503911 0.0546477473062 0.0095290575120 0.0111518498078 0.1100374895137
127 0.0034768182325 0.0347384619211 0.0096436012690 0.1220574531840 0.0175046369578 0.0243930900903 0.5879688927323 0.0024330499315 0.0033872466815 0.0116197941827 0.1437385311510 0.0042337720319 0.0097814733151 0.0170169883738 0.0080061899455
128 0.0050415925763 0.0047078810935 0.0071235457860 0.0123469739396 0.0141987345853 0.2799557013082 0.3825772724499 0.0365267124228 0.0169207943903 0.0111144821691 0.1868215026250 0.0060369737763 0.0149844793270 0.0085911084288 0.0130522451221
129 0.0478402934252 0.0020660805890 0.0046559339971 0.0021613418733 0.0049950908201 0.0190636710902 0.0379431016410 0.0024958423526 0.0039604811291 0.0058559802262 0.8473706665179 0.0033655945914 0.0094897627055 0.0053750342962 0.0033611247452
130 0.0096933626291 0.0097492566457 0.0151690904938 0.0091582761801 0.0079381031631 0.0371171515417 0.0394396352839 0.0103724066244 0.0231965071915 0.4090261036968 0.0308123821464 0.0232941229180 0.0264662827422 0.0305620866361 0.3180052321073
131 0.0026203485858 0.0348901312434 0.0083430282507 0.0068391921810 0.0053791941243 0.0024704755160 0.0521366081210 0.1439449751376 0.0043893867316 0.0129563037742 0.6086594752256 0.0443400184318 0.0174751027304 0.0108306732783 0.0447250866682
132 0.0014711241876 0.0017783599784 0.0049954969475 0.1956352154142 0.0154719184110 0.0776212615597 0.3650430856452 0.0012259532951 0.1369651937329 0.0058084006945 0.0085651915428 0.0650202117567 0.1032713230166 0.0055477629417 0.0115795008761
133 0.0133087706170 0.0048374434336 0.0203626536794 0.5468795162447 0.0239563473846 0.2022586588694 0.0140922060888 0.0067585716882 0.0090325163300 0.0043019769769 0.0136069164347 0.0107388517951 0.0234301752776 0.0997028772112 0.0067325179687
134 0.1537895329167 0.0049795923635 0.0048615919272 0.0544770420012 0.0030819240681 0.0743852704932 0.0974247115164 0.0077633028280 0.0125593186972 0.0094908302420 0.0091025248792 0.0020659873761 0.5588618356571 0.0027492117249 0.0044073233092
135 0.0088090214538 0.0069717168533 0.1102448460692 0.0166650475600 0.0211061789195 0.0115356478489 0.0098242985027 0.0021997669393 0.0039790879974 0.4123647168512 0.2498306738219 0.0076903448108 0.0040552732701 0.0150378346818 0.1196855444200
136 0.0054512016457 0.0031080544998 0.0048023723267 0.0206072300316 0.0124722566225 0.0093446297886 0.0049187934740 0.2547737609764 0.0028638066019 0.3608096044608 0.0194130291020 0.0392294629527 0.0040020860292 0.0028739324570 0.2553297790311
137 0.0044587862903 0.0457276133434 0.1429217844993 0.0705553916414 0.2981045968637 0.0090800900503 0.0268500364624 0.0024664770304 0.0038032010388 0.0053412682736 0.0038345845824 0.0026700150415 0.0089434831478 0.3644852570654 0.0107574146693
138 0.0480263532226 0.0185685997965 0.0024524158934 0.0087091566373 0.0082758680384 0.0112636323393 0.0474583623299 0.0057640003079 0.0806757214424 0.0093374381928 0.3896823231765 0.0026964373754 0.0129193110350 0.0270343059767 0.3271360742360
139 0.0036678950474 0.0020943744548 0.0156269158768 0.0058840233147 0.3681396005736 0.0073385162116 0.0861339423941 0.0095120132048 0.0115528397345 0.0045900100982 0.0455210333077 0.0312078189035 0.0074886850948 0.0081114431186 0.3931308886649
140 0.0614332220278 0.0033034268330 0.0924579538531 0.0037041266827 0.0054403760563 0.1355055457295 0.3754004797766 0.0024914272131 0.0115767677385 0.0027763211959 0.0150970052214 0.1665614334455 0.0141394656505 0.0147500958403 0.0953623527357
141 0.0107581094720 0.0048774578959 0.0017280546100 0.0097609366063 0.0902871775383 0.1628654196207 0.2321478685574 0.0141681197076 0.1778562579510 0.1223800030710 0.0340126182025 0.0039669463215 0.0262461019733 0.0029629554759 0.1059819729965
142 0.0047295833361 0.1160031812536 0.0061201922507 0.0074423180482 0.1789600145300 0.0070219560532 0.0277141066638 0.0424318199114 0.0029130385374 0.0094625770084 0.0138745513853 0.2880399386012 0.0551340774951 0.0090651957184 0.2310874492072
143 0.0421837177706 0.0129344610313 0.0017263139374 0.0292724422070 0.0033891485956 0.0016093383965 0.0078293085823 0.0009434203244 0.0008033491845 0.0034240028448 0.8762843698218 0.0033109016393 0.0093523280711 0.0011726335050 0.0057642640884
144 0.0162521083428 0.0097244576650 0.0128329565448 0.0069234084958 0.0608274041385 0.0237604550862 0.0246061987782 0.0315525342062 0.0448980279426 0.0117928817752 0.0359532005432 0.0386926919395 0.0287086048684 0.6435022580244 0.0099728116493
145 0.0230571376385 0.0024273440853 0.0104784303952 0.0139685953695 0.0142454799252 0.0035375041708 0.0057820736398 0.0124258581758 0.0025210639342 0.6889694881745 0.0217126981261 0.0035129090212 0.0465993401580 0.1142007441261 0.0365613330600
146 0.0392242794709 0.0202072525046 0.0116516594291 0.3851940561333 0.0123973132936 0.0064148289231 0.0068329177455 0.0346291621466 0.0504005363666 0.2789565195863 0.0183183045311 0.0123040912757 0.0096874959481 0.0100870323238 0.1036945503217
147 0.0187267390257 0.0087183521824 0.0044555568702 0.0049216275809 0.0884290627017 0.0163219474117 0.5010926958830 0.0037840594104 0.2289941477428 0.0271973969723 0.0256081039148 0.0041622197927 0.0385497506648 0.0262784200040 0.0027599198426
148 0.1341861785009 0.0115425970416 0.0574086326134 0.0229308475716 0.0119287790421 0.0446124895972 0.0448028110136 0.0020909973065 0.0198609665594 0.0327682241196 0.0298299748627 0.4910807127202 0.0102963034724 0.0653375296776 0.0213229559010
149 0.0030530026630 0.0024930633099 0.0028714114265 0.0026559663952 0.0042589390957 0.0037909518773 0.9363048441951 0.0031454279461 0.0037905683783 0.0061044842653 0.0041068803746 0.0023124085531 0.0109532650767 0.0028689019999 0.0112898844433
150 0.0464398143426 0.0162018644538 0.0059768999811 0.0032544720658 0.2026055963692 0.0051714452396 0.0181918068366 0.0983244244668 0.0156112740120 0.1420462017493 0.3278476627046 0.0247388835700 0.0157008808377 0.0710509319907 0.0068378413803
151 0.0484114552837 0.0239433433299 0.0090707937916 0.0381314159679 0.0171400225061 0.0113000009952 0.0257378596442 0.0637937744192 0.0119516855687 0.0744558321633 0.0771520419103 0.0810164750745 0.4880884973607 0.0206531698939 0.0091536320911
152 0.0036892969188 0.0052023079851 0.0143880446057 0.0140202793453 0.4601064165544 0.0251490102276 0.0260174026818 0.0161291101447 0.0946004597173 0.0058645741760 0.0125525917004 0.2130711921130 0.0971657270449 0.0058127997434 0.0062307870416
153 0.0029460740599 0.0062140699552 0.0080752353723 0.0364522147103 0.0161173328948 0.0061465514795 0.0142389787960 0.5887016625151 0.1059735786530 0.0379147993178 0.0375417258717 0.0145933067489 0.0065768589817 0.0150606397144 0.1034469709294
154 0.1704738173643 0.1151014063262 0.0047466091620 0.0305862453240 0.0051491127194 0.0056444899099 0.0130946138470 0.0111596509912 0.0105654578235 0.3204586453610 0.1812958122791 0.0081501637061 0.1170267352474 0.0023106449482 0.0042365949908
155 0.0311634266657 0.0873681148472 0.0025485389088 0.0334620780330 0.0034001433575 0.0050554780315 0.0246068475343 0.0059363454046 0.0417621813649 0.2144307076296 0.0653906551482 0.0084345366685 0.3877493092516 0.0709562888844 0.0177353482701
156 0.0088917515311 0.0020096370488 0.0061634383406 0.0971158762914 0.0245073242090 0.0897766262712 0.0380626326320 0.0084083669858 0.3569781911506 0.0257246660121 0.0711499124601 0.0040154054496 0.0339978400548 0.0074258781089 0.2257724534539
157 0.0724356876421 0.0499357451851 0.0155179100130 0.1209411531773 0.0119893356593 0.1059704278800 0.1040217477499 0.3200926700045 0.0042838243158 0.0424960332320 0.0171333788465 0.0017550839665 0.0059063784628 0.1003652625304 0.0271553613347
158 0.1410909624653 0.0150845205359 0.0020174407170 0.0241531892109 0.0014461322567 0.2060715571072 0.0101877690191 0.0020084470604 0.0046691591616 0.0894000030016 0.0262060237365 0.1428603010648 0.2649455844435 0.0115701092544 0.0582888009650
159 0.0761429432801 0.0037669889353 0.0011000737608 0.0047148202691 0.0053485460253 0.0058845085270 0.2503385614528 0.0735967751316 0.0168838165663 0.0690843957246 0.0812988322848 0.0042917436128 0.3996265334249 0.0028726223277 0.0050488386770
160 0.0044070269780 0.2294558661531 0.0158917854549 0.0048780124725 0.0089010898499 0.0089429258609 0.0048303543006 0.0058924797989 0.0310730890754 0.0200676626973 0.1004680297697 0.0083617912505 0.0444430142442 0.0071099336737 0.5052769384204
161 0.0271220569204 0.0031667038768 0.0020365194199 0.0140790569732 0.3523478020774 0.0090993150557 0.0234194754029 0.0070483157040 0.0030705975376 0.0291440492062 0.4608748917232 0.0023486524552 0.0474191439308 0.0020957701723 0.0167276495444
162 0.0422017204480 0.0168049280967 0.0031506352612 0.0167493549014 0.0720384115887 0.0040001840743 0.4151905978101 0.1214905999911 0.0098663374425 0.2702032358101 0.0150824052009 0.0008933474057 0.0072609131862 0.0019409741418 0.0031263546412
163 0.0118968642710 0.0167503551941 0.0091359231494 0.0133002909714 0.0054984597353 0.0091962552220 0.0576292170958 0.0379531168482 0.0484847189219 0.0695830399691 0.0965602192966 0.0199364519485 0.0283295094456 0.0163471690047 0.5593984089265
164 0.2101890356264 0.0463480992377 0.0037593497701 0.0034959782009 0.0063599129306 0.0039171873266 0.0315904305634 0.0061325631926 0.0063697552811 0.0075114114705 0.1131888364147 0.0049324927834 0.0041790044744 0.4441228972046 0.1079030455228
165 0.0765858888167 0.0085750940032 0.0843402833510 0.1579102222586 0.1007616840414 0.0027581749956 0.1222517698400 0.1527142102919 0.0073060526074 0.0168203120029 0.0046547998904 0.0030913078740 0.2284004311551 0.0210638703719 0.0127658985000
166 0.0919414220365 0.2207995745791 0.0024566014031 0.0550206180037 0.0184432229247 0.0254971315094 0.1515350470611 0.0297667676092 0.0121220666824 0.0507758604842 0.0155696842972 0.0132552291158 0.0128175462917 0.0479641657645 0.2520350622375
167 0.0125008790327 0.0069760121924 0.0038794081674 0.0091286102403 0.0082377718022 0.0259055155468 0.3460599541815 0.0075597292011 0.1104041466276 0.1728941992435 0.0279561686019 0.2239805235445 0.0219069630650 0.0058580311538 0.0167520873993
168 0.0293557751190 0.0024087450405 0.0074006239026 0.0030143723649 0.0546251643743 0.0031396745700 0.0067728242903 0.0030757821286 0.0013568913110 0.4839590937510 0.0052867261278 0.0047815386624 0.3906319974263 0.0019245751831 0.0022662157481
169 0.0144219864297 0.0366546195662 0.0020275886276 0.0196943785956 0.0131809701660 0.0316959328859 0.6431707101905 0.0057149356783 0.0098128759267 0.1153859014125 0.0384862027347 0.0120085941784 0.0373174901502 0.0075253457052 0.0129024677525
170 0.0036843971045 0.0061227910648 0.0028052896407 0.0019652343935 0.0047012380304 0.0099077639849 0.0782014823151 0.0027664284855 0.1472131938632 0.0452854972264 0.6594947798726 0.0048583953147 0.0204792185917 0.0110918277039 0.0014224624081
171 0.0022143107764 0.0027153126976 0.0193568474071 0.0014956595465 0.0026860900381 0.0033332387084 0.0045456319550 0.0029756949192 0.0013848699505 0.0089802391633 0.0053776118856 0.0103279604763 0.8691093612100 0.0537872354127 0.0117099358533
172 0.1255761345650 0.0061370287798 0.0294008026785 0.0086050485403 0.0271945127197 0.1222104367985 0.0252048025850 0.0297989780246 0.1037150549094 0.0222593697978 0.0632826529571 0.0506603011825 0.0155761797539 0.3578999575456 0.0124787391621
173 0.1001991939852 0.0099761485782 0.0030296287917 0.0080557242350 0.0087839923643 0.1501059009683 0.0185644690885 0.2738063812483 0.0129146312227 0.1626436511608 0.0650627760138 0.1317201160178 0.0328334904731 0.0075914001003 0.0147124957519
174 0.0062908441113 0.0159431882961 0.0118691330645 0.0043291943026 0.0234812543834 0.0199280968029 0.0223498015063 0.0610889980742 0.0224268623685 0.0725700174314 0.0118167820732 0.2238601166534 0.2839556876467 0.0162422677083 0.2038477555771
175 0.0367942009806 0.0103353920163 0.0107095238540 0.6801649647206 0.0182148543336 0.0139282499846 0.0128671394178 0.0079828284571 0.0136204799433 0.0399110829101 0.0758297404085 0.0261701947172 0.0285349534068 0.0153830242195 0.0095533706300
176 0.0193562092652 0.0637733507618 0.0045179494391 0.3699635170109 0.1626676389506 0.0220742654184 0.2423882930895 0.0087925776500 0.0460732811637 0.0023539876066 0.0048955634056 0.0171341663778 0.0200181005518 0.0129611057379 0.0030299935710
177 0.0876516043793 0.0088049310157 0.0018826603199 0.0073075284913 0.0030725763552 0.0048847555466 0.0793827816621 0.0081993320019 0.0137269421425 0.0807518664236 0.0037770141821 0.0028315243790 0.6923909065419 0.0013915315408 0.0039440450180
178 0.0030130363172 0.0159033617212 0.0026772863671 0.0027354874509 0.0108894723761 0.0084630099501 0.0160982226093 0.0098414235384 0.0018437786563 0.2866322164528 0.0315252274610 0.2674536250814 0.3348358884919 0.0065922810562 0.0014956824702
179 0.0150716634376 0.0021380251117 0.0138320902453 0.1790805982870 0.2884769883322 0.0191469961153 0.0153327355569 0.1860372760628 0.0036083002602 0.1142413263786 0.0373313839525 0.0048089030514 0.0135289959076 0.0969966312989 0.0103680860020
180 0.0079113088810 0.6088965606225 0.0930178545814 0.1037237787708 0.0105923629003 0.0167926811794 0.0131408778695 0.0040383773379 0.0081869170584 0.0492198468145 0.0247760144179 0.0081799018893 0.0135962393852 0.0178653683433 0.0200619099485
181 0.0159336870021 0.0140963841726 0.0027077132079 0.0056675395447 0.0065175394506 0.0054121310244 0.3407727341483 0.0023254478138 0.0231383239883 0.0072364415446 0.4345310851325 0.0150299082276 0.0042602086780 0.1021671498213 0.0202037062434
182 0.0398688402054 0.0137237311061 0.0030153289081 0.0092932562849 0.0084872904825 0.8344261881535 0.0296081377588 0.0095529480773 0.0125087040051 0.0034278169210 0.0169654865300 0.0057378596987 0.0098983509539 0.0016009355830 0.0018851253315
183 0.0018614712582 0.0009752395083 0.0025912788482 0.0171035372359 0.0380073554554 0.4151586132625 0.0186267220737 0.0068396965154 0.0018469619738 0.0178658732961 0.0427604634180 0.0047112858661 0.4208892115430 0.0070783918957 0.0036838978498
184 0.0053284392402 0.0041764250884 0.0061383224982 0.6059457082444 0.0040016792688 0.1172630014686 0.0173719958844 0.1087430689494 0.0693566157978 0.0086221749193 0.0248935632433 0.0061518352938 0.0128329714481 0.0054093051422 0.0037648935132
185 0.4283305574128 0.0036260190766 0.0095072013208 0.1374520094718 0.0114545371800 0.0037623370715 0.0195636194854 0.0084153767409 0.0860964265708 0.0058499800738 0.0127756196236 0.0033681294829 0.2568412034318 0.0101178629386 0.0028391201185
186 0.0150333083601 0.0162290583013 0.1756520131483 0.0177884031956 0.0394559593167 0.0516429520660 0.0318899768397 0.0079690808401 0.0039309897645 0.0232787132737 0.0084252607293 0.0307496509158 0.0288446754880 0.0126104862686 0.5364994714924
187 0.0106536214982 0.2655087250294 0.1634302957344 0.0053044997127 0.0369344192124 0.0065854203033 0.0184311919057 0.3017087664430 0.0172948288013 0.0422011161526 0.0196552509541 0.0399506737187 0.0424658718722 0.0168278915954 0.0130474270666
188 0.3324733286685 0.0077971115119 0.0178184864181 0.3424526929199 0.0502329582155 0.0187951424866 0.0509644375966 0.0565719797426 0.0081942479217 0.0090319191530 0.0255510001546 0.0548832639294 0.0125091882697 0.0059258473231 0.0067983956885
189 0.0077782047482 0.8819801460917 0.0067314794553 0.0041463172021 0.0062040371853 0.0070606865912 0.0050283701766 0.0038909650363 0.0335522557586 0.0071388952440 0.0171687480660 0.0041044951517 0.0071977873017 0.0043122421970 0.0037053697944
190 0.0018262126038 0.0029893575658 0.0783847397166 0.0908800109264 0.0217579036077 0.0065493487627 0.0496979994347 0.0017512910611 0.0038064940303 0.2488398858566 0.0058526957094 0.0022420774608 0.4776507804528 0.0044586975903 0.0033125052209
191 0.0158499045029 0.0076881910392 0.0172358945907 0.2000567220036 0.1327650388752 0.2960820065164 0.0104322861054 0.1120248881140 0.0028713423002 0.0321805351333 0.0152370517430 0.0196636171003 0.0098631431314 0.1137324221693 0.0143169566749
192 0.0075142313413 0.0051271541622 0.0213745623954 0.0082695375504 0.0395972951883 0.0089664947214 0.0318518045407 0.0070982428492 0.6191015720829 0.0987183546472 0.0798966733245 0.0226654081962 0.0115642190942 0.0231042957685 0.0151501541376
193 0.0135970476268 0.0080495624550 0.0037844367982 0.0156482935734 0.0247617234685 0.0059609134936 0.1993904570470 0.0103137504982 0.0382201531437 0.0218873097299 0.0577238798590 0.0040218338719 0.0080057576046 0.0124960002909 0.5761388805393
194 0.0077823098174 0.0060813596391 0.1264481968343 0.0121651037419 0.3271702252700 0.0151141636782 0.0208069979812 0.0144521000945 0.0927527056767 0.0681353043113 0.0077105062515 0.0590677269299 0.2126318309219 0.0159721499741 0.0137093188778
195 0.1754087153075 0.1206892828121 0.0467220998896 0.0080463210775 0.2702127509756 0.0081817736723 0.0206655166163 0.0035658539804 0.0063564359507 0.0032494883806 0.0094418176055 0.0891172533643 0.1494530041747 0.0830882223399 0.0058014638529
196 0.1539809348646 0.0009072345106 0.1705180501571 0.0093778108655 0.4496369119875 0.0103184163071 0.0230967096102 0.0019739158021 0.0212321006789 0.0046323120050 0.0175483613974 0.0913347470683 0.0131247885930 0.0202245335448 0.0120931726078
197 0.2783382871587 0.0194162469892 0.0746530251091 0.1381949976766 0.0074520381323 0.1654337327421 0.0211431810830 0.0035137509357 0.0042060204033 0.0095925063374 0.0046509851442 0.0064190758642 0.0360700948863 0.2269584915399 0.0039575659979
198 0.0179564967454 0.0040397090746 0.0159181703568 0.0080299751454 0.0100756785565 0.4690922131240 0.0357383926645 0.0119668720189 0.0037601444328 0.1880678900480 0.0294742823468 0.0061949994676 0.0161522488557 0.1683991336473 0.0151337935155
199 0.0097492847876 0.0047286107623 0.0605968293737 0.0059909769295 0.0091161012061 0.0060432169186 0.5057089349332 0.0544626240469 0.0940384610894 0.0514511260774 0.0203231752087 0.0029035014284 0.1464104845473 0.0248196626968 0.0036570099940
200 0.4479395024729 0.0066488969916 0.0165201782060 0.0071413170944 0.0288982549694 0.0357173388482 0.0114925126115 0.0159242335612 0.0045040915104 0.0151342683212 0.3521755125266 0.0279383144491 0.0131101577437 0.0065542908313 0.0103011298622
201 0.0168967236464 0.0095252304308 0.0174223047939 0.0088467956241 0.0165707737202 0.0364770133636 0.0276933915065 0.0070539934607 0.7172573912014 0.0141807085034 0.0298231788951 0.0114247998752 0.0641026948664 0.0135641170695 0.0091608830427
202 0.2047882361386 0.0032633204799 0.0222091208193 0.0111179657115 0.0046803315849 0.0023989828966 0.0244563916407 0.1132537133620 0.0017370458679 0.0301816496180 0.2714645994443 0.0161385551074 0.0026591596701 0.2537447429662 0.0379061846928
203 0.6526977768926 0.0691146763381 0.0064817824995 0.0115878785450 0.0129047470321 0.0122945659150 0.0180887690586 0.0500930323798 0.0031964964272 0.0169341938924 0.0136001557739 0.0947733912139 0.0068034762267 0.0258542616099 0.0055747961953
204 0.3781001152228 0.0025476678870 0.0073652333288 0.0065960016275 0.0101766744938 0.0071924704739 0.0053894102562 0.0024206352822 0.0016964184737 0.0342932533347 0.4632716462716 0.0367081192901 0.0091066214946 0.0196545423136 0.0154811902495
205 0.0030913764521 0.0649663604224 0.0022514653012 0.0663339759920 0.0123093893303 0.0204226822063 0.1145944834247 0.0415284839258 0.0357142704389 0.0089477961904 0.0240285938079 0.1287335796656 0.4486363911525 0.0237818459771 0.0046593057130
206 0.1217267548955 0.0197731543152 0.0020396434807 0.0026987271852 0.0904612642851 0.0037764374208 0.0085937627706 0.0081595474998 0.0105654131753 0.0034270406627 0.0298849526258 0.0040088358413 0.6656249179007 0.0050762736772 0.0241832742640
207 0.1589266640681 0.1494172594193 0.2065446308100 0.0047639025638 0.0112023051874 0.0082013659681 0.0242377658975 0.0097447605065 0.0045720175489 0.0357164413636 0.1237146435330 0.0155559972706 0.0269496803983 0.1539880677596 0.0664644977054
208 0.0500629708054 0.3350861442165 0.0060450008156 0.0176964963582 0.0455576613637 0.0066444019716 0.0039641108010 0.0062431808169 0.0127101895873 0.0719004638182 0.0751830620913 0.1816118529075 0.1251226135767 0.0029695044800 0.0592023463903
209 0.1590179612640 0.0082332852282 0.0036311520781 0.0112498583879 0.0111629614024 0.0187479401615 0.0120544197361 0.0031185188436 0.0052018841869 0.0042653375229 0.0118643525119 0.0866046242054 0.0114581384372 0.3685002181498 0.2848893478840
210 0.0039640562003 0.0023836785248 0.0931925657945 0.0067669813216 0.0312053762078 0.0146359940842 0.0450453331812 0.0025988674704 0.0302596326339 0.5107546325867 0.0077658876553 0.1044747116267 0.1242726774141 0.0050343384213 0.0176452668770
211 0.0010923089147 0.0009878838337 0.0131152359872 0.0006651842491 0.0018131050983 0.0028729438994 0.0020585520693 0.0122358073487 0.0025544310133 0.0048984180177 0.0207180743096 0.0009069559014 0.9190980074579 0.0016518710651 0.0153312208347
212 0.0388340894306 0.0047186320491 0.0027543146350 0.7274512802963 0.0180194740666 0.0224216378056 0.0393589426211 0.0065092924164 0.0102820846833 0.0228148291857 0.0275151401303 0.0093668367541 0.0232677373454 0.0182343117876 0.0284513967929
213 0.0118757310402 0.0500578085706 0.0117912438474 0.0102449672909 0.0088737423116 0.0380381614129 0.0175687597162 0.5248594359024 0.0143689640876 0.1300881208239 0.0343981056252 0.0304208099748 0.0255259966037 0.0126647558018 0.0792233969907
214 0.0170481552137 0.0213287472882 0.0051696524598 0.1251254554398 0.0374681247223 0.0085674086797 0.0310495196208 0.0199306281004 0.0182786710673 0.3049494505428 0.0213168638744 0.0163571447259 0.0108382880887 0.0110060018870 0.3515658882894
215 0.0096656062194 0.0056979709022 0.0019923372450 0.0017118244786 0.1521932323510 0.0243898343031 0.0198451345493 0.0057635253697 0.2347581570941 0.0445426133523 0.0229513989730 0.0343991040375 0.0087585249203 0.4157356061197 0.0175951300849
216 0.2481543617622 0.0041865797620 0.5604880264488 0.0298722286117 0.0070312916646 0.0123773950021 0.0359718718737 0.0035483060918 0.0018563869446 0.0192357817457 0.0082929645764 0.0390166635199 0.0118376473509 0.0062478441287 0.0118826505170
217 0.0117472900874 0.0120763290913 0.0125134812756 0.3050456779805 0.0266714336071 0.0646692186570 0.4172683059588 0.0138173710126 0.0145598929147 0.0116532271100 0.0553040476005 0.0172955199321 0.0154441272759 0.0110389107856 0.0108951667108
218 0.0058375451164 0.0040197400718 0.0050943032978 0.6581794735392 0.0054889946327 0.0257004691413 0.0301539399458 0.0356064445090 0.0102959141617 0.1237920649931 0.0586185732843 0.0066226944338 0.0074340199995 0.0130517838566 0.0101040390169
219 0.0062750194578 0.0109032506394 0.0034466031300 0.0097302568099 0.0155730802822 0.1920524721969 0.0110371144247 0.3212242988709 0.0065368133987 0.0102780742704 0.1767991787294 0.0100810774698 0.0107833876564 0.2085100271040 0.0067693455594
220 0.0704253436198 0.0121506148308 0.0054314822942 0.0078418776458 0.0099027596551 0.0407749173415 0.3273113946172 0.0285560051924 0.0208618096415 0.1109478891015 0.0325628207096 0.0129876606729 0.0418660436927 0.0148465416947 0.2635328392903
221 0.0043634628193 0.0051526984280 0.0102804032509 0.0935827676558 0.0093443053858 0.1610597140362 0.0060309869004 0.0225400243239 0.0446258123497 0.0109137574820 0.0121727404088 0.0054177504568 0.5979159709069 0.0063867740614 0.0102128315339
222 0.1295958802036 0.0735901647052 0.2104215046834 0.0643611610317 0.0032601884334 0.0057516477241 0.0063294259187 0.0707066886942 0.0046302727870 0.0024949843936 0.0074392634731 0.3016094912232 0.0141889987349 0.1001703627226 0.0054499652713
223 0.0043332809502 0.1226264324856 0.0020468293398 0.0976107458257 0.0043463622005 0.0147902842083 0.0160418408832 0.0879331628073 0.2729784611908 0.0117088111065 0.0122142336824 0.0045171785054 0.0096881224328 0.0102862405443 0.3288780138370
224 0.0092139235270 0.1248723636110 0.0045813878283 0.0133258186399 0.0081576615046 0.0052326251198 0.0074335601003 0.1055234847600 0.0621536150052 0.0188093415116 0.0072172180288 0.0074359365106 0.5804013782498 0.0413023066943 0.0043393789089
225 0.0099713590656 0.0205924967961 0.0109581151608 0.1952937362887 0.0089954052844 0.0209957506933 0.0111419861053 0.0088900613117 0.0117201215261 0.2121301720890 0.0165555102939 0.2657349012726 0.1909355225408 0.0031123786194 0.0129724829524
226 0.1294828736630 0.1534002745001 0.0067444486975 0.0565254205870 0.0121805538442 0.0372365135025 0.0058960719081 0.0092240182295 0.0021884983065 0.0763963556064 0.0031384756322 0.1303085148004 0.3491552324959 0.0139287519431 0.0141939962836
227 0.0899707856123 0.0041704712710 0.0100747051039 0.0211902879780 0.0020467252273 0.0088940399399 0.0440769429736 0.0032797945083 0.0009142474558 0.2015373151254 0.0426969230334 0.0501254719892 0.4956773506925 0.0011961933911 0.0241487456982
228 0.0990889690813 0.0035646597450 0.0035327517900 0.0044613608319 0.0606223577288 0.0258672020898 0.0196466064237 0.4373975903727 0.0033316754479 0.0139158878542 0.1501055293353 0.0066271475316 0.1248796724883 0.0453906095557 0.0015679797238
229 0.0099490292875 0.0094806297633 0.0075751630468 0.0044193336581 0.0097764699063 0.0094035537540 0.1530688883272 0.0151156592993 0.0802801825020 0.0108548407763 0.3283037298616 0.0313531718649 0.0071044312720 0.0741215660621 0.2491933506187
230 0.0054228100853 0.0046216062078 0.0043881590512 0.0057946599197 0.0109665649986 0.0088259275844 0.0280802104767 0.0083795804348 0.0113896487715 0.0173020672208 0.6825805735145 0.0109934753632 0.0152188716709 0.0070985251590 0.1789373195415
231 0.0071769449528 0.0250842597937 0.0036048984417 0.0036620127251 0.0093994971775 0.0045540070206 0.0235807953326 0.4840629422990 0.0289970300566 0.0387366886750 0.0242599489044 0.1320778327266 0.0252776495883 0.0093870154052 0.1801384769009
232 0.0080275570029 0.0315545831825 0.0012834927205 0.1198924197279 0.0016429226025 0.0158016122056 0.0042513498605 0.0030487347635 0.0300840344054 0.0719578233701 0.6405254323808 0.0420719052649 0.0102575002918 0.0099516702621 0.0096489619589
233 0.0055114013997 0.0050068282849 0.0073912962095 0.0072142588156 0.0034157033021 0.0039896466298 0.0065330875084 0.0099820093546 0.0039436999332 0.0390701495928 0.1625903267168 0.0161439100382 0.5860409790584 0.1386460561377 0.0045206470184
234 0.0485973894627 0.0015277968457 0.0291083877031 0.0891014191372 0.0030560574253 0.0128403237169 0.0037023896248 0.0035973798632 0.0042148767251 0.7296914606800 0.0043153804920 0.0063764577420 0.0112964132165 0.0401009924785 0.0124732748870
235 0.0030491378852 0.0299427320511 0.0123829879797 0.0077392257269 0.0051648019625 0.0070488734878 0.4146671157867 0.0043553957722 0.0052758176845 0.1872950879737 0.0061967660718 0.2973572632396 0.0042623227202 0.0087427477593 0.0065197238987
236 0.0097693061768 0.0031323336748 0.0063570881610 0.0051704855807 0.0042897092353 0.0073180030866 0.0216763270842 0.0033579190931 0.0285185673789 0.4449662094181 0.0947597628219 0.0093998529524 0.3567212157485 0.0017983458714 0.0027648737163
237 0.0157016557315 0.0068230523517 0.0021680110424 0.0061203608701 0.0023161606683 0.1790740874252 0.5747068786939 0.0058362789880 0.0050185281415 0.0055151871035 0.1753461052189 0.0028282526082 0.0049937502694 0.0114435460276 0.0021081448598
238 0.0105119726308 0.0174317559827 0.0045751964435 0.0154631816907 0.6396257864867 0.0467434849821 0.0077699000872 0.0067837498455 0.0044153642533 0.0164492775773 0.0189507217199 0.1852151743523 0.0064716236274 0.0070389920670 0.0125538182537
239 0.0013127938706 0.0136523390090 0.0010601029534 0.0026198672825 0.0020989977203 0.0030072922226 0.0391548265015 0.0028685337653 0.0121838192160 0.0054199482574 0.0142523342387 0.2372943141970 0.6582671480643 0.0023039033892 0.0045037793123
240 0.0017524584697 0.0146306572961 0.0059517109040 0.0085422576413 0.0065178393938 0.0544789697660 0.3455608039463 0.0118099819781 0.0039794865089 0.0138686179315 0.0139727983531 0.0031937907680 0.0075507570017 0.2296396953169 0.2785501747247
241 0.0047261124133 0.0084459361544 0.0029126974636 0.0023921946441 0.4497312695594 0.0109586818049 0.0058077422152 0.2064430340707 0.0697756199444 0.0224143944454 0.0309644614652 0.0035011211936 0.1082933003665 0.0127352340903 0.0608982001691
242 0.0081997650627 0.0078307726004 0.0025550767275 0.0026866639426 0.0626179988574 0.0767289062029 0.2534700257863 0.0409403828334 0.0269176359875 0.0262813717535 0.0079470758466 0.0117426941614 0.4526771917239 0.0023626441706 0.0170417943431
243 0.0026021125097 0.0021248691673 0.0037098611440 0.0020187504566 0.0035639794795 0.0036622961548 0.0038948515100 0.0713171373626 0.0038713369761 0.0102848549005 0.0975036848629 0.0021997867472 0.5066687127988 0.0030034663173 0.2835742996128
244 0.0032125686701 0.0355862735101 0.0092009115648 0.0104499257766 0.1342802372813 0.0087096552833 0.0097587406615 0.0022164264172 0.0595592986551 0.0068138738792 0.0110853393015 0.0028690157777 0.6055382992431 0.0926767553036 0.0080426786749
245 0.0032375892690 0.0055813462750 0.0083498007811 0.0027812433530 0.0091091903892 0.5247780742606 0.0052605535443 0.2235498509519 0.0374336113944 0.0063775192970 0.0076914157766 0.0092462495080 0.1320382351556 0.0149731724819 0.0095921475625
246 0.3046106444636 0.0121197377968 0.0020090850400 0.0360552148309 0.0338753898063 0.0690155350637 0.0090670881370 0.0369264006917 0.0072562796119 0.0353485500112 0.0103948312939 0.0070850342650 0.3338464782881 0.0052160711231 0.0971736595767
247 0.0191942351871 0.0023970426020 0.0181088047808 0.3816634568386 0.0214117823218 0.0692522201184 0.0139031298032 0.0054959299121 0.0615120781993 0.0092047352543 0.1068258033794 0.2364024871170 0.0445773413056 0.0042793313166 0.0057716218638
248 0.1694198104282 0.0120010704299 0.0018068672771 0.3263943269833 0.0147352772770 0.0120924500893 0.1137726179515 0.1079089480890 0.0242495234076 0.0209252543302 0.0992148199197 0.0107169385732 0.0255539167240 0.0479714449382 0.0132367335819
249 0.1685261025278 0.0022506101995 0.0022180420978 0.0068334594364 0.0055732895065 0.0097246625786 0.0136241382738 0.0014798351134 0.0158423148271 0.0125882250869 0.4948677552865 0.1609256787600 0.0163526125280 0.0804768113276 0.0087164624501
250 0.0215513657181 0.0358239183994 0.0158751533881 0.0178122087478 0.0191697200377 0.0331906905177 0.0366721944808 0.3463930928738 0.0119033369562 0.0859185715062 0.2115580898255 0.0206991518006 0.0658117124538 0.0313935450955 0.0462272481987
251 0.0080687711483 0.0133291294489 0.0507281711392 0.0043020290955 0.0029386104784 0.0051921040808 0.2827236768233 0.0077377446396 0.0035626878506 0.0184779600217 0.0502776127649 0.1018506888368 0.0184294349868 0.0042580689992 0.4281233096858
252 0.0035689545124 0.0103980927326 0.0113419047448 0.0024601836992 0.7566784134342 0.0086385091058 0.0403075785410 0.0046372145655 0.0938140385280 0.0045821157379 0.0048675302670 0.0053999346761 0.0374591635121 0.0053841899030 0.0104621760405
253 0.0047771408196 0.0128912276480 0.0574251062084 0.0151300105114 0.0076775683980 0.0290017442865 0.0157750954761 0.0038467017588 0.0017120550970 0.0236052125127 0.0488012355760 0.3602639747700 0.0222029814710 0.0030496902144 0.3938402552521
254 0.0140369804222 0.2245492606202 0.0062519597326 0.0059578272187 0.0043425897271 0.0085545290360 0.0199116607109 0.0047671725678 0.2085091463938 0.0422081422896 0.0073023381160 0.4011827774923 0.0376412268518 0.0069431311604 0.0078412576606
255 0.0381131082093 0.0398347383398 0.0390199281387 0.0179265345472 0.0073306349326 0.0625674481635 0.0316266785966 0.0703110970389 0.0073832565868 0.3377623777250 0.0329693817190 0.0054341522635 0.2355595056841 0.0074937958488 0.0666673622062
256 0.0062937861236 0.0151528534510 0.0887336813350 0.0123720562863 0.0094293802795 0.0391337019778 0.6052589811920 0.0023973399790 0.0017647901610 0.0163128024635 0.0156139707108 0.1525243683940 0.0234301281842 0.0094157077615 0.0021664517008
257 0.1046263833390 0.1713351607044 0.0397911131201 0.1374396360356 0.0038787639893 0.0057276151304 0.3497328931056 0.0785438074859 0.0068705341053 0.0488441781970 0.0082774504376 0.0055362511346 0.0102291039449 0.0084288997305 0.0207382095398
258 0.5614441957303 0.0334540558915 0.0196513202858 0.0058565986695 0.0143014570861 0.0396130396239 0.0745148705029 0.0143308949181 0.0125251470084 0.1063444166179 0.0267166616872 0.0117020874306 0.0329684904016 0.0296048193833 0.0169719447629
259 0.0796518628576 0.0045868024379 0.3155259666447 0.0149452029789 0.0080594743476 0.0228112865594 0.0056298689892 0.2359742200599 0.0041925214260 0.0260321666968 0.0136412695879 0.0089691410740 0.0477051321890 0.0188898910034 0.1933851931477
260 0.0112250115096 0.0018935337375 0.0043382969099 0.4511440444263 0.0093549211780 0.0641452232732 0.1083650896686 0.0020697998716 0.0168321390021 0.0026141208281 0.0648684852816 0.0638907014125 0.0770729157412 0.0067782456238 0.1154074715359
261 0.0053599838975 0.0067191000259 0.0033218938022 0.0032372971068 0.7421928833183 0.0043694593678 0.0102144442301 0.0039367222441 0.1582282182578 0.0110243464276 0.0151938769536 0.0056537622792 0.0092090016658 0.0080689372893 0.0132700731339
262 0.0053622588279 0.0219913999777 0.0023011087474 0.0536466045734 0.0065158301992 0.0077950152095 0.0131098277036 0.2321705714468 0.0034737918926 0.0086940607745 0.0575355879642 0.0214064948691 0.0107928160752 0.0558285209137 0.4993761108254
263 0.0506740573659 0.0413801254473 0.0428780485404 0.0541488498710 0.0635976424660 0.0653520601892 0.1114829262050 0.0485951216791 0.0413801254473 0.0976912239941 0.1230655678887 0.0471445210320 0.1089201003153 0.0476183353137 0.0560712942451
264 0.0017982423693 0.0031438279082 0.0017258299249 0.0029532553396 0.0024083212633 0.0048094347986 0.0082043299506 0.0019559405815 0.0238398736986 0.5790809492497 0.0832105191451 0.0031326488074 0.0059404561428 0.0515901065251 0.2262062642954
265 0.0063600692407 0.0020229015597 0.0076157154832 0.0491997561402 0.1825357227540 0.0090034972866 0.3720819115829 0.1693387301896 0.0093154933892 0.1344236816363 0.0086564835663 0.0227507727134 0.0186780004888 0.0060495211951 0.0019677427740
266 0.0033868265100 0.0021326061837 0.0027017833577 0.0121619257982 0.0147706166802 0.0109914558179 0.1145793933385 0.0194640463581 0.0050604885137 0.0044742594130 0.6873001315355 0.0319555502546 0.0028014985930 0.0019077362315 0.0863116814143
267 0.0543184277113 0.0034310044424 0.0030068432306 0.0025276284067 0.0029686910817 0.0056972131385 0.0073425466610 0.0050650228523 0.0066062270625 0.0049766067934 0.0057446100153 0.0018992096493 0.0099596757800 0.8844364987860 0.0020197943889
268 0.2995782666862 0.0972313959066 0.1703447339004 0.0025547077883 0.1142628969927 0.0045585158770 0.1119635021830 0.0056933219206 0.0144693469362 0.0178406133838 0.0333089891059 0.0075454157165 0.0476750932336 0.0059013620918 0.0670718382773
269 0.0035435316985 0.0021685718901 0.0017689717556 0.1403253773759 0.0228846023756 0.0054027237756 0.0060199679743 0.0033207492956 0.0023003999686 0.0063645101307 0.4465368843207 0.0026208536955 0.0027586161860 0.0062880337278 0.3476962058297
270 0.0108050512221 0.0317217073724 0.0772296809658 0.0053577204621 0.0238890220520 0.0078420046383 0.0257827724366 0.0531826098245 0.0024765083433 0.2508750549797 0.0340131604359 0.0249397435505 0.0641707898343 0.3739033559972 0.0138108178852
271 0.0037858711196 0.0040365250836 0.5210678692169 0.0289542856406 0.0053738488302 0.0061617176002 0.0061466676081 0.0258260758718 0.0705919386691 0.0111230948938 0.2412589472718 0.0165957673077 0.0287475751935 0.0030915192112 0.0272382964819
272 0.0046713126996 0.0042574757426 0.0662542027515 0.0036875766675 0.0051819396282 0.0027017913190 0.0451795262230 0.0032443467079 0.0068595740508 0.8158426346746 0.0210591648409 0.0065536133436 0.0043572578445 0.0019049318215 0.0082446516848
273 0.0752057614567 0.0507167128043 0.0423535023404 0.0266101179546 0.1687123927638 0.1965801700422 0.0081144115738 0.0322804084355 0.0946812587725 0.0239962266663 0.0721866484161 0.0268312356166 0.0086187555882 0.1682309468195 0.0048814507495
274 0.0030652529077 0.0289413272023 0.0032912410852 0.0059983027315 0.2714436093108 0.0714171106726 0.0067435563969 0.0887527443468 0.0075826399669 0.0072096374001 0.2589812160674 0.0064077279610 0.0702186099656 0.1557747359685 0.0141722880167
275 0.0158317382201 0.0098918347315 0.0254840255138 0.0213087424549 0.0174133228398 0.0847741973779 0.0451625283861 0.0041098993714 0.0039791063783 0.0433480913077 0.4001211141229 0.0258349736603 0.0369735633101 0.0542304716045 0.2115363907207
276 0.0086408372298 0.0081838468063 0.0024337719230 0.0048701278687 0.0480731932073 0.0027801170628 0.3945830214553 0.0013762582217 0.0795289462858 0.3417169674861 0.0037769886154 0.0035139147815 0.0903344443953 0.0065398380901 0.0036477265710
277 0.0177880056269 0.0023739515090 0.0016810305513 0.3984251585093 0.4177933954114 0.0219511570056 0.0592151124790 0.0165433310345 0.0095145972088 0.0036821012701 0.0025893585472 0.0027046512217 0.0060838042174 0.0055429553398 0.0341113900680
278 0.0132350520138 0.0101081374766 0.0086619247558 0.0242117623737 0.0418754964489 0.0154115024822 0.0159248943001 0.6772803665513 0.0181526759528 0.0552412074894 0.0300618634044 0.0218768639793 0.0312096734855 0.0140469206807 0.0227016586054
279 0.4162456568442 0.3144774126663 0.0038961787808 0.0184547140945 0.0036262986637 0.0214221695049 0.0908222717862 0.0265572774471 0.0082850776094 0.0098942661982 0.0268829521586 0.0057568181222 0.0459127514276 0.0029631289258 0.0048030257706
280 0.0120816025175 0.0244433912287 0.0121719686873 0.1612095461122 0.0434937226849 0.0036984692024 0.0139105429177 0.1119827616144 0.2547699211216 0.0204048985037 0.0371727693965 0.2525432474454 0.0380986887712 0.0091885138777 0.0048299559187
281 0.0111986984862 0.0594015198005 0.0600013778597 0.0119666092396 0.0068853357837 0.0136084386710 0.0078013647395 0.0127031340895 0.3886667229025 0.3492719860883 0.0133235718413 0.0359891021225 0.0094754024794 0.0037373769311 0.0159693589652
282 0.0067535840129 0.0051157844818 0.1557134454806 0.0205357833973 0.2569273400273 0.4239221959988 0.0093018603449 0.0135858355505 0.0322580480523 0.0072087893323 0.0045307086959 0.0051463000010 0.0096133438087 0.0451592481178 0.0042277326977
283 0.1001509106319 0.0250862171839 0.0637569554138 0.0098426596299 0.0045818309630 0.0032929278130 0.0650099321859 0.0042727498424 0.0314787516890 0.1915229575504 0.0047795426392 0.3414110692189 0.0374110566715 0.0983054001472 0.0190970384202
284 0.0032753688941 0.0151319025579 0.0046697303622 0.0049383076532 0.0044861040723 0.0076959565201 0.2125220863535 0.2859739499115 0.0040180758205 0.1043457009458 0.0141291679691 0.0031863768407 0.1725964517811 0.0043427328608 0.1586880874572
285 0.3031784603490 0.0025115882028 0.0033578500047 0.0097036862203 0.1670228170361 0.0067923710362 0.0098016259645 0.0040390334821 0.0024453193848 0.0031133363978 0.0053015915047 0.0041449662039 0.3458806504268 0.0050254741687 0.1276812296175
286 0.0055808782839 0.0821868586745 0.0079398683031 0.1001377326007 0.3177712357443 0.0673440891759 0.0233502157939 0.0437484535354 0.0163387365450 0.0098965668604 0.0124671037072 0.2730202335971 0.0172843578630 0.0066106045900 0.0163230647255
287 0.0054280487480 0.0061538750825 0.0097953511015 0.0054248365879 0.0257724145972 0.4816168757630 0.0258543758814 0.1753481804203 0.0045759583947 0.0101257294782 0.0178751693168 0.0071745609472 0.0056259242743 0.2079743932447 0.0112543061622
288 0.0383054360815 0.0013567670228 0.0030107674748 0.0055857027429 0.0147489735248 0.5059350687963 0.0145043241633 0.1917017920819 0.0077379087281 0.0304074080234 0.0066145510117 0.0028162647865 0.0141708914239 0.0041991256006 0.1589050185375
289 0.0363899959878 0.0694904954368 0.0022667949380 0.0027256698449 0.0033621589349 0.0041161345864 0.5958243379699 0.1938330205449 0.0027109562160 0.0298753353072 0.0404367876716 0.0020153425251 0.0120949336241 0.0020355972239 0.0028224391885
290 0.3673022714175 0.0044470347027 0.0021937922253 0.0124471242325 0.0065233282898 0.0057433849650 0.4748395043691 0.0033190291945 0.0013067596279 0.0083463227221 0.0041876035151 0.0035661852763 0.0967629713923 0.0062831462597 0.0027315418102
291 0.0034435009722 0.1364198143315 0.0022961776899 0.0021198620408 0.0075692364738 0.4521276280883 0.0045103891347 0.0159003287370 0.0016741619059 0.0387437806881 0.1801302656926 0.0721532270784 0.0059754309055 0.0090342013917 0.0679019948695
292 0.0406482870160 0.0223603327191 0.0018179535138 0.3817987534435 0.0117448427786 0.0235983913439 0.0770543867174 0.0154733466186 0.0036384111691 0.0130373668961 0.0206259209391 0.0054867608320 0.0160855859042 0.1338593427045 0.2327703174041
293 0.0306904723942 0.0028233875170 0.0038292492240 0.0035519554243 0.0073550302006 0.0141000972495 0.0064317832099 0.0063881064242 0.0091460313775 0.0110405768841 0.8743399583667 0.0073151872238 0.0123096087098 0.0037508035676 0.0069277522267
294 0.0041676320526 0.0025001050408 0.0018249100544 0.0018211180335 0.2300986294792 0.0028462494746 0.0048553667508 0.0050090732386 0.0043064206696 0.1967339694778 0.4744356775517 0.0547646345630 0.0038792845914 0.0054752859451 0.0072816430770
295 0.2033557347187 0.0890962193459 0.0056086255958 0.0072720222115 0.0977268622360 0.0168797914793 0.0050425213300 0.1349280063998 0.0049790976664 0.3345419760635 0.0090051344917 0.0154702605549 0.0058776826314 0.0666027440918 0.0036133211833
296 0.0142607706158 0.0023342484628 0.0008481317650 0.0338831909572 0.0093116200057 0.0028657600186 0.2966908513105 0.2332296537612 0.0026807046354 0.1629607951139 0.0196929400529 0.0037942337344 0.1820338971249 0.0291987473479 0.0062144550940
297 0.0426110167315 0.1161999624421 0.0852756379042 0.4184027321292 0.0195077335596 0.0036799653215 0.0070844758064 0.0508517309312 0.0050855079186 0.0080464192841 0.0170840175534 0.0129595832034 0.0170123503936 0.0061968180166 0.1900020488048
298 0.0028794701759 0.0564680334098 0.0050076290380 0.0326091625667 0.0143282070812 0.0024072590211 0.0760498459827 0.0047039879619 0.1867970579986 0.0075038070900 0.4740128818728 0.0063136121613 0.0180077903516 0.0176627039429 0.0952485513456
299 0.0341633502834 0.0086470593241 0.0151976907419 0.0145154143965 0.0185902664263 0.3802695641303 0.0148494238656 0.0077983191229 0.0194950742847 0.0125682731461 0.0406355516343 0.3740545489567 0.0112070207577 0.0137750285189 0.0342334144107
300 0.0572728145673 0.0055508602628 0.0055959211403 0.0052952155331 0.0066816078837 0.0132804630054 0.0121177412102 0.0059887267468 0.1872700797075 0.4662612512361 0.0200874600741 0.0042674918503 0.0055038293314 0.0022330890635 0.2025934483874
301 0.0783988920833 0.0242403585077 0.0159579072106 0.0058582054072 0.0112474371855 0.0037794414049 0.1663534948715 0.0050349083759 0.0031508046094 0.0084819740802 0.0841098282431 0.2789696497051 0.0204262686307 0.0172134686598 0.2767773610252
302 0.0109511962754 0.1536350769250 0.0595551070173 0.0138512879643 0.5977114076930 0.0034886674028 0.0130308173862 0.0042335549238 0.0057400672816 0.0077352873410 0.0180479966952 0.0769885773430 0.0129474087626 0.0127477683459 0.0093357786430
303 0.0081482553998 0.0092264683038 0.2021025104700 0.0031981749012 0.0041156950376 0.0094003441454 0.0289527992396 0.0050674063120 0.0054844279271 0.0190213554341 0.3933031748376 0.0086465451310 0.0513725421701 0.0024087622029 0.2495515384876
304 0.0551854046403 0.0637434688394 0.3850458105480 0.0121981644971 0.0082537269311 0.0110343505168 0.0396305548350 0.0345708070933 0.0087829124436 0.2374126795852 0.0335989029106 0.0310832837493 0.0443926955238 0.0078334181531 0.0272338197335
305 0.0110427234592 0.0062544225521 0.1264672222345 0.0203458554487 0.0146310769984 0.0106710617264 0.0229405658937 0.0046901406558 0.7035346235384 0.0177305745275 0.0171067737471 0.0122767832712 0.0085289155062 0.0190482767604 0.0047309836804
306 0.0138812596645 0.0121704494279 0.0014528392091 0.0021223033526 0.0016144729584 0.0581625355306 0.8535106994154 0.0031950317653 0.0034239003627 0.0056966528261 0.0137120979116 0.0243816369265 0.0029963990736 0.0020180827116 0.0016616388639
307 0.0040911841830 0.0053306756114 0.0093218228467 0.0426071640639 0.0054564902677 0.0080879938438 0.0064612495028 0.3346400561277 0.0032361075912 0.0321171775021 0.0149191727730 0.0151413821204 0.0967306421200 0.4069725138608 0.0148863675853
308 0.0089810938156 0.1897188792940 0.0068739085950 0.1002983325748 0.0058913478085 0.0099239201896 0.0089125031230 0.3642180068112 0.0047084028536 0.0474793878527 0.0077562600187 0.0151357008339 0.1354057634045 0.0394582823514 0.0552382104735
309 0.0073625632910 0.2452469022879 0.0675753655905 0.0123537170649 0.1345428703413 0.0098913500766 0.0121425974277 0.0084352956680 0.0023329771127 0.0201161195073 0.0161397100715 0.4386029837150 0.0094423435310 0.0046091855779 0.0112060187368
310 0.0097117340773 0.0096680637612 0.0078318173328 0.0586119761170 0.0186738537851 0.0089966787659 0.0196939984622 0.0351107186898 0.3165887528685 0.0931443087964 0.0132507742172 0.3400466459426 0.0172812021321 0.0068410059413 0.0445484691106
311 0.0196276604624 0.0052036318524 0.0921292336760 0.0603186494380 0.0498952102852 0.1539668430976 0.1851009152098 0.0118546426691 0.1208220776324 0.0081205025465 0.0111835444055 0.0701464923435 0.0069434289250 0.1981793184690 0.0065078489877
312 0.0128859523905 0.0040388374750 0.0626916153180 0.0130625227852 0.0072453576764 0.0166184351518 0.5014405437404 0.0248890891624 0.0390240851684 0.0139995300556 0.0124133335608 0.0033703013063 0.2748050605231 0.0051140326080 0.0084013030781
313 0.2378783788537 0.0052288724399 0.0096976530574 0.0100270872335 0.0150638508461 0.0437826070120 0.0218361496030 0.0775063332061 0.0055976222594 0.0116480084723 0.0282721923265 0.0045288715388 0.2304051443757 0.0059322766181 0.2925949521574
314 0.0551433818831 0.0096204059438 0.2740908253012 0.0137814500333 0.0265902949329 0.0283518045206 0.3587556048633 0.0073229377772 0.0063658707802 0.0162580471861 0.0379032463834 0.0075492910092 0.0105882373663 0.0065765160712 0.1411020859481
315 0.0170983496926 0.1086415321463 0.0312642647413 0.0332152682916 0.0169293978566 0.0313600939052 0.0713619249174 0.0215885028735 0.0158044141373 0.5513223631673 0.0305682143203 0.0175863032261 0.0134788282400 0.0143715368672 0.0254090056172
316 0.0049722271496 0.0151243203952 0.0273526571235 0.0051765942677 0.0203572129410 0.1549375246346 0.1467612279840 0.0653211880002 0.0767071294578 0.0130354762758 0.3780627343832 0.0080745194063 0.0307435347849 0.0306167948972 0.0227568582991
317 0.0078882931376 0.0070682272066 0.0022681952631 0.1521767255356 0.0068041499632 0.0068504583232 0.5823621487912 0.0075121019124 0.0047852659176 0.0018916690155 0.0919789232497 0.0029528838189 0.0226109898902 0.0889050449819 0.0139449229934
318 0.0177582205864 0.0034692690624 0.0123187656320 0.2615410818843 0.0113555213608 0.0616450720673 0.1618646696850 0.0032218310114 0.0076788424016 0.0116172551689 0.0629854347495 0.2983265912501 0.0461936854651 0.0069990083430 0.0330247513322
319 0.0043684930318 0.0023462092544 0.0021600090616 0.0093475069969 0.0082976349898 0.0027411640029 0.0051460634296 0.0024480102698 0.0095854422700 0.0298364121034 0.5439223948752 0.0039648502060 0.0210982388499 0.0035028560988 0.3512347145600
320 0.0047236753136 0.0086020969720 0.0023581130136 0.0126362080668 0.2468444056481 0.0042879291595 0.0054209285262 0.2291667033771 0.0024514658378 0.0045428615908 0.0080746717939 0.2992074840040 0.1579410368405 0.0123255910391 0.0014168288169
321 0.0215003312529 0.0167104066743 0.0040464526617 0.1271152607825 0.0071403355848 0.1168119865672 0.1202904006168 0.0024731977154 0.0018943399586 0.3944784309171 0.0229444248013 0.0066193700198 0.1470526248601 0.0077819449338 0.0031404926537
322 0.0059193033034 0.0017055619688 0.0138065627245 0.1580714832652 0.0070855225414 0.0457443482519 0.0300780869551 0.0168719437833 0.0139200668979 0.0057848442033 0.0137109462164 0.2749179215226 0.0346797600316 0.3514743255131 0.0262293228214
323 0.0011018487786 0.0004685040335 0.0015620142146 0.0017930402665 0.0028892375754 0.0013900462625 0.7777559240131 0.0016091387007 0.0038401648603 0.0406278864854 0.0059406555844 0.0002881008692 0.1527760942345 0.0072162584537 0.0007410856677
324 0.0250970428987 0.0366384882862 0.0036045167657 0.0021202089125 0.2650745660744 0.0057689283413 0.0148477206472 0.0417991558561 0.0041754752065 0.0082123526311 0.0153540707334 0.3136069097669 0.2589291922966 0.0027332712472 0.0020381003364
325 0.0094486147091 0.0045664234531 0.0014158328315 0.0994297817363 0.1814972218147 0.0522955760685 0.1971818278838 0.1536548808985 0.0034489449663 0.0070631028953 0.2638938640088 0.0144039236865 0.0026606380420 0.0025075880317 0.0065317789737
326 0.0161660321129 0.0190732499342 0.0134449220158 0.0089993216918 0.0081398632135 0.0156765829709 0.7891595854118 0.0166963542736 0.0103779258079 0.0095709103193 0.0359019065853 0.0155546690762 0.0127517142483 0.0083038274145 0.0201831349241
327 0.0061935374571 0.0257710276981 0.0087537254348 0.0086237635832 0.1633778008650 0.0167158635808 0.0064938301823 0.0027215632349 0.0019923897788 0.0167644089476 0.4093787700075 0.0324828458535 0.2868982027038 0.0010635367351 0.0127687339375
328 0.0076683190027 0.0018803963526 0.1922548522684 0.0526288773787 0.0016741453681 0.0131571506963 0.0103123613565 0.0048524555517 0.0012109995928 0.0094676039760 0.5937842466600 0.0053315892720 0.0134390667570 0.0850073030742 0.0073306326931
329 0.0040351954009 0.0079030616059 0.1777377858152 0.0023777993495 0.0080040081182 0.0075382634054 0.0210575447597 0.0067284924544 0.0021648650604 0.6791705947858 0.0705634452449 0.0016740083259 0.0061560195994 0.0021910788408 0.0026978372337
330 0.4325949766733 0.1416398351077 0.0354667991303 0.0136169788286 0.0034967769738 0.2838434150128 0.0034395182987 0.0044308248188 0.0081949831582 0.0131168406465 0.0154632337935 0.0009669731674 0.0067396712826 0.0305236609578 0.0064655121501
331 0.0111142482688 0.0031607061112 0.0026560053467 0.0025723009357 0.0085308709457 0.6871327286856 0.0027203933551 0.0165522583399 0.0066261305810 0.0143736271853 0.1584854382832 0.0520001239762 0.0262482896903 0.0037059505088 0.0041209277864
332 0.0076538666447 0.0013438783096 0.0045607051705 0.0738688564514 0.0030489588111 0.0198652233938 0.0084096750915 0.0050852967830 0.0088098689187 0.2647073751036 0.0065343347123 0.5600936629260 0.0132696847430 0.0117744692577 0.0109741436830
333 0.0072384809438 0.0098646780726 0.0157525881924 0.1557055698377 0.0090845364865 0.0873881911255 0.0766407457256 0.0083344643033 0.1211635509161 0.0195551045544 0.3956194699505 0.0134911390532 0.0103550375336 0.0063470070466 0.0634594362580
334 0.0026458233566 0.0089637205883 0.0421338742621 0.0017511348535 0.0112486662958 0.0108505591529 0.1069297150191 0.0042931776275 0.1671558203788 0.0598142200795 0.0466687666010 0.3675185695516 0.1290693099094 0.0071319134463 0.0338247288774
335 0.1185735756407 0.0099077031839 0.0015100205999 0.0069845919882 0.0158899070152 0.0213669917570 0.0304094917740 0.0092048711364 0.0080968958135 0.0087332119233 0.0094628963270 0.0100107488912 0.3692581143983 0.0029669248974 0.3776240546542
336 0.0053908848923 0.0637075956455 0.0021078897294 0.0057605455707 0.0054423690329 0.0032127146910 0.0773941269215 0.0036529320072 0.0028953105641 0.2322230369478 0.5732696745129 0.0040343929647 0.0127205370041 0.0038272229329 0.0043607665830
337 0.0822541955274 0.0042043034141 0.0043564953929 0.0086604627073 0.0058433080525 0.0120407753707 0.0097010189274 0.0047011240555 0.0072217460557 0.4881602114948 0.0184863427504 0.0059359051582 0.0131844901817 0.0643307651650 0.2709188557463
338 0.0088002566342 0.1732803194361 0.0826679813363 0.0061335432196 0.0062670475247 0.0668925032126 0.0034320254457 0.1300527537082 0.0034681663709 0.0043025169783 0.0063264173768 0.0012430257125 0.4416663598932 0.0051833973304 0.0602836858205
339 0.0091119875415 0.0076227198070 0.4567458731580 0.0083084267261 0.1431298700398 0.0057176358213 0.0249476861834 0.1072294306697 0.0036203370921 0.0248678503537 0.1303399321650 0.0020519678546 0.0396978232485 0.0309632481518 0.0056452111875
340 0.0034088278171 0.2108333298179 0.0065772139596 0.2741259018967 0.0079790525574 0.0039398581951 0.0355249398603 0.0051919069830 0.0205063803363 0.2446521305820 0.0323408958449 0.0143645629906 0.0958090355175 0.0036466295803 0.0410993340611
341 0.0033278686265 0.0019158896900 0.0365401032376 0.0074373165800 0.0014661174902 0.0050514141355 0.0051616322236 0.0337867897073 0.0098520017950 0.7787456486016 0.0421740384344 0.0030047470833 0.0052539771083 0.0621656475303 0.0041168077563
342 0.0048346713076 0.1118848833887 0.0018069713779 0.0080504365401 0.2529592671219 0.0139137027735 0.0125574434718 0.0020479008950 0.0023272885530 0.5096249998469 0.0206100121212 0.0027992031598 0.0503207131211 0.0022305367298 0.0040319695917
343 0.0061589275472 0.0080621119785 0.0033782443717 0.5390344676861 0.0147213136843 0.0087411734479 0.0230820510789 0.0397410731948 0.0110948813748 0.0709420518897 0.0390094886927 0.0109128146217 0.0165643241137 0.0246915435008 0.1838655328171
344 0.1821297843617 0.2138489661082 0.0034634968215 0.2338375592887 0.0052932767257 0.0065624570631 0.0084576697458 0.0039252963977 0.0979281763655 0.0414700375069 0.0087320916785 0.0123735072446 0.0933024152130 0.0819434326344 0.0067318328447
345 0.0100965417409 0.0211461325153 0.6080313276068 0.1281739575499 0.0362175598395 0.0088823349169 0.0178676697116 0.0094455929899 0.0054226021417 0.0056632556993 0.0502993275760 0.0059483244673 0.0811295704178 0.0062400798515 0.0054357229757
346 0.0179939940833 0.0049237240624 0.1186681448053 0.0361899108012 0.0176769361089 0.1834637425480 0.0117014268305 0.0097582054711 0.0045367909337 0.2578072609593 0.0851266702126 0.0079239958420 0.0269642356230 0.0400626964313 0.1772022652874
347 0.0108888920142 0.0068063052261 0.0913313184700 0.0116355588951 0.0151228465055 0.0242232813849 0.5786621893014 0.0079930456245 0.0047208078030 0.1713823473205 0.0371575562700 0.0071064432994 0.0089327716685 0.0148138912656 0.0092227449513
348 0.0052590276955 0.0042117443954 0.3559014060661 0.0622492275407 0.0916787036609 0.0150152211512 0.0441170612342 0.0075697677139 0.0047082172122 0.1154308682445 0.0115414885263 0.0172423856583 0.0444096836775 0.0434106433740 0.1772545538493
349 0.0850586685918 0.0241238404451 0.0189242080637 0.0156654627522 0.0262143176138 0.0047504686457 0.4139873687942 0.0202328570907 0.0136089832307 0.2408919668281 0.0668747829056 0.0047034711798 0.0185799131846 0.0063376290099 0.0400460616639
350 0.2506850318945 0.1996489774230 0.0041848746560 0.0042919115932 0.0069846027679 0.0997229330077 0.0033845938241 0.0502901367326 0.0031955303198 0.3391654330820 0.0175277296311 0.0029682579315 0.0101866796302 0.0018337830017 0.0059295245046
351 0.4857269834307 0.2567201272486 0.0307932247589 0.0112292334270 0.0095071231090 0.0079890899729 0.0409612673014 0.0107394230683 0.0029449753881 0.0681618061736 0.0095965608852 0.0092950851407 0.0311181359667 0.0093885030819 0.0158284610471
352 0.0080204029794 0.0061635851157 0.0032883016180 0.0059197424995 0.4106254319689 0.0153706129233 0.1956529467901 0.0257020584221 0.0095395707033 0.0054424467510 0.1270524303659 0.0039451762778 0.0177470406895 0.0650336970386 0.1004965558569
353 0.0085108041159 0.0053205050927 0.0053832297103 0.0040100654941 0.1513977081416 0.4234915898031 0.1441679566829 0.0166986183848 0.0192954477981 0.0060510707259 0.0227192314433 0.0106311267399 0.0060867822975 0.1695359229458 0.0066999406239
354 0.0228120254167 0.0963717029304 0.0444114040789 0.0468368062845 0.0821653631134 0.0557298996036 0.0488263893607 0.0449972789030 0.2866919334425 0.0797321491829 0.0523978888104 0.0482552967372 0.0423887409956 0.0272457554046 0.0211373657358
355 0.0040068801397 0.0022740000664 0.0044984230025 0.0054943018890 0.0052478875109 0.0069687986900 0.2563687463351 0.0334774264895 0.0208794551548 0.0036855953634 0.5891385830857 0.0354018602949 0.0245615441175 0.0032730684782 0.0047234293823
356 0.0083309889899 0.0023880859192 0.0365773328718 0.0343747910311 0.0468500408932 0.1603375141310 0.0129216342505 0.3999080138539 0.0399151503637 0.0099017742509 0.0333625741135 0.0148384011621 0.0575237375267 0.0103688772559 0.1324010833865
357 0.0506740573659 0.0413801254473 0.0428780485404 0.0541488498710 0.0635976424660 0.0653520601892 0.1114829262050 0.0485951216791 0.0413801254473 0.0976912239941 0.1230655678887 0.0471445210320 0.1089201003153 0.0476183353137 0.0560712942451
358 0.0038348706341 0.0010561425752 0.0010943739807 0.0014423890027 0.0026155477199 0.0052370104247 0.3963516706720 0.0181927328727 0.0013789809170 0.0260115939404 0.4365709354137 0.0029897767428 0.0355568000326 0.0021175923996 0.0655495826718
359 0.0773368538458 0.0028234496047 0.1054398953407 0.0039296416343 0.0029596196436 0.0046008870534 0.0203047033006 0.0057933258772 0.0254918446823 0.0665401271133 0.3536223578267 0.0040350212216 0.2334589812205 0.0013378627598 0.0923254288757
360 0.1824846983776 0.2037032550029 0.0035627763001 0.0016167320261 0.1357012744397 0.0048251304655 0.0342919699927 0.0051625521764 0.1707567508321 0.0671312668793 0.0127891592621 0.0553111405010 0.0735870210489 0.0012013230259 0.0478749496697
361 0.0108051414570 0.0074366285731 0.0102205501556 0.0471596661204 0.0223526991814 0.0536315952222 0.0247053509385 0.0584050255112 0.1580760278739 0.2561459528684 0.0298498477018 0.1135404293876 0.0195745740602 0.0225213876833 0.1655751232654
362 0.0132615056849 0.0051823813978 0.2683007566968 0.0033252074305 0.0369407500801 0.0061708057803 0.5405407562740 0.0087599550588 0.0088255317654 0.0201904707909 0.0308521608285 0.0055930061321 0.0359364330408 0.0063828818267 0.0097373972124
363 0.0046257497782 0.3668579306832 0.2195102016445 0.0035924128879 0.0082376358167 0.0021624021920 0.0353865645147 0.0069408067267 0.0068047505288 0.0059938522139 0.0345613201618 0.0048522815257 0.0112104435249 0.2668973067910 0.0223663410101
364 0.3615331887310 0.0095347100190 0.0228534086615 0.0754912385578 0.0026778232001 0.0080061855934 0.0308770508291 0.0218905232152 0.1110106412586 0.0099009956802 0.0135142430261 0.0174465212574 0.2527917379794 0.0596362539508 0.0028354780405
365 0.0039324406547 0.0045668616667 0.0531075032930 0.0161763977558 0.0270727763039 0.0082829915951 0.0191517122968 0.6934165377063 0.0154120990198 0.0283841069840 0.0191256244885 0.0348381751714 0.0111287366880 0.0052553332747 0.0601487031014
366 0.3581908639226 0.0032316306237 0.0060025249128 0.0054117060758 0.0108712436389 0.2002120503879 0.0141859411919 0.0015835009371 0.0869979069297 0.0051395608657 0.0609141779270 0.0818665891395 0.1492856108870 0.0080530898140 0.0080536027464
367 0.0057366816032 0.0053416889029 0.0032004086206 0.0033045782386 0.0134039022764 0.0081396578458 0.2364547492552 0.0161952997939 0.0391379631569 0.5471842303778 0.0061144190119 0.0029840765041 0.0681764298617 0.0293736515362 0.0152522630148
368 0.0247801694791 0.1789193443233 0.0251109091482 0.0043246658235 0.4365802299795 0.0273205780771 0.0062107260214 0.0065223196693 0.0011807589677 0.0119319580605 0.0453164630668 0.1816362492928 0.0425743208388 0.0038749902993 0.0037163169527
369 0.0029580005157 0.0017626513164 0.0021163716194 0.2716487360342 0.0071524423344 0.0104428327088 0.0356536139384 0.0244126848624 0.0067987979347 0.6014965652492 0.0110668050184 0.0024332095523 0.0105312064694 0.0082530286212 0.0032730538251
370 0.0079284970339 0.0023636560437 0.0011385997901 0.0041274651958 0.0048476940220 0.0022347739566 0.0025344084536 0.0587555718049 0.0115336928689 0.0078197138590 0.0107912196679 0.0047643996871 0.0143366783622 0.3225685188646 0.5442551103897
371 0.0136467696788 0.0047393464542 0.0109784357818 0.0102724354112 0.0227518349734 0.0369621068388 0.3302518262280 0.0087890689684 0.1255103371802 0.0077327767586 0.0238906502729 0.0060249848766 0.2436686193606 0.0077701153398 0.1470106918766
372 0.0034221220170 0.0232012161888 0.0085864982402 0.0384631443437 0.0018122895471 0.0039031426362 0.0957257861636 0.0023332511787 0.0537305491640 0.2816749087662 0.2901437627452 0.0019568807665 0.0226620373105 0.0107130135931 0.1616713973392
373 0.0566259112931 0.0138738396441 0.0022617379708 0.1266020489106 0.4220230993101 0.1601629443754 0.0030876602272 0.0061478692811 0.0076539364413 0.0112714074449 0.1414594919006 0.0363438273423 0.0039262311501 0.0022466839081 0.0063133108002
374 0.2469294683286 0.0042706805685 0.1426843416272 0.0142978265295 0.0275089344618 0.2426225788388 0.2552817370361 0.0030612943695 0.0015767447739 0.0147587329685 0.0110516194910 0.0042337049791 0.0222947321315 0.0066468864245 0.0027807174715
375 0.0102360407469 0.3857952952977 0.0048254524718 0.0625758714588 0.0670092807691 0.0061853935971 0.0209235915286 0.0052949559555 0.0686241645803 0.0445530840224 0.0704373787093 0.0400576790707 0.0241452509980 0.0070628685710 0.1822736922230
376 0.0117221599844 0.0160666871330 0.0160631096314 0.0306313427267 0.0407501185512 0.0735363730906 0.0197029107938 0.0739137113860 0.0098546112643 0.4092375272013 0.0746552902841 0.0218435524398 0.0437769595213 0.0327859402075 0.1254597057847
377 0.6733113012307 0.0760654339636 0.0021549235900 0.0150635910957 0.0043844181492 0.1322184983936 0.0076856271086 0.0074356880157 0.0015384715275 0.0237087843210 0.0130825803368 0.0069494880886 0.0227710314437 0.0063076128298 0.0073225499055
378 0.3788697337678 0.1397390401700 0.0100746841623 0.0137554024714 0.0135955588907 0.0105091100818 0.0075346646025 0.0043139149557 0.0037610921785 0.0171583279325 0.0132714759609 0.0015881562735 0.0842067252708 0.1732144390865 0.1284076741951
379 0.0076389818696 0.0120797682184 0.0079978070899 0.0019844133127 0.0045445317361 0.0276718320784 0.0317897283986 0.0107087969616 0.0405286426909 0.0121762106742 0.7075511583162 0.0087480224306 0.0894063266017 0.0018832206263 0.0352905589949
380 0.0060717739686 0.0056961966222 0.0478935109366 0.0042054282597 0.0084452089130 0.1927318919858 0.4592841007996 0.0036953110050 0.0923803666569 0.0232682020075 0.1117204062739 0.0037378818156 0.0095188016366 0.0276325768171 0.0037183423020
381 0.3147290680214 0.0283647994351 0.0103245783079 0.0327626716803 0.0177204946369 0.0271748832397 0.1212458435706 0.0172184486698 0.0583152087764 0.0586457712082 0.0663101198448 0.0046611925389 0.0921802542963 0.0328661648617 0.1174805009119
382 0.0071934077348 0.0178411036794 0.0034649718103 0.0026755696436 0.1166489149075 0.0036611271850 0.0257740050364 0.2612276968360 0.0341162385039 0.1898373996442 0.0439081397125 0.2295118233746 0.0347213094393 0.0189568792543 0.0104614132382
383 0.0291660750173 0.0528063079095 0.0170220217514 0.1486895056315 0.0304891088378 0.1013518106472 0.0350688987916 0.0346448207411 0.0658799901691 0.1152728422668 0.1469043389806 0.0374962709168 0.0656826762240 0.0287155418668 0.0908097902484
384 0.0195181992596 0.0197674973710 0.0042817702080 0.0269110556507 0.0095384805526 0.0617073148150 0.0197292068192 0.0627474963318 0.0103544033848 0.0236916210181 0.0113402607739 0.0652368926424 0.1922946743828 0.0102630063390 0.4626181204511
385 0.1330993161216 0.1005775130941 0.0549844490284 0.0014123165495 0.0044070042047 0.0137067612076 0.3929538526342 0.0023174333915 0.0045278720416 0.0320986908096 0.0070084024580 0.2352229033156 0.0073795292742 0.0042550912664 0.0060488646028
386 0.0259955136025 0.0184857610161 0.1477226217624 0.0863840950647 0.0642320424564 0.0187293907551 0.0110194114711 0.0227822898958 0.0347093584468 0.0474178038394 0.0128438544064 0.0101269307177 0.0203894138278 0.0231132008664 0.4560483118714
387 0.3562948614457 0.0055823513415 0.0163480356353 0.1083256158694 0.1511093968610 0.0251763450159 0.0061797108128 0.0367755550283 0.1848917515759 0.0106557368023 0.0053547138100 0.0038309821218 0.0101493087609 0.0757718850795 0.0035537498397
388 0.0076397241106 0.0466056531987 0.0075910716024 0.0030057665866 0.0091703275491 0.0072767640379 0.0091177360954 0.0034955546785 0.0082772944876 0.4257680379753 0.0084481605244 0.0120627963707 0.0089081329668 0.0056149768310 0.4370180029852
389 0.0352376048530 0.0092982535888 0.0612100238647 0.0053710373086 0.0170622500693 0.5232424119187 0.0038673911769 0.0852126650461 0.0044651815140 0.0061137357801 0.0446013203567 0.1418415677236 0.0128924208268 0.0371802184771 0.0124039174956
390 0.0029424385223 0.0049461070503 0.2349594218261 0.0380019740536 0.2614729389473 0.0345542502351 0.2709977682819 0.0903029990163 0.0016665502781 0.0159431446946 0.0141126985711 0.0070076759291 0.0112573498013 0.0073091637502 0.0045255190425
391 0.0166300785068 0.0030396383548 0.0082260625473 0.0012093020662 0.0031885926153 0.0074968019653 0.0093890178134 0.0050951080256 0.0032623224834 0.0045474624336 0.0015342550858 0.0006723177284 0.9265887015993 0.0063593849950 0.0027609537798
