10959 15
0 0.0076554165592 0.0076554165592 0.0037295619135 0.0019393721950 0.0069263292679 0.0037295619135 0.0076554165592 0.0010315809548 0.0063240397663 0.0096968609750 0.0096968609750 0.0044076640795 0.0035476320640 0.0299425035275 0.8960617826904
1 0.0090060196918 0.0390260853312 0.0043875480550 0.0098866082839 0.1258460211963 0.0043875480550 0.0290193967848 0.0012135771216 0.0074397553976 0.0114076249430 0.2649104014536 0.0397538444983 0.0319969967913 0.0013264680166 0.4203921043801
2 0.0084582022836 0.0084582022836 0.2925670482204 0.0021427445785 0.1181910700054 0.0041206626510 0.0084582022836 0.0024061552596 0.0069872105821 0.0226178594399 0.0702344056291 0.4323365955137 0.0039196547168 0.0012457817317 0.0178562048210
3 0.0044072435314 0.0925521141592 0.0021471186435 0.0110409612023 0.2122239332233 0.2550299811000 0.0239949925598 0.0302880778859 0.0805013903005 0.0055825084731 0.0986243163580 0.0138152987466 0.0451593165100 0.0222867586329 0.1023459886734
4 0.0370636927951 0.0242831090727 0.0118302326251 0.0029139730887 0.2069845963814 0.0305095472964 0.0242831090727 0.0256608741264 0.0306178331786 0.0145698654436 0.0145698654436 0.0066226661107 0.1356300482352 0.0054589935125 0.4290015936172
5 0.1438203700548 0.0234685959504 0.0583397510114 0.0593013308271 0.0049000365171 0.0026384812015 0.0054158298347 0.0007297926728 0.0790397194716 0.0068600511240 0.0830828413901 0.0585529616135 0.0025097748014 0.0025703033927 0.4687701601369
6 0.0193130843827 0.0622310496776 0.0094089385454 0.0048926480436 0.0174737430129 0.0407720670301 0.3841157893891 0.0228439240807 0.0336812727640 0.0244632402181 0.0788259962583 0.0481851701265 0.0089499659334 0.1134664501071 0.1313766604304
7 0.0038431962459 0.0119341357110 0.0255227648126 0.0491416693311 0.2487096999144 0.0117266757247 0.1231845533560 0.0397675412964 0.0015038594006 0.0023059177476 0.1714065525679 0.0033773542767 0.0036557232583 0.0011618965395 0.3027584598173
8 0.0135169882217 0.0135169882217 0.2626762867822 0.0034243036828 0.0258181626881 0.0139020876013 0.0135169882217 0.0018214381292 0.1228282842759 0.0551693371125 0.0171215184142 0.2412577594730 0.0897835721721 0.0019908742342 0.1236554107693
9 0.0218315685201 0.0218315685201 0.4124362702476 0.0116758462752 0.1953290072356 0.0106358923560 0.0460888668758 0.0029418425665 0.0180347739949 0.0583792313760 0.0276533201255 0.0125696909661 0.1112877517245 0.0032155023402 0.0460888668758
10 0.0615059923498 0.1251328809875 0.1746204610390 0.0746838279521 0.0172701554874 0.0092993144932 0.0402970294705 0.0025721508173 0.1384115360075 0.1585016492508 0.1316369629371 0.0109900989465 0.0088456893960 0.0059352213949 0.0402970294705
11 0.0050276084191 0.2284768714910 0.0323858194747 0.0012736607995 0.0096029980915 0.0024493476914 0.0106138399959 0.0021829883680 0.0087679547792 0.0063683039975 0.2115692105853 0.0028946836352 0.0282172819404 0.0032088353476 0.4469605953836
12 0.0472221169719 0.0086734500561 0.1497714552416 0.0021972740142 0.0252860898460 0.0793460060685 0.0183106167850 0.0011687627735 0.3096882577989 0.0109863700710 0.0109863700710 0.0049938045777 0.2630476411313 0.0296660380471 0.0386557465462
13 0.0026919926475 0.0026919926475 0.1339170473471 0.1469269646345 0.0051418483903 0.0989441514131 0.0026919926475 0.0015719200566 0.0022238200132 0.3974378182093 0.0905506563890 0.0704359423033 0.0012475087879 0.0188995969597 0.0246267475535
14 0.0311958076322 0.0658578161125 0.2516106307888 0.0342460643785 0.0595856431494 0.0320845770804 0.0311958076322 0.0042036903902 0.0257704497832 0.0834199004092 0.0834199004092 0.0179612225761 0.0626452397168 0.0045947313567 0.2122085185847
15 0.5006260159680 0.0188520257059 0.1112323226123 0.0047758465122 0.0170565946863 0.0091843202157 0.0188520257059 0.0025403438894 0.0328772042504 0.0238792325608 0.1300091550533 0.0108541966186 0.0766853403376 0.0027766549489 0.0397987209347
16 0.0282946834366 0.0134027447857 0.4055571292573 0.0033953620124 0.0121262929014 0.0137845893665 0.0134027447857 0.0038127587610 0.0233738689259 0.0169768100619 0.4131023781737 0.0162908783423 0.0062110280714 0.0019740476816 0.0282946834366
17 0.0177637284787 0.0177637284787 0.0086541241306 0.0045001445479 0.0696450941942 0.0278855110876 0.0177637284787 0.0050533538068 0.0472841274964 0.2475079501363 0.0725023288278 0.0102276012453 0.3009243000548 0.0316870643233 0.1208372147130
18 0.0076219588137 0.2278118800988 0.1192369682225 0.0040763364915 0.0068960579743 0.0037132619862 0.0245596450664 0.0021682640912 0.0062964007592 0.0096544811640 0.0311088837508 0.0141404017049 0.0427779856455 0.0011226140888 0.4988148601420
19 0.0042244427995 0.4736069760765 0.0043447972952 0.0010701921759 0.1736938888617 0.0020580618767 0.0652441721255 0.0246043000245 0.1275700093702 0.0053509608794 0.0053509608794 0.0483748483538 0.0367606662037 0.0089182681323 0.0188274549459
20 0.2176211842513 0.4814044378893 0.0203473834537 0.0050118818191 0.0576764177597 0.0096382342675 0.0637476196292 0.0026658945846 0.0163430928884 0.0250594090956 0.0250594090956 0.0113906404980 0.0193548281633 0.0029138847786 0.0417656818260
21 0.0080499632036 0.0080499632036 0.1259326152447 0.0156348174221 0.0558386336503 0.0082793068846 0.0080499632036 0.0010847468147 0.0140388247174 0.1008332427946 0.0555149314262 0.0252340597392 0.0037304707529 0.0051378318121 0.5645906291306
22 0.0194667592492 0.0194667592492 0.0029432500722 0.0015304900375 0.1026400064845 0.1272138086743 0.0060414080428 0.0017186353849 0.0049907283832 0.0161551726183 0.0076524501876 0.0034783864489 0.0650147190736 0.0137427723007 0.6079446537931
23 0.1283697337193 0.0125474175816 0.0374607647850 0.0007335413355 0.0113524254310 0.0202194086078 0.0028955579034 0.0012572516980 0.0954135287893 0.1748273516367 0.0036677066777 0.1832000961737 0.0013418439065 0.0013742053444 0.3253391664102
24 0.0116871529210 0.0246728783887 0.3283390739420 0.0424373508286 0.0105740907380 0.0246728783887 0.0116871529210 0.0015748645780 0.0096546045869 0.0148037270332 0.0312523126257 0.0067289668333 0.0054159976951 0.0131971209986 0.4633018275213
25 0.1146289282689 0.0172607266505 0.0450640010054 0.0088575557957 0.2758976466203 0.2175577847582 0.0438156907283 0.0339344818729 0.0617883982997 0.0050454431748 0.0050454431748 0.0022933832613 0.0018458938444 0.0090609380012 0.1579036845437
26 0.0076942906944 0.0441409308255 0.0037485005947 0.0091305582906 0.0032975531547 0.0136129758439 0.4450539722684 0.0217732055819 0.0933350914663 0.0302642100645 0.2457043495065 0.0044300461574 0.0636186474485 0.0065013774084 0.0076942906944
27 0.1640754413142 0.2526508723579 0.0018493771317 0.0672104746923 0.0034345575303 0.0285626023671 0.2948296490454 0.0323400535297 0.0031359003537 0.0101510255894 0.0689201211073 0.0386127528403 0.0213054259804 0.0049077785898 0.0080139675706
28 0.1756104898189 0.2621181202716 0.0139077652035 0.0006574579914 0.0023480642551 0.1010069008217 0.0141295796406 0.0050125343319 0.0736067099112 0.0069398343541 0.0215500119417 0.0014942227078 0.0038752605187 0.0322358278749 0.2855072203569
29 0.0252333720910 0.0916369828570 0.0187632766831 0.0063924542631 0.0108143023247 0.0187632766831 0.0517948163974 0.0230858510620 0.0208449595535 0.0487845193760 0.2674737441651 0.3433267899661 0.0363114378871 0.0115408445998 0.0252333720910
30 0.0139757500336 0.0043373017346 0.0631565503287 0.0438292372318 0.0867689833778 0.0608087231790 0.0043373017346 0.0012338580979 0.0234884794418 0.3778593014834 0.2374592379274 0.0607660354126 0.0020099690965 0.0006388273873 0.0193304435331
31 0.0174342112096 0.1557055414924 0.1549347982913 0.0013706897089 0.0048953203889 0.0758565458553 0.0174342112096 0.0088300932783 0.0044696403551 0.0068534485445 0.3342959901129 0.0031152038838 0.0080792686093 0.0556953376546 0.1510296994056
32 0.0201927549176 0.2858868985704 0.0046598665194 0.0051154979125 0.0086540378218 0.0150151254516 0.0095649891715 0.0055852300836 0.5171101150641 0.0390393261741 0.0255774895623 0.0055071149775 0.0093576181326 0.0061047863704 0.0426291492705
33 0.1752366201192 0.0083446009581 0.1531269936492 0.0068116668561 0.0327161339149 0.0808546662631 0.0083446009581 0.0523493839457 0.0222119571396 0.1984778790839 0.0458025874809 0.1916448590401 0.0038670102001 0.0025946605907 0.0176163798003
34 0.0265659330947 0.0560836365332 0.0560836365332 0.0142078545884 0.0240358442285 0.5450179037458 0.0265659330947 0.0035798065872 0.0219457708173 0.0336501819199 0.0336501819199 0.0152955372363 0.0123110421658 0.0126079492982 0.1183987882368
35 0.0130933383121 0.0130933383121 0.0134663678936 0.0033169790391 0.0250089689453 0.0063788058444 0.0421896456723 0.0017643505527 0.1910868359462 0.0165848951953 0.2929998151175 0.0075385887252 0.0060676445837 0.0019284761855 0.3654819496749
36 0.0205262604703 0.0063702187666 0.0031034399120 0.0016137887542 0.0185713785207 0.0031034399120 0.0063702187666 0.0142112603060 0.0169564760407 0.0080689437711 0.0080689437711 0.0036677017141 0.0062321110427 0.0030232476662 0.8801125705858
37 0.0162739188052 0.3305289026300 0.0024605129228 0.1363342871493 0.1873504839792 0.0297995453984 0.0106622226655 0.0279032635714 0.0644369108914 0.0063973335993 0.0277217789303 0.0481415508229 0.0413486196052 0.0007438759999 0.0698967930293
38 0.0140444551122 0.4509830586029 0.0220469936377 0.0035579286284 0.0833007099512 0.0144445820385 0.1076741558602 0.0018925152279 0.0244929869348 0.0573221834579 0.1363872640896 0.0080862014282 0.0065084060276 0.0066653701695 0.0625931888334
39 0.0318852161191 0.0073581267967 0.2664648139973 0.0060064116518 0.0214514701851 0.0115507916381 0.0564123054415 0.0009915206322 0.2222012106583 0.0196761761008 0.0403879404175 0.1360386338073 0.1284381970126 0.0010837551096 0.0500534304320
40 0.0277863716845 0.0349110823728 0.0065949245089 0.0142589209909 0.1605095536498 0.0065949245089 0.0420357930611 0.0027841954534 0.0582677426293 0.3691075117263 0.0712946049545 0.0201003201540 0.0491952584357 0.0177344542792 0.1188243415908
41 0.1257139780918 0.0203670690763 0.0030793711866 0.0923400773157 0.0184273482119 0.0065008947273 0.0133439418086 0.0008517409665 0.0342301115961 0.3193650072866 0.0080063650852 0.1653840060524 0.1591509157176 0.0050686290591 0.0281705438182
42 0.1100952619255 0.3119814390505 0.1533023548760 0.0640329117527 0.0021919070659 0.0051144498205 0.1881579170805 0.0075809929963 0.0242380448015 0.0576228013110 0.0542131680973 0.0013948499510 0.0011226841069 0.0138367673438 0.0051144498205
43 0.2464196100058 0.0793554676290 0.0183128002221 0.0095226561155 0.0340094861267 0.0793554676290 0.0793554676290 0.0163213373138 0.1000568939670 0.1005169256634 0.1005169256634 0.0216424002624 0.0174194928942 0.0178396012499 0.0793554676290
44 0.0443901247417 0.4882913721583 0.0493515456530 0.1756027806447 0.0195663431401 0.0105357232293 0.0557722080088 0.0013803803111 0.0178649219975 0.0129755749245 0.0129755749245 0.0714311952914 0.0100217855108 0.0082145112571 0.0216259582075
45 0.0493136225162 0.0493136225162 0.0240245853284 0.0124927843708 0.0446170870384 0.0240245853284 0.0493136225162 0.2576821362527 0.0860010518277 0.0624639218538 0.0624639218538 0.0283926917517 0.0228526543368 0.0072632467272 0.2197804657819
46 0.0068888861909 0.0032631566167 0.0899087966963 0.0026637026605 0.0095132237874 0.0015897429671 0.0068888861909 0.0004397161398 0.4489756695703 0.1189481015624 0.1878369634711 0.0248417411125 0.0015121945297 0.0132971524149 0.0834320660894
47 0.0557325604894 0.0216105846795 0.0160694091207 0.0054746814522 0.2253675259439 0.0326929357973 0.3514563508411 0.0044447301823 0.0742276604211 0.0273734072608 0.0273734072608 0.0320884439181 0.0996195244984 0.0048581934551 0.0216105846795
48 0.0593670819820 0.1181711463266 0.0289224245553 0.0180507625033 0.1493664939364 0.0743327644788 0.2070028179962 0.0226675603699 0.0624786383932 0.0086371076069 0.1385899193076 0.0309394305019 0.0199741568847 0.0180500253915 0.0434496697658
49 0.0254255786071 0.0033163798183 0.0016156722192 0.0297786341908 0.0063344609228 0.1075319621432 0.0033163798183 0.0059088532460 0.0057836382339 0.2329081263516 0.2935855941386 0.2480138456048 0.0083673431188 0.0211122853033 0.0070012462831
50 0.0284036732302 0.0284036732302 0.0138376869583 0.0071955972183 0.0256985614940 0.5980955807530 0.0284036732302 0.0123328793931 0.0234639039728 0.0759535261933 0.0359779860916 0.0163536300416 0.0277878754366 0.0181284426043 0.0599633101526
51 0.3224844051415 0.0121437642103 0.1702548822767 0.1671521678198 0.0109872152379 0.0059161928204 0.0526229782448 0.0143639007721 0.0992034071483 0.0153821013331 0.0324733250366 0.0069918642423 0.0056275980487 0.0017886164341 0.0826075812334
52 0.0957928287735 0.0456769990714 0.0473658841749 0.0159244242113 0.1669913993517 0.0006278246798 0.0027205736124 0.0001736536348 0.0010645722831 0.0360929432579 0.3553069137796 0.0007419746216 0.0390833623830 0.0113673579619 0.1810692882032
53 0.0958067693811 0.1258372026552 0.0532822848771 0.0225531782968 0.0840529223791 0.0004247480637 0.1849293455495 0.0056000471658 0.0487352234804 0.0857707923256 0.0023313949273 0.0311782240278 0.0017507907991 0.0002710924334 0.2574759836383
54 0.2360947947902 0.0071065322847 0.3381373096468 0.0018003215121 0.0207179856553 0.1342547452409 0.0071065322847 0.0030856574380 0.0580538458616 0.0090016075606 0.0190033937390 0.1404796331421 0.0032932710587 0.0068616905177 0.0150026792676
55 0.0027511017463 0.0027511017463 0.0221890855947 0.0463856132955 0.3177740858365 0.0579298946062 0.0669434758262 0.0349708607323 0.1361064395347 0.1932088567148 0.0964108323086 0.0015839676721 0.0012749008093 0.0139119021123 0.0058078814644
56 0.0402452827437 0.1102370788198 0.0110820343787 0.0013298441254 0.0047494433052 0.1503178509318 0.0052493847057 0.0627981948127 0.0091547240520 0.0362013123038 0.3021701373929 0.1440664469233 0.0673030868366 0.0316997727577 0.0233954059106
57 0.0065856352065 0.1163462219812 0.0067732601411 0.0461579854250 0.1847113874581 0.2099710643754 0.0651246148197 0.0008874260207 0.0235746651594 0.1195658658599 0.0176104763670 0.0037917293613 0.1556458662215 0.0139030076581 0.0293507939449
58 0.0298048137105 0.0960377330670 0.0145202938589 0.0075505528066 0.0269662600237 0.0145202938589 0.0298048137105 0.0174037564692 0.1614067447798 0.0377527640332 0.0377527640332 0.1315626625401 0.0138119868414 0.0385331829280 0.3425713773387
59 0.0392066879491 0.0497319733046 0.0152549167876 0.0099323609471 0.2092652270496 0.1037077956403 0.0023681892050 0.0251393828056 0.1128150422721 0.0063327133555 0.0096657203848 0.0013635028756 0.0571895230504 0.0197267509056 0.3383002134671
60 0.1539284382273 0.0081466304354 0.0060577508366 0.0237881608714 0.0112501086965 0.0060577508366 0.0038589302063 0.0039866489365 0.0527759971686 0.2818734130658 0.2329936304532 0.0071591600796 0.1229942497446 0.0769825000061 0.0081466304354
61 0.3818928240469 0.0093144591231 0.1759663203568 0.0600403135475 0.0084273677780 0.0448739326984 0.1956036415850 0.0012551398818 0.0418925673604 0.0117983148893 0.0117983148893 0.0053628704042 0.0043164566668 0.0059448873473 0.0415125894252
62 0.0180548018413 0.0465623836960 0.0041664927326 0.1851219015461 0.0163352969040 0.0041664927326 0.0465623836960 0.0651765541647 0.0070649224596 0.0108328811048 0.2756366414438 0.0651067096701 0.0656137920574 0.0110568166315 0.1785419293195
63 0.0166974369226 0.0166974369226 0.1979431197571 0.0042300173537 0.0486787711340 0.0081346487571 0.5176205445991 0.0072500297434 0.0137935348491 0.0681502795876 0.0211500867686 0.0096136758039 0.0077378366226 0.0270524365644 0.0352501446143
64 0.3218078180835 0.0078489711728 0.0038238577508 0.0837339872816 0.0386634505918 0.0038238577508 0.1125019201430 0.0445393549370 0.0064839327079 0.1645958325193 0.0099420301522 0.0045191046146 0.0117202794477 0.0037250500570 0.1822705527898
65 0.0155487430452 0.0155487430452 0.0075750286630 0.1396161949582 0.0140679103742 0.0075750286630 0.0328251242065 0.0020952206940 0.0128446138199 0.0415784906615 0.0196950745239 0.6356137687255 0.0152116429250 0.0073792914883 0.0328251242065
66 0.0326671344840 0.0042609305849 0.0043823246186 0.0034781818552 0.0038551276720 0.0066888112600 0.0042609305849 0.0095056694135 0.0230748946166 0.4851464001490 0.0353815050789 0.3486359398756 0.0041685526860 0.0055087483272 0.0289848487934
67 0.0143264957553 0.0143264957553 0.0069795748552 0.0036293789247 0.0129620675882 0.0069795748552 0.0302448243724 0.0019305207046 0.0118349312762 0.1996158408578 0.3810847870922 0.0082485884652 0.0066391077891 0.0021101040260 0.2990877076826
68 0.0053693701744 0.0590630719184 0.0260207939221 0.0543380261649 0.0074148445266 0.0218905091726 0.0223252759883 0.0190022391278 0.1048194438394 0.1786210478017 0.3790775343127 0.0030914555550 0.1072564432399 0.0003746072215 0.0113353370348
69 0.3345028513017 0.0071850254456 0.0073897270253 0.0099100128739 0.0065007373079 0.1046229773577 0.2466858736330 0.0009681949182 0.0191253575871 0.1203358706115 0.0091010322311 0.0179262756067 0.0995194174866 0.0010582595618 0.0151683870519
70 0.0125492761231 0.2217038781750 0.6242817959706 0.0031791499512 0.0113541069685 0.0061137499061 0.0125492761231 0.0016910372081 0.0334041118060 0.0158957497559 0.0158957497559 0.0072253407982 0.0058155182034 0.0018483429949 0.0264929162599
71 0.0870163348480 0.0113499567193 0.0055294660940 0.0092649276331 0.2384691964674 0.0178171685252 0.0113499567193 0.0015294267920 0.0718830592222 0.0303506250049 0.0143766118444 0.0065348235657 0.0695453987597 0.0016716990517 0.4233113487531
72 0.0107872638817 0.0051097565755 0.0135532289796 0.0041710753676 0.0200334900660 0.0052553336860 0.1981450049851 0.0029837112864 0.1402344304622 0.1143449971461 0.3876223488161 0.0029419810586 0.0339404156278 0.0500896981794 0.0107872638817
73 0.0165358141243 0.2370133357810 0.1333700563697 0.0041890729115 0.0315842798881 0.0170069199398 0.0716551945385 0.0344137786463 0.0136600203635 0.0209453645574 0.0442179918434 0.0200990872015 0.0076629382527 0.0024355075067 0.3452106380756
74 0.0375259134079 0.0052069449226 0.0112840159199 0.0463501888033 0.0388255121407 0.0305280740778 0.0105934396702 0.0002177519153 0.0087511023362 0.0065954635687 0.0111440591333 0.0588216108240 0.0282068395683 0.0012958208294 0.7046532628824
75 0.2916836055409 0.2368787527253 0.0827693802779 0.0060163549535 0.0269964645351 0.0709028024603 0.0054804852816 0.0032001888051 0.0045273574065 0.0146552236048 0.1072145305823 0.0031554309197 0.1323485212574 0.0026009882775 0.0115699133722
76 0.0965103808320 0.2293228315182 0.2325012491414 0.0020187492504 0.0392534576473 0.0470178778412 0.0079687470412 0.0499914855751 0.0650973490175 0.0886006615467 0.0100937462522 0.0045880664783 0.0816526627715 0.0285598246669 0.0168229104203
77 0.0283248664371 0.1542131617131 0.0137992939053 0.0071756328307 0.0256272601098 0.0137992939053 0.0283248664371 0.0038168259738 0.0233988027089 0.0358781641537 0.5541183130398 0.0344285413596 0.0131261576172 0.0041718795528 0.0597969402561
78 0.1379849229368 0.0550755271808 0.0277933755858 0.0004500795770 0.0105375773971 0.0624148815059 0.1399589561690 0.0241798070601 0.0976803139854 0.0022503978848 0.1097694079366 0.0055691664826 0.0264376011670 0.0002616741727 0.2996363109584
79 0.0068443212423 0.1797534894678 0.0033344129129 0.0053841993772 0.3027797349553 0.0015794587482 0.1365261974114 0.0004368715687 0.1782499314832 0.1318672559342 0.0086694735735 0.0226070004669 0.0065104519134 0.0010080783225 0.0144491226226
80 0.0108038455325 0.0108038455325 0.0052634119261 0.0027369742016 0.0097749078628 0.0871387085543 0.0348123911603 0.0014558373413 0.5047535755798 0.0136848710079 0.2417660544722 0.0200434979408 0.0272584829018 0.0068954776396 0.0228081183464
81 0.1142788229614 0.0103889839056 0.0500506318642 0.0143291022461 0.1242830296853 0.0050612998514 0.0103889839056 0.0013999340015 0.3232630209462 0.2178608402719 0.0424024454220 0.0259199901483 0.0369104550141 0.0015301604202 0.0219322993562
82 0.5375368715461 0.0301274352784 0.1073772693256 0.0036152922334 0.0272581557281 0.0069524850642 0.0142708903950 0.0040597253212 0.0117889964133 0.0381614180193 0.1185012454284 0.0264756249416 0.0066133394514 0.0371338155757 0.0301274352784
83 0.0090284261241 0.0190600107064 0.0043984640092 0.0099112055673 0.2623020521022 0.0092856462416 0.0692179336179 0.0012165964281 0.0488930709425 0.0114360064238 0.3926362205517 0.0109739455582 0.0041839047892 0.0013297681888 0.1461267487490
84 0.0688567457997 0.0158900182615 0.0421470284941 0.0084982171739 0.0303507756211 0.2657843225445 0.0158900182615 0.0259324096292 0.2027320687370 0.0424910858696 0.0201273564645 0.0091487983930 0.0073636669992 0.0621503642768 0.1826371234745
85 0.0190687136751 0.0052508052149 0.0187144083300 0.0545383634986 0.0847629984688 0.1977803297605 0.1434298898170 0.0003351577797 0.0910900556842 0.0066510199388 0.0031504831289 0.0650781616026 0.0011526157789 0.0003663352475 0.3086306620746
86 0.3463308223407 0.1528048680642 0.0017677851593 0.0039834092255 0.0069308402276 0.0606939571345 0.0036286116427 0.0064651622727 0.0396342556720 0.3467608800169 0.0045962414141 0.0090532027853 0.0091551150118 0.0005344466761 0.0076604023568
87 0.3434274869123 0.0400581597716 0.1134186132961 0.0029297767063 0.0650556007767 0.0889221525410 0.0082127607900 0.0126252326459 0.0164765325166 0.1526456124519 0.1335383730629 0.0076235955138 0.0045826305852 0.0002221772022 0.0102612952274
88 0.0663895819024 0.0341616295226 0.0302502028235 0.0162743997751 0.3497090921566 0.0731657154796 0.1222513660273 0.0266067270214 0.0459692039597 0.0024493243809 0.0078922674494 0.0852315403240 0.0008960942857 0.0031328567662 0.1356199981256
89 0.0197807832423 0.0197807832423 0.0310518848048 0.1386413118802 0.0377823425950 0.1274198031645 0.0197807832423 0.0026654956142 0.1434345683412 0.0250556587735 0.2477726256494 0.1126239207497 0.0295371587168 0.0029134486946 0.0417594312892
90 0.0208182711131 0.0208182711131 0.0214113842503 0.0052739620153 0.0188355786262 0.4721773684661 0.2290009822444 0.0028052989443 0.0171977022239 0.0263698100766 0.0263698100766 0.0119862773076 0.0310863614724 0.0030662569857 0.0927826650844
91 0.0111715090074 0.0484098723652 0.0054425300292 0.0059746885210 0.0774912608923 0.0114897856173 0.6690492616627 0.0015053806464 0.0194826799597 0.0298734426049 0.0298734426049 0.0278723507557 0.0109293082701 0.0016454160553 0.0497890710081
92 0.0147177834811 0.2449190122880 0.0825492510699 0.1108035247991 0.0030729438037 0.0053316888219 0.0033964115726 0.0024917723988 0.0028057312991 0.2002876483642 0.2433088616166 0.0454112806554 0.0050716064403 0.0127284984946 0.0231039848948
93 0.0547221158433 0.0126281805792 0.0061521905386 0.0067537380579 0.3161054091021 0.3069259502032 0.0126281805792 0.0017016697234 0.0567963097549 0.0337686902896 0.0159956954003 0.0072707706365 0.1358983877509 0.0059932192068 0.0266594923339
94 0.0229311929281 0.0387458087406 0.0381375542863 0.0398633749247 0.0994438103829 0.0073193286004 0.0150238850219 0.0052210664260 0.0058789115303 0.0490780244048 0.0190302543610 0.0223081929113 0.0032979259804 0.0010481780248 0.6326724914766
95 0.2114325579873 0.0894964799315 0.0379966269355 0.0005245552037 0.0330969354723 0.0032504489119 0.0319794619807 0.0247706623975 0.0093127554282 0.0609066875421 0.4805508505114 0.0025168052703 0.0094889051078 0.0003049739556 0.0043712933643
96 0.0055305731789 0.0055305731789 0.0026943818051 0.0014010785387 0.0050038519238 0.0026943818051 0.0055305731789 0.0007452545418 0.0045687343652 0.0070053926933 0.0070053926933 0.0031842694061 0.0025629485463 0.0008145805457 0.9457280135986
97 0.2713408840459 0.0528113130022 0.0079847343266 0.0087654639052 0.0148287923208 0.0079847343266 0.0163897178283 0.0022085435371 0.0135393321190 0.0207603092492 0.1130283503565 0.1771965789448 0.0075952350912 0.0587404098910 0.2268256010556
98 0.0109783566799 0.0071927164454 0.0016598576413 0.0814215501622 0.0955603756321 0.0016598576413 0.1548326855884 0.0004591095603 0.0028145412178 0.0234962070551 0.0091107741642 0.0019616499397 0.0015788889758 0.0166714900557 0.5906019392410
99 0.0044397118109 0.2313583154790 0.0093727249341 0.0486131999916 0.3253674512843 0.0021629365233 0.0044397118109 0.0012629913032 0.2359481624719 0.0806054344334 0.0181206015393 0.0053964173863 0.0020574274246 0.0006539110419 0.0302010025655
100 0.5766495183238 0.0040897128959 0.0174890571418 0.0010360606003 0.1270407640842 0.0197028618433 0.0086338383358 0.0201456227836 0.0709476280639 0.0512274407925 0.0051803030015 0.0677625493629 0.0018952328054 0.0099724179228 0.0182269920423
101 0.0050517737957 0.0242136744000 0.0304669752965 0.0123123921338 0.0014184783564 0.0474402205871 0.0259556653640 0.0595995646069 0.0746859691143 0.1189315297509 0.1873337082717 0.0009026680450 0.0628858738015 0.0071583675196 0.3416431389565
102 0.1562779584705 0.0241631103753 0.0177000020846 0.0202135717586 0.0092794952829 0.1701402114252 0.1006506540094 0.0006793139352 0.0127806755223 0.1164812577373 0.0438180912849 0.0819712580227 0.0313369975055 0.0020226885658 0.2124847140198
103 0.0023675456026 0.1219909023662 0.0187582459284 0.0444782900544 0.1193919425317 0.0600385282303 0.0522106109208 0.0004869420034 0.0678353283531 0.1213761712272 0.3234067293168 0.0178642077288 0.0426735658617 0.0047534442719 0.0023675456026
104 0.0262969045602 0.0262969045602 0.3259767286081 0.0066618824886 0.0237924374592 0.0128113124780 0.0262969045602 0.0074808373099 0.0217235298541 0.0333094124429 0.0703198707128 0.0151406420195 0.3100754247736 0.0383015207677 0.0555156874049
105 0.4133971110975 0.0723002211437 0.0003376024089 0.0321652570629 0.0048068152502 0.0697336531230 0.0030028845842 0.0069412013003 0.0501853319982 0.1539992143793 0.0379390084823 0.0575867866540 0.0524162048973 0.0112159022505 0.0339728053676
106 0.0129650238484 0.0129650238484 0.0063162936697 0.0799221692342 0.0117302596723 0.0133343977472 0.0561817700096 0.0056294153983 0.0107102370921 0.0711635753455 0.5273403403806 0.0074647107006 0.1528748475996 0.0040313295515 0.0273706059021
107 0.0029294586874 0.0517537701446 0.1853738088505 0.0634108457512 0.0379899642481 0.0045986659167 0.0029294586874 0.0030264147669 0.2686186248605 0.0160794732399 0.0119565313835 0.0110569804330 0.0028659473880 0.0013902943469 0.3360197612953
108 0.1849958905964 0.0679098838898 0.0102675421266 0.0053391219058 0.0402552842106 0.0330843024079 0.0210754812072 0.0028399584605 0.0367548247140 0.0563573978948 0.3233134931858 0.0121343679678 0.0097666864131 0.0031041406429 0.1928016243769
109 0.0346946435656 0.0346946435656 0.0169025186602 0.0087893097033 0.0662686049057 0.0169025186602 0.0346946435656 0.0046751647358 0.0286607925107 0.0439465485164 0.4345825353290 0.0199757038711 0.1768580611026 0.0051100637810 0.0732442475274
110 0.1101283695700 0.0090931681296 0.1865524321980 0.0023036025928 0.3373132368089 0.0585745103735 0.0191966882737 0.0025867877816 0.0408972924091 0.0755069738765 0.0115180129642 0.0575900648210 0.0042139071820 0.0013393038330 0.0831856491859
111 0.0187664742873 0.0187664742873 0.3138973519674 0.0047541734861 0.0169791910218 0.0091426413194 0.4775025124204 0.0025288156841 0.0155027396286 0.0237708674305 0.0237708674305 0.0108049397412 0.0183596130561 0.0058352258550 0.0396181123842
112 0.0119979177615 0.4211576773212 0.0013488783282 0.0007014167307 0.0025050597524 0.0013488783282 0.0458381986274 0.0003730940057 0.0099113233682 0.0113006028831 0.0580617182613 0.0051366376741 0.0084112981930 0.0004078004248 0.4214994983401
113 0.1147114413852 0.0210694484177 0.2839873517495 0.0053375935991 0.0190628342827 0.0102646030753 0.0678904449014 0.0059937516775 0.1141007327354 0.0266879679957 0.0266879679957 0.2143124702688 0.0423101931640 0.0031032520925 0.0444799466596
114 0.0547368153330 0.1529823813154 0.0198290501305 0.0067555522514 0.0114285658388 0.0471794641036 0.0126315727692 0.0017021268271 0.0104347775050 0.2293332211646 0.0159999921743 0.3709089094946 0.0058536556735 0.0039276466578 0.0562962687613
115 0.3717501474732 0.0076213014288 0.0119639233256 0.0963219592436 0.0298803405226 0.0078384325237 0.0076213014288 0.0010269838805 0.0062958577021 0.1490952375819 0.1598215136669 0.0726461425759 0.0035318226134 0.0584956219056 0.0160894141275
116 0.0228310128641 0.0989343890777 0.0234814690710 0.0250633785663 0.3190301850478 0.0111228011389 0.0228310128641 0.0030765194640 0.0398164040770 0.0289192829612 0.0931843562082 0.0131451286187 0.1398940923731 0.0033627073211 0.1553072603470
117 0.0356327322568 0.0479198813108 0.0233455832027 0.0090269588384 0.5658524690563 0.0053874422775 0.1462170737433 0.0014901436087 0.0192854817762 0.0140073499216 0.0295710720568 0.0063669772371 0.0449829530004 0.0016287616188 0.0492851200946
118 0.0734975273009 0.0044394479578 0.0021628079794 0.0011246601493 0.0263313288924 0.0045659279566 0.0389684876293 0.0005982234837 0.0118170812789 0.1118412037362 0.0993449798551 0.0224364019684 0.0203444620504 0.0108252171994 0.5717022425622
119 0.0035715868122 0.0115084463948 0.0094733541941 0.0461449016135 0.0068219197841 0.0365400804631 0.4559725830225 0.0052940542110 0.0029504412796 0.0045240099621 0.2256978303316 0.0089109287132 0.0237234668744 0.0005260476700 0.1583403486736
120 0.0181449736395 0.0383060554611 0.2838576930321 0.0045967266553 0.2353086264038 0.1561708414952 0.0181449736395 0.0024450673699 0.0482989394944 0.0995957441988 0.0229836332766 0.0104471060348 0.0177515866771 0.0056419771609 0.0383060554611
121 0.0100717660051 0.5360417684939 0.0267145702301 0.0025515140546 0.0394877175121 0.0049067577974 0.0212626171219 0.0586606954639 0.0083201545260 0.0127575702731 0.1261581949232 0.0057988955787 0.0772714622234 0.0014834384039 0.0685128773928
122 0.0095972446706 0.0196996074817 0.0046755807369 0.0740907288568 0.2417591633681 0.0071364127038 0.1257744169985 0.0006125900854 0.0037554435667 0.0185546730298 0.0057583468023 0.0055256863255 0.0021067122448 0.0021575201197 0.4787958730095
123 0.1688518387180 0.1005302854795 0.0775061723002 0.0131047245926 0.0880124135936 0.0141064403573 0.0322087322410 0.0003945621616 0.0185444215933 0.2386048911672 0.0655236229630 0.0578810734579 0.0013569088971 0.0004312656184 0.1229426468593
124 0.0298133912376 0.0298133912376 0.1597691991966 0.0075527257802 0.0869162887404 0.0145244726542 0.0298133912376 0.2852359204225 0.0793583505891 0.0797232165688 0.0377636289010 0.0171652858641 0.0752202364288 0.0043911196397 0.0629393815017
125 0.1173024684944 0.0027855467452 0.0194512110331 0.0312847850011 0.0725273837744 0.0028649070514 0.0058805986844 0.0016265485723 0.0023011038330 0.3289214864149 0.0035283592106 0.0782297824987 0.0715711888664 0.0140860852208 0.2476385445992
126 0.0073683045779 0.0073683045779 0.0035896868457 0.0018666371597 0.0511103031835 0.0913375875174 0.0728643452707 0.0009928921062 0.0128500384185 0.0093331857987 0.5174733015068 0.0136698175840 0.0034145801703 0.0010852541626 0.2056757611199
127 0.2190871563212 0.0944034088213 0.0112809104881 0.0013537092586 0.0263221244722 0.0141734516389 0.0053435891786 0.0007200581163 0.0044142693214 0.0142891532849 0.0067685462929 0.0030766119513 0.0602565706559 0.0007870402666 0.5377233999320
128 0.0061706784349 0.0130269878069 0.0030062279554 0.0276172141507 0.0055829947744 0.2969485169322 0.1227279377600 0.0008315098600 0.0107614247101 0.2336173146709 0.2509866317468 0.0035528148564 0.0092142108878 0.0029285476465 0.0130269878069
129 0.1122577030349 0.0259056237773 0.0126206885069 0.0065627580236 0.0234384215128 0.1107815991160 0.0259056237773 0.0034908287359 0.0214002979030 0.3244919244993 0.0328137901179 0.0149153591445 0.1053776186713 0.0038155569905 0.1762222061888
130 0.0671549259367 0.0154972906008 0.0159388088515 0.0475479834581 0.4969792504300 0.0075499620876 0.0843741377153 0.0020882873859 0.0128021096267 0.0414409030139 0.0632519046002 0.0089226824671 0.0710187490675 0.0327165023794 0.0327165023794
131 0.0871610081415 0.0270499680439 0.0131781895599 0.1667480252308 0.0244737806112 0.3060268464457 0.0270499680439 0.0036450311549 0.0223456257754 0.0342632928556 0.0342632928556 0.1713164642782 0.0125353510447 0.0128376678658 0.0571054880927
132 0.0218234350946 0.2400577860410 0.0933247181682 0.0055286035573 0.0197450127047 0.0578849517752 0.1188164799597 0.0029407465730 0.0380592273873 0.0276430177865 0.1812153388229 0.0823706085559 0.0101132991902 0.0032143043938 0.0972624699897
133 0.4615543164510 0.0327880115512 0.0364526808238 0.0061764767059 0.0448783405969 0.0077820329849 0.0075664642041 0.0032853599499 0.0201406849105 0.2438643389045 0.0521805790669 0.0043564490872 0.0074024216197 0.0023527076466 0.0692191354969
134 0.0303528466877 0.0463280291549 0.0070045030818 0.0036423416025 0.0274620993841 0.1393117835153 0.3658316784991 0.0191588890440 0.1174523197915 0.0384469391378 0.0789174013880 0.0082780490966 0.0288722200200 0.0585880529088 0.0303528466877
135 0.0145018338443 0.0033465770410 0.0034419211162 0.0064997962974 0.0030278554180 0.0251803702714 0.1334912397460 0.0184892447867 0.0058363010232 0.0042389975852 0.2397388634324 0.0169131721836 0.1566361302842 0.0004929066960 0.3681647902744
136 0.7396027710559 0.0114964161304 0.0056008181148 0.0190925666403 0.0335160068140 0.0056008181148 0.0114964161304 0.0032704540765 0.0094970394121 0.0307422683191 0.0145621270985 0.0066191486811 0.0290058629198 0.0016932705929 0.0782040158994
137 0.0165741425275 0.0080745822570 0.0039337708431 0.0117350595468 0.0034605352530 0.1985519072935 0.0080745822570 0.0010880642758 0.0066703070819 0.0102278041922 0.0640583525721 0.0022021587974 0.0017724692759 0.0005633429482 0.6630129208788
138 0.6292652571899 0.0247309489725 0.0254355344133 0.0062651737397 0.0223756204990 0.0120484110379 0.0247309489725 0.0070353605824 0.0204299143686 0.0313258686985 0.0313258686985 0.0142390312266 0.0369288696040 0.0036425428719 0.1102206491245
139 0.3922218600142 0.0213530525509 0.0049276275118 0.0025623663061 0.0498237892855 0.0323033359104 0.2124066806381 0.0013629608011 0.0083555423025 0.0128118315306 0.0270471998978 0.0122941817717 0.1400968569804 0.0610796619480 0.0213530525509
140 0.4272432192484 0.0124439772597 0.1205754035901 0.0031524742391 0.2114159311152 0.0060624504598 0.0400972600589 0.0072663413313 0.0102798073015 0.0332761169684 0.0157623711956 0.0151255077129 0.0121741891348 0.0588543317251 0.0262706186593
141 0.0087285800418 0.0475222691165 0.0042523851486 0.0022112402773 0.0078972867045 0.0042523851486 0.6488244497743 0.0011761916368 0.0072105661215 0.0233408695933 0.0110562013863 0.0050255460847 0.0040449517267 0.0012856048124 0.2231714724269
142 0.0220274704249 0.0220274704249 0.0226550336848 0.0055802925076 0.1085056876484 0.0226550336848 0.5115268131997 0.0029682406955 0.0181966060032 0.0279014625382 0.0279014625382 0.1254156649443 0.0328919680328 0.0032443561091 0.0465024375636
143 0.0006975487598 0.2146125017635 0.0003398314471 0.0380716946068 0.0525228380986 0.0003398314471 0.0913788875331 0.0001984358568 0.0799687421192 0.0018652970540 0.2669338257759 0.0004016189829 0.0430646566311 0.0003310502727 0.2092732396514
144 0.3460110118496 0.4444214247762 0.0324098293238 0.0018947284835 0.0032053677353 0.0209033810432 0.0035427748654 0.0010078342998 0.0029266401062 0.0443765355357 0.0294181527708 0.0020397794679 0.0271804759995 0.0248726597136 0.0157894040295
145 0.0275138482678 0.0130328754953 0.0063493496003 0.1060200286585 0.0117916492576 0.1474460073837 0.0130328754953 0.0017562030809 0.0227288311777 0.0165083089607 0.0715360054962 0.0075037768003 0.0127503199290 0.0253809918129 0.5166489285838
146 0.3081934139584 0.2131819568614 0.0257474958255 0.0013539132636 0.0048354045130 0.0054966564122 0.1359851479701 0.0007201666296 0.0044149345553 0.1271174119744 0.0293347873787 0.0030770755992 0.0850323574111 0.0191541992723 0.0363550783753
147 0.0179528214167 0.0085039680395 0.0041429587885 0.0165165957034 0.0418899166390 0.0041429587885 0.3203161294879 0.0011459247713 0.0304417406631 0.0107716928500 0.3578595735734 0.1409024468767 0.0039408632378 0.0235195877475 0.0179528214167
148 0.0169586029739 0.0358014951671 0.2377586473915 0.0806727024431 0.4415517737272 0.0174417540558 0.0169586029739 0.0073634280840 0.0140092807175 0.0214808971002 0.0453485605450 0.0097640441365 0.0165909367847 0.0024977787326 0.0358014951671
149 0.0156208220378 0.0156208220378 0.2274587505281 0.0039572749163 0.0455400684807 0.2359144661611 0.0329772909688 0.0044437484284 0.0415800625258 0.3055895629772 0.0197863745813 0.0089938066278 0.0072389175297 0.0023007412304 0.0329772909688
150 0.1308411631140 0.0149059552915 0.0153306263824 0.0037761753405 0.0134863405018 0.0072618756548 0.1308411631140 0.0020086039045 0.0123136152408 0.0608383804859 0.0188808767025 0.4090856618879 0.0069076378180 0.0021954507794 0.1713264737821
151 0.3803007111535 0.0677247841780 0.0329941256252 0.0127577285751 0.0141403395537 0.0499141900484 0.0156287963488 0.0021060080186 0.0129107448099 0.0197964753751 0.0417925591252 0.0089983978978 0.0072426129421 0.0074172840553 0.3262752422935
152 0.1883673295434 0.0160050672161 0.0517823377846 0.0612351135779 0.0070547365873 0.1297557421708 0.1514325590447 0.0010507054492 0.0403427613998 0.0930482625675 0.1242376243219 0.0021265473923 0.0796850157019 0.0374151452054 0.0164610520371
153 0.0104401674521 0.3816461213057 0.0220403535101 0.0202771252292 0.1143999301236 0.0107376081203 0.0104401674521 0.0014068310751 0.0182072485518 0.0426113501194 0.1307727641597 0.0126899005058 0.0048381263803 0.0015376990821 0.2179546069328
154 0.0196757237299 0.0196757237299 0.1373937289519 0.0049845166783 0.0573615014561 0.0095856089966 0.0196757237299 0.0792455665751 0.0162538587334 0.1910731393331 0.0249225833913 0.0113284469960 0.0091180183139 0.0350976949567 0.3646081644278
155 0.0085579794815 0.0846289082056 0.0319644190889 0.0527551890702 0.1281885709632 0.2357954973370 0.0180668455720 0.0024345394742 0.0227799357212 0.0951520533458 0.0108401073432 0.2841422076322 0.0039658929304 0.0026610082625 0.0180668455720
156 0.4283231788274 0.0031885100161 0.0032793507573 0.0394005363617 0.0830193533818 0.0757702622341 0.0102740878296 0.0013844515515 0.0728736274691 0.0893018990431 0.1611024208868 0.0018358087971 0.0014776022026 0.0145583906936 0.0142105199482
157 0.0066297879970 0.0139962191048 0.0032298967165 0.0035457088399 0.5725120100477 0.0032298967165 0.1097598235059 0.0098271325629 0.0115620940431 0.0083977314629 0.0177285441994 0.0038171506649 0.0030723407791 0.0009764804027 0.2317151829568
158 0.4009066827033 0.0038839183470 0.0081993831769 0.0009839259812 0.0035140213615 0.0439402842045 0.1462942577356 0.0005233648836 0.0531177431896 0.2618336361164 0.0049196299062 0.0022361954119 0.0237982097086 0.0012076610881 0.0446410861855
159 0.0127177219908 0.0039468792385 0.0019228386034 0.0032218229043 0.0075387481752 0.0061958132776 0.1091969922659 0.0253514678276 0.0322423806394 0.0049993803688 0.5827055563189 0.0047973852024 0.0018290415983 0.0005813232987 0.2027526482902
160 0.0400395613058 0.0632509011932 0.0732198740936 0.0057332009522 0.0047251656199 0.0223334751096 0.0806594061088 0.0014856903722 0.0043142816530 0.6313871305045 0.0066152318679 0.0063479497722 0.0104875627174 0.0383751822829 0.0110253864465
161 0.0418199329816 0.0034530219893 0.0671027435586 0.0018467273158 0.0794925855846 0.0016822414820 0.2950415455310 0.0009823017637 0.0282080202122 0.3008221601205 0.0043738278531 0.0064061115021 0.0140460325365 0.0016387727098 0.1530839748594
162 0.0217526979687 0.0217526979687 0.0223724329536 0.2075690779503 0.0196810124479 0.0576973270908 0.0217526979687 0.0127019300196 0.0379358645735 0.0275534174270 0.1806279586883 0.2073464240721 0.0100805185709 0.0032038857473 0.1479720565526
163 0.0718558014431 0.3652315588142 0.0018642606656 0.0602114766964 0.0034621983789 0.0060070621446 0.2929505751141 0.0016615278272 0.1647303953330 0.0102327196532 0.0048470777305 0.0046512362060 0.0017733211209 0.0024423259882 0.0080784628841
164 0.4593699669251 0.0140501959816 0.0602125087244 0.0331203602903 0.0493401151865 0.0230872624974 0.0497710332231 0.0201843842020 0.0017705110633 0.0057312098863 0.0087476361422 0.0053473010901 0.0065110664305 0.0269724626840 0.2357839856731
165 0.0091965249393 0.3464024393787 0.0044803583037 0.0152730436399 0.2949213632637 0.0044803583037 0.0091965249393 0.0728402459925 0.0244796388480 0.0116489315897 0.1151949901651 0.0052949689044 0.0658211988200 0.0013545269290 0.0194148859829
166 0.0322646938261 0.0322646938261 0.0157186969922 0.0081737224359 0.0616272723345 0.0157186969922 0.0322646938261 0.0671481925884 0.0266534427259 0.0408686121797 0.0408686121797 0.0185766418999 0.2973773000067 0.0153125291113 0.2951621990755
167 0.0083648963271 0.0083648963271 0.0040752059029 0.0021191070695 0.5793907821043 0.1942514813731 0.0734252010932 0.0011271846114 0.0683335250680 0.0223683524005 0.0105955353476 0.0048161524307 0.0038764153711 0.0012320389939 0.0176592255794
168 0.0522810269243 0.0162251462868 0.0079045584474 0.0041103703927 0.0146798942595 0.0079045584474 0.0883369075617 0.0046156641525 0.0282960280655 0.0205518519633 0.0205518519633 0.0301011973200 0.0075189702305 0.1298430957374 0.5670788782476
169 0.0046282665658 0.1640463371662 0.1074786346951 0.0011724941967 0.0134929887712 0.2076918138980 0.0251983401917 0.0311140599472 0.0123196853998 0.0123763276316 0.1491673172435 0.0056256034689 0.1999436241889 0.0559737216629 0.0097707849723
170 0.0515954334775 0.0160123759068 0.0944775797806 0.0040564685631 0.0144873877252 0.0511392404317 0.0693869622628 0.0021576960442 0.2630825626042 0.0202823428153 0.3357854532754 0.0092192467342 0.0321549337316 0.0023584119553 0.0338039046922
171 0.1013249617274 0.0065606090327 0.1488005940439 0.0736829290029 0.5269661678601 0.0031961941441 0.0138501746246 0.0028486174760 0.0535941539822 0.0267770042742 0.0175435545245 0.0037773203522 0.0030402822347 0.0041872620958 0.0138501746246
172 0.0185146346524 0.0477482683140 0.0469986879637 0.0022217561583 0.0255678288057 0.0944721101493 0.0282591792063 0.0051210691592 0.1762915212552 0.0111087807914 0.0111087807914 0.0611543993063 0.0401903044893 0.0012917186967 0.4299509602608
173 0.5259598354084 0.0048351772407 0.0049729315781 0.0025859244206 0.0043746841702 0.0206769260351 0.0048351772407 0.0165782948577 0.0572513015316 0.3123524497512 0.0265397506325 0.0058771009559 0.0022406918920 0.0007121578882 0.0102075963971
174 0.0485244011555 0.0089126451102 0.0043420578742 0.0022578700946 0.0080638217664 0.0043420578742 0.0089126451102 0.0052043105017 0.1546150173464 0.5757568741183 0.1241828552020 0.0051315229422 0.0087194170319 0.0013127151713 0.0397217887010
175 0.0174549931209 0.3451813945743 0.0015619067628 0.0044219315906 0.0029006839880 0.0137100704733 0.0174549931209 0.0469938235695 0.0409038481209 0.0085731326757 0.0130853077682 0.0490186294137 0.0080888992511 0.0177863646087 0.4128640209614
176 0.0055305731789 0.0055305731789 0.0026943818051 0.0014010785387 0.0050038519238 0.0026943818051 0.0055305731789 0.0007452545418 0.0045687343652 0.0070053926933 0.0070053926933 0.0031842694061 0.0025629485463 0.0008145805457 0.9457280135986
177 0.0164823471607 0.0164823471607 0.4006008650359 0.0041755279474 0.0646212658521 0.1507829536549 0.0164823471607 0.0935298517761 0.0136158520023 0.1136671496783 0.0208776397368 0.0411226237241 0.0076381608793 0.0051250020026 0.0347960662281
178 0.0445389299466 0.0445389299466 0.0216984530509 0.0238200795715 0.0402971270946 0.3592299449543 0.0940266298874 0.0126702550912 0.0367930290864 0.0564159779324 0.1191003978573 0.0256436263329 0.0206399919265 0.0065599974340 0.0940266298874
179 0.0139300728628 0.0294079315992 0.0143269410355 0.0074500093385 0.0126033992568 0.0746509032902 0.0294079315992 0.0018771020170 0.0115074514953 0.2529082117530 0.1940923485546 0.0258433338296 0.0064553996193 0.0020517161581 0.3234872475910
180 0.0162864524197 0.1610549183722 0.0343825106637 0.0041259012796 0.0311079858386 0.0079344255378 0.1429588601281 0.0021946283402 0.2227388734302 0.0664728539499 0.1123162015015 0.0302149336136 0.0159333586003 0.0796927960345 0.0725853002901
181 0.0207821597154 0.2978776225875 0.0101246419126 0.0052648137946 0.0396950246416 0.0213742440378 0.2516950454422 0.0152468011781 0.0553186956676 0.0555730344982 0.0263240689728 0.0252604702265 0.0310324390330 0.0030609382527 0.1413700000394
182 0.0489100799526 0.0489100799526 0.1297301550881 0.3152707524059 0.0442519771000 0.0238279876692 0.0489100799526 0.0065907199936 0.0404039790913 0.0619527679400 0.0619527679400 0.0281603490636 0.0226656468073 0.0152080438096 0.1032546132334
183 0.0559345572497 0.5075163038524 0.0022500139472 0.0687704262895 0.0041785973306 0.0072500449411 0.0148816711949 0.0262076092625 0.2242513900743 0.0058500362628 0.0058500362628 0.0026591073922 0.0639699087275 0.0006802367747 0.0097500604380
184 0.0755210445216 0.0446961283903 0.0067577700749 0.0269409766987 0.0404393542579 0.0067577700749 0.0292836703247 0.0330220112172 0.0114588275184 0.0370926490779 0.6422885024547 0.0079864555431 0.0064281227542 0.0020430467668 0.0292836703247
185 0.3342672928574 0.3006725900577 0.2201314436019 0.0038297961192 0.0136778432828 0.0073649925369 0.0151176162599 0.0043005984790 0.0124884656060 0.0191489805959 0.0191489805959 0.0087040820890 0.0070057246082 0.0022266256507 0.0319149676598
186 0.0027885121346 0.0213785930322 0.0889066646687 0.0744883885921 0.0025229395504 0.0058868589509 0.0027885121346 0.0208336355780 0.0023035535025 0.2743276271120 0.0153058332723 0.1015037194867 0.0012922373307 0.0004107110896 0.3852622135645
187 0.0918373831074 0.0522901846401 0.0019266583869 0.0744717688471 0.1188717642819 0.0361783630423 0.0127429861728 0.0218491259617 0.0214166229381 0.0050093118059 0.1330250579556 0.0098668262843 0.0405224816816 0.0005824781170 0.3794089867772
188 0.0224200503706 0.2466205540768 0.0351950078467 0.0498555490464 0.2456715572357 0.0351950078467 0.0224200503706 0.0030211415393 0.0185209111757 0.1546153103336 0.0283987304694 0.0129085138497 0.0219339788179 0.0033021779616 0.0999214590592
189 0.0124228708673 0.0124228708673 0.0598492154888 0.0311215920542 0.0237283406513 0.3759068703175 0.0400292505724 0.0016740038757 0.1014834523506 0.0507037173917 0.0507037173917 0.0071525620145 0.0441365412114 0.1624389342259 0.0262260607198
190 0.0354060820846 0.0747461732898 0.1705746005844 0.0089695407948 0.0676274901193 0.0364148023720 0.0354060820846 0.0524813557141 0.0292485025917 0.1445092683603 0.0448477039739 0.0203853199881 0.0893307924683 0.1153061122843 0.0747461732898
191 0.7171563123013 0.0206767373805 0.0047715547801 0.0024812084857 0.0482457205544 0.0471853750477 0.0097942440223 0.0218498856006 0.0080908972358 0.0261905340153 0.0124060424283 0.0056391101947 0.0095819026885 0.0222795852394 0.0436508900254
192 0.0389749239496 0.5027271836029 0.0069701989926 0.0011248459064 0.0040173068085 0.0021631652046 0.0735096666897 0.0005983222906 0.0077435044281 0.0056242295320 0.0118733734564 0.0366427075567 0.1209437976589 0.0006539801781 0.1864327937448
193 0.0679264162098 0.1773380933263 0.0153246483654 0.0102786192224 0.0078368284601 0.0108827213029 0.0314558571710 0.0005528781556 0.0033893834759 0.0051970546630 0.0282950753876 0.0233604982328 0.0019013614621 0.0012757627726 0.6149848017923
194 0.1924510695261 0.0059932859022 0.3370753760549 0.0150142910528 0.0054224967687 0.0029198059524 0.0193116990182 0.0223437632808 0.0049509753105 0.2859463296004 0.0075914954761 0.0034506797619 0.0830126944339 0.0018635454011 0.0126524924602
195 0.0482430010197 0.0482430010197 0.0235030004968 0.0122215602583 0.0921466844874 0.0235030004968 0.0482430010197 0.0065008299246 0.0398529138859 0.1290053582824 0.0611078012916 0.0586387992193 0.0471970822984 0.2597476308133 0.1018463354861
196 0.0047445002010 0.0047445002010 0.1050413420575 0.0412666084152 0.0949151071962 0.0305621508676 0.2577845109225 0.0013496962747 0.2477912641223 0.0327194791641 0.0126871449820 0.0088020862315 0.0021986708249 0.0006988023552 0.1546941361841
197 0.0063164536105 0.0273712989789 0.2116461849382 0.1029441572879 0.0057148866000 0.0030772466308 0.0484261443473 0.0074712347276 0.0052179399391 0.4080429032395 0.0168906648400 0.0076775749273 0.1297697420632 0.0060988324698 0.0133347354000
198 0.0060844181280 0.6348076246906 0.0227255617260 0.0015413859258 0.0116215605514 0.0095513230443 0.0060844181280 0.0172176087453 0.0106109900687 0.0077069296288 0.1960985427780 0.0151803159356 0.0184840995163 0.0008961546080 0.0413890665252
199 0.1441932616582 0.0100599949994 0.0539112552532 0.0025485320665 0.0091019002376 0.0049010232048 0.3901042505326 0.0028618267886 0.0083104306517 0.0835352177358 0.0127426603326 0.2503482257260 0.0046619489022 0.0014817046898 0.0212377672210
200 0.0638933591205 0.1629528306250 0.0021716884138 0.0036387845866 0.0040331356255 0.0045846755401 0.0094106497929 0.0006006797740 0.0036824281798 0.0307414559903 0.1436692535055 0.0624524940804 0.0066563132682 0.0006565569623 0.5008556945351
201 0.0088330756058 0.0284621325075 0.0186476040567 0.0196421429397 0.2477467396098 0.0090847301814 0.3130834575827 0.0011902725994 0.0072968885439 0.1106424507361 0.0111885624340 0.1633078052234 0.0086415726116 0.0128654012484 0.0393671641196
202 0.0126952731828 0.0409069913669 0.0405453026722 0.0318040102995 0.0114861995464 0.3566612218114 0.2383890186552 0.0017107105707 0.0104873995858 0.0160806793649 0.0339481008815 0.0073093997113 0.1693047136387 0.0018698464378 0.0268011322748
203 0.0064999347206 0.1003878806846 0.1157580966906 0.0217723739307 0.0320181969570 0.0031666348639 0.1076100303741 0.0018490752042 0.4050997962816 0.0173813069195 0.0082332506461 0.0037423866573 0.0398275132879 0.0009573547263 0.1356961680557
204 0.0478107710743 0.4278451052542 0.0173200097711 0.0059007481565 0.0099824686858 0.0053751754462 0.0110332548633 0.0147023120361 0.0192415700756 0.0450320254050 0.0139754561602 0.0134107912648 0.3175723574607 0.0016250530419 0.0491729013043
205 0.0209237558546 0.2175228041530 0.0074570811177 0.0615092889109 0.0011434842605 0.0006157222941 0.0799034703441 0.0461529711104 0.2678570449657 0.1029898157300 0.0122733977295 0.0718778035673 0.0559005760850 0.0185941768770 0.0352786070002
206 0.0141010356206 0.0141010356206 0.0374018922016 0.0750175095016 0.0978119454952 0.1213653236747 0.0141010356206 0.0103452042260 0.0116486815996 0.0178613117861 0.0377072137706 0.0081187780846 0.4639584646873 0.0136152118266 0.0628453562844
207 0.0168439855556 0.0168439855556 0.4276260834355 0.0042671430074 0.0152397964551 0.0082060442450 0.0168439855556 0.0022697569188 0.0293752598337 0.0213357150371 0.3769309656551 0.0096980522896 0.0164788042969 0.0024808970973 0.0355595250618
208 0.0110094908207 0.1455699341847 0.0053635980921 0.0027890710079 0.6408222672935 0.0053635980921 0.0110094908207 0.0014835484085 0.0090947967649 0.0139453550395 0.0139453550395 0.0063387977452 0.0051019591608 0.0016215529116 0.1265411846181
209 0.0290901885149 0.1056433161858 0.1409755289569 0.0073695144238 0.4003364038482 0.0514672566033 0.0137795629808 0.0080462223552 0.0113831172450 0.0368475721189 0.0174541131090 0.0079336877768 0.0844324983726 0.0561508289939 0.0290901885149
210 0.0993644174936 0.2709288793531 0.0135821865639 0.0034408205962 0.0510948923117 0.1250257686264 0.0207307058080 0.0008669480785 0.0053147686554 0.0172041029809 0.1077520134067 0.0448623738019 0.1951197045396 0.0009475944114 0.0437648233725
211 0.0754876990928 0.3834977087693 0.0011069716615 0.0741277423288 0.1368252115585 0.0367760585324 0.1057837656184 0.0125535296933 0.1353553609879 0.0028781263199 0.0028781263199 0.0027618383878 0.0033929131414 0.0111183432772 0.0154566043107
212 0.7152386636730 0.0174448454554 0.0084987708629 0.0093297617917 0.0157834316025 0.0084987708629 0.0174448454554 0.0023507238557 0.0144109592893 0.0220968042436 0.0220968042436 0.0993240190746 0.0080841966745 0.0025693958423 0.0368280070726
213 0.0412741091826 0.0062960505533 0.0030673066798 0.0015949994735 0.0120257896811 0.0030673066798 0.0342784974567 0.0008484039753 0.0109800688393 0.1143082956006 0.0168361055536 0.0116805516999 0.0515457146923 0.0143220236961 0.6778747762362
214 0.0056673589674 0.0056673589674 0.0027610210354 0.0014357309384 0.0051276104943 0.0027610210354 0.0056673589674 0.0007636866694 0.0046817313209 0.0071786546920 0.0071786546920 0.0032630248600 0.0026263370825 0.0026896768226 0.9425307734549
215 0.0251788083448 0.6589901908186 0.0038068755322 0.0019795752768 0.0070699117027 0.0038068755322 0.0078141129346 0.0010529655727 0.0064551367721 0.0098978763838 0.0098978763838 0.0044990347199 0.0036211742868 0.0011509158586 0.2547786698802
216 0.0264271690063 0.0403362053255 0.0399795633686 0.0102185053491 0.0364946619611 0.0060985774630 0.0125181326872 0.0316751174615 0.0103410661329 0.6677264702267 0.0687106394165 0.0072074097290 0.0058010858794 0.0100382269869 0.0264271690063
217 0.3484538006270 0.0903398742366 0.0170657742540 0.0322273673807 0.0150127487798 0.0080837878045 0.0165930381251 0.0022359413076 0.0441679420625 0.0210178482918 0.0210178482918 0.2218550653022 0.0076894566921 0.0024439358479 0.1517955709962
218 0.2361118024834 0.0071070442219 0.2804548989106 0.0018004512029 0.0135748304979 0.1611942423094 0.1650413602643 0.0637393776907 0.0058710365311 0.0090022560144 0.0290072693798 0.0040919345520 0.0069529619624 0.0010467739552 0.0150037600240
219 0.3136121903965 0.0556278692477 0.0153178190682 0.0161347694185 0.0211531787132 0.0074625272384 0.0072558090323 0.0009777331320 0.0059939292006 0.0091906914409 0.0091906914409 0.0041775870186 0.0033624480881 0.0046309685555 0.5259117880085
220 0.0504813308472 0.0504813308472 0.0245934688743 0.1975128811371 0.0456735850522 0.0245934688743 0.1065716984552 0.0143607253238 0.0880374900282 0.1349908180433 0.0639430190731 0.0613594627470 0.0233937874658 0.0074352347759 0.1065716984552
221 0.1358457585766 0.0137372115415 0.0066924876740 0.0112136349027 0.0262388008808 0.0141285850896 0.0137372115415 0.1293722735476 0.0113481312734 0.1334035876359 0.2107390007582 0.0079093036148 0.0912463563363 0.0042714327015 0.1901162239256
222 0.0626940705925 0.2606753461479 0.0948448760246 0.0493193355328 0.0567232067266 0.0466186678765 0.0296971913333 0.0840367329219 0.0790490455297 0.0376164423555 0.0376164423555 0.0170983828889 0.0137621130569 0.0675540760648 0.0626940705925
223 0.0076186144273 0.7271544214469 0.0037116326697 0.0298085343739 0.0145519566574 0.0037116326697 0.1176652672656 0.0010266218023 0.0132865691219 0.0310952336994 0.0203727393203 0.0092603360547 0.0035305774175 0.0011221215048 0.0160837415687
224 0.0045947829053 0.1832807847794 0.0246233237747 0.0438444395456 0.0041571845334 0.0345721414615 0.3313349006179 0.0006191551433 0.1007966626721 0.1028210307927 0.0058200583468 0.0026454810667 0.0021292896391 0.0089481517218 0.1498126129998
225 0.0228966782445 0.0042055123306 0.0066018156529 0.0247408732814 0.0038049873468 0.1340851523991 0.0696245930293 0.0005667002431 0.1849003271549 0.2835138349708 0.0112458514915 0.2203433581715 0.0019488959581 0.0226431159163 0.0088783038091
226 0.0155182214553 0.0073507364788 0.0354133771672 0.0018621865746 0.0140402956024 0.0075601591705 0.0073507364788 0.0042922740195 0.0060723475260 0.1231112235453 0.0300018948136 0.2346543183694 0.0109763029806 0.0034885924202 0.4983073333977
227 0.1135284433892 0.0174197082449 0.1518795252016 0.0044129927554 0.0048912481279 0.0026337489919 0.1735964028544 0.0096321742093 0.0044659222037 0.2959748589381 0.0068477473790 0.0791986944342 0.0192070963070 0.0034504153460 0.1128610216174
228 0.0126822594435 0.0126822594435 0.0061785366519 0.0460506931792 0.0114744252108 0.0061785366519 0.2522360489311 0.0017089569463 0.0104766491055 0.0160641952951 0.2124043600124 0.0073019069523 0.0189374659982 0.0018679296855 0.3837557764930
229 0.2715419899965 0.0064482266754 0.0240844021978 0.0052636635528 0.2132691267079 0.0066319368371 0.0064482266754 0.0221089316506 0.0053267959492 0.2168992395029 0.1170711376397 0.0655895380011 0.0096286528405 0.0009497388127 0.0287383929606
230 0.0100174319825 0.0100174319825 0.0536831611372 0.0899491188832 0.0090633908413 0.5850922309800 0.0434088719243 0.0013498667211 0.0082752698986 0.0126887471779 0.1113790030058 0.0378099032068 0.0046422245773 0.0014754357184 0.0211479119631
231 0.0055305731789 0.0055305731789 0.0026943818051 0.0014010785387 0.0050038519238 0.0026943818051 0.0055305731789 0.0007452545418 0.0045687343652 0.0070053926933 0.0070053926933 0.0031842694061 0.0025629485463 0.0008145805457 0.9457280135986
232 0.1817396077670 0.3191897312883 0.1629430096786 0.0034820697959 0.0953423872679 0.0141366081456 0.0137450123521 0.0018521647850 0.0113545754213 0.0367551811787 0.0174103489794 0.0079137949906 0.0063696398705 0.0020244591836 0.1257414092954
233 0.0496639878639 0.0496639878639 0.0510789162930 0.0125815435922 0.0948608445442 0.0779625564472 0.0496639878639 0.0290000118259 0.0410267725832 0.0629077179609 0.0629077179609 0.2509954403490 0.0230150187662 0.0398252994843 0.1048461966015
234 0.0742384606707 0.0742384606707 0.0361674551985 0.0034543610271 0.1768303859123 0.0066430019752 0.1045398731893 0.0283780249864 0.0613274240323 0.0364626997308 0.0172718051356 0.1125284273987 0.2029086050486 0.0042398488059 0.0607711662179
235 0.0023152210696 0.9747080702848 0.0011279282134 0.0005865226710 0.0020947238248 0.0011279282134 0.0023152210696 0.0003119801441 0.0019125739270 0.0029326133548 0.0029326133548 0.0013330060704 0.0010729073249 0.0003410015529 0.0048876889246
236 0.5515034933573 0.1470018255997 0.0043258152087 0.0022494239085 0.0080336568161 0.0043258152087 0.1075382482575 0.0011965020790 0.0236352512126 0.0112471195425 0.0112471195425 0.0846374147392 0.0041147998326 0.0201983154575 0.0187451992375
237 0.0619061765715 0.0192122616946 0.0301594193553 0.0048671062960 0.0173825224856 0.2173558153539 0.0192122616946 0.0054654266917 0.0158709987912 0.4569672022320 0.0513750109018 0.0479336226118 0.0089032432243 0.0028297129628 0.0405592191330
238 0.0410901457165 0.0977662087738 0.0062125684505 0.0139989875751 0.1269138983460 0.0131154222844 0.3244704610027 0.0017183699969 0.1861069418434 0.0161526779713 0.0341000979394 0.0073421263506 0.0124756455876 0.0018782183688 0.1166582297928
239 0.0162859733790 0.0162859733790 0.0079341921590 0.0041257799227 0.0147349282953 0.1489864972078 0.2877188630288 0.0021945637887 0.0433505861441 0.0435498991838 0.0206288996134 0.2385867682558 0.1081759369970 0.0130596392901 0.0343814993556
240 0.0081693687640 0.0253680398463 0.0270217582195 0.0031588225888 0.0657439676726 0.0039799488850 0.0210683720757 0.0039977762037 0.4436322428824 0.0811490630562 0.0811490630562 0.0071791422472 0.0017932760702 0.0005699559603 0.2260192024720
241 0.0086935977927 0.2018846598520 0.1030600011832 0.0022023781075 0.2088763363837 0.0089412786415 0.0183531508956 0.0011714777167 0.0151612985660 0.0110118905374 0.0110118905374 0.0717441353193 0.2547059234053 0.0240440503982 0.0591379306637
242 0.0134038475174 0.2673714846899 0.0099669635386 0.0033956413711 0.0185100751431 0.0546464552634 0.0063491909293 0.0018061922187 0.2674941743697 0.0437859018903 0.1063371903050 0.0361497705773 0.0192884635007 0.0040523259936 0.1474423226918
243 0.3250161220610 0.1022085519865 0.0118885113703 0.0241009416011 0.0124792448545 0.0015506753961 0.3179428658682 0.0009054771226 0.0026294061065 0.0040317560299 0.0129912138742 0.0038688567964 0.0014750326939 0.0004688088407 0.1784425353983
244 0.0572814647306 0.1498575693457 0.0053557650266 0.1435006768288 0.0047114624670 0.0025369413284 0.0052074058846 0.0030407310957 0.2719674638571 0.0212539306846 0.0065960474538 0.3128125534921 0.0024131880929 0.0024713872889 0.0109934124230
245 0.0360873791029 0.0360873791029 0.0175810308450 0.1615110700294 0.1052071210883 0.0175810308450 0.3568640822397 0.0102659920064 0.0298113131719 0.0457106801970 0.0457106801970 0.0207775819077 0.0353049969001 0.0053151953717 0.0761844669950
246 0.1647377281697 0.0062035127763 0.0030222241731 0.0015715565700 0.0118490376309 0.0030222241731 0.0062035127763 0.0287004125370 0.0051246409891 0.1562825700154 0.5491717125121 0.0472260686435 0.0028747986036 0.0009136956802 0.0130963047499
247 0.4300651583353 0.0051676721295 0.0416799994265 0.0013091436061 0.0150655414993 0.1255994613590 0.0109095300512 0.0680104745747 0.0042689465418 0.0283647781332 0.1665521587821 0.0195049173643 0.0103773578536 0.0016068300075 0.0715180303358
248 0.1540787421942 0.0053540875666 0.0026084016350 0.0028634453504 0.1932287369934 0.0055066256739 0.1183848250836 0.0031263821015 0.0289948413631 0.0143172267522 0.0143172267522 0.0030826564777 0.0024811625309 0.0007885865408 0.4508670529845
249 0.0013795185369 0.4734814178347 0.0193407712824 0.0034559494014 0.0012481358191 0.0245680067642 0.0213058974034 0.0001858925688 0.0251978724061 0.1648371371769 0.0095135685768 0.0669832889588 0.0006392890781 0.0166837379645 0.1711795162281
250 0.1219195924353 0.0472749440055 0.0109096024628 0.0119763191481 0.0427725683859 0.3624412373756 0.0721564934821 0.0097232154338 0.0184988911326 0.0598815957403 0.0598815957403 0.0128931665470 0.0103774267329 0.0069629762489 0.1523303751289
251 0.0335117658517 0.0158739943508 0.0592900472761 0.3659484831007 0.0143621853650 0.0077334844273 0.0158739943508 0.0021390488842 0.1442462964922 0.0201070595110 0.2211776546213 0.0192946530661 0.0073562412845 0.0023380301757 0.0707470612425
252 0.0876846487278 0.3125170813632 0.2946457854358 0.0051261794641 0.0386497658007 0.0098580374309 0.0427181622007 0.0148453187790 0.0167158026003 0.0541096721209 0.0256308973204 0.0116504078729 0.0302152854591 0.0129147932235 0.0427181622007
253 0.0086335773592 0.0374121685567 0.0042061017904 0.0094777493677 0.0425283625474 0.0649609054296 0.0086335773592 0.0011633898569 0.0071320856446 0.3390118043065 0.0230868253829 0.0049708475705 0.0040009260933 0.0012716121692 0.4435100665658
254 0.0123591711662 0.0123591711662 0.2936975689382 0.0066098678385 0.0111821072456 0.0394718828414 0.0535564083869 0.0035158871481 0.0102097500938 0.0330493391926 0.0156549501439 0.4103494507406 0.0120912216558 0.0018203430400 0.0840728804022
255 0.0128420569131 0.3267590036782 0.0410140905972 0.0104829234950 0.0116190038738 0.0410140905972 0.1698005302957 0.0132670895296 0.0341834461794 0.0343406114492 0.0162666054233 0.0484711979785 0.2109368752043 0.0018914657469 0.0271110090388
256 0.0079898122822 0.0168673814846 0.3109653150627 0.0065220541741 0.0072288777791 0.1293165913821 0.0079898122822 0.0022729095618 0.0066002797114 0.3249782166038 0.1113247177985 0.0046001949504 0.0078165914197 0.0011767940571 0.0543504514505
257 0.0493398494191 0.2831592161441 0.0008688203327 0.0225391301416 0.0051991311972 0.0027995321831 0.0017833680513 0.0026434320760 0.0309375588029 0.0449276647589 0.2407018463897 0.0033085380346 0.0449031776817 0.0037648881083 0.2631238466790
258 0.0330869068903 0.0156727453691 0.0161192623312 0.0039704288268 0.0141801029530 0.0246030846107 0.2246426836235 0.0068051085093 0.3006592843508 0.0198521441342 0.0198521441342 0.0090237018792 0.2735722301416 0.0048732653559 0.0330869068903
259 0.0514293698553 0.2826256196635 0.1859611489169 0.0022710706444 0.0081109665871 0.1078068959728 0.0042464617312 0.0005722182475 0.0035079466475 0.2504154210508 0.0890498752663 0.0024449325119 0.0019678725096 0.0006254478519 0.0089647525436
260 0.1083134174787 0.1874115550956 0.0049101035799 0.0516791509450 0.0079644898937 0.0073962319749 0.0011481987719 0.0130482068471 0.0020024142833 0.0660937233786 0.0596297895519 0.0601586568650 0.0182684959067 0.0001691145478 0.4118064508799
261 0.0080119491193 0.3551964109535 0.0082402097779 0.0020296937769 0.0153032467304 0.0993162125865 0.0080119491193 0.0094767026225 0.0066185666637 0.0327006219608 0.3709829181070 0.0046129404020 0.0037128544699 0.0024912262119 0.0732944974983
262 0.0021644635153 0.2197500063704 0.0038294354502 0.0311394151070 0.0462782913512 0.0304689864079 0.0739335169178 0.0053574309705 0.0516648030394 0.1196226836129 0.1758987350110 0.0150200650002 0.0025867978598 0.0108894327243 0.2113959366622
263 0.0419978659700 0.0034677137039 0.0110749488949 0.0018545846624 0.4702696822535 0.0091978389128 0.0728219877829 0.0009864812034 0.0442426661456 0.2191338193214 0.0043924373583 0.0042149651418 0.0998118895654 0.0010782468967 0.0154548721867
264 0.0136075780702 0.1194442963938 0.0139952583571 0.0034472531111 0.0123116182540 0.0066293329060 0.0892052340156 0.0018336452719 0.0237310902576 0.4577186075309 0.0172362655556 0.0078346661616 0.0063059508130 0.0064580323141 0.2202411709877
265 0.0194682451656 0.0194682451656 0.0094845296960 0.0487715593703 0.0176141265784 0.0094845296960 0.2790448473729 0.0609207262036 0.2841235200248 0.0520595296649 0.0520595296649 0.0112089896408 0.0190461693896 0.0761458236837 0.0410996286828
266 0.0203978580154 0.0203978580154 0.0099374180075 0.0109090766571 0.0594667712513 0.0099374180075 0.0203978580154 0.0088567531651 0.0168504044475 0.0258372868195 0.0258372868195 0.0247933560390 0.4610800371456 0.0030043356767 0.2822962819173
267 0.3948640942201 0.0250916982949 0.0057903919142 0.0030110037954 0.1899800013758 0.0186579295014 0.0118855412976 0.0016015977635 0.0207279246784 0.0150550189770 0.2157886053363 0.0068431904441 0.0055079337721 0.0601033703343 0.0250916982949
268 0.0040312397895 0.2862180250561 0.0102331471580 0.0622960922141 0.2935126494371 0.0350407766320 0.0146397655514 0.0005432167092 0.1575688943818 0.0024187438737 0.0292936758039 0.0059857802935 0.0008849062953 0.0037187405810 0.0936143462234
269 0.0165022763007 0.0715098639697 0.0080395705055 0.1806938135385 0.0149306309387 0.2313609734353 0.0165022763007 0.0022237109909 0.0136323152049 0.0209028833142 0.3692842718847 0.0095013105974 0.0076473963345 0.0024305678272 0.0348381388570
270 0.0153339091362 0.0047587993871 0.0358062369837 0.0025450764129 0.0043055803978 0.0023183894450 0.3696000857300 0.0540793112381 0.0039311821024 0.0060278125570 0.3141160099132 0.0027399147986 0.0389602518926 0.0014796955889 0.1439977444165
271 0.0447499828892 0.0027030191007 0.0013168554593 0.0029673143016 0.0377707589678 0.0218012737153 0.0297332101076 0.0189807747882 0.1138793699378 0.2240702722654 0.1632022865906 0.0171191209710 0.0040362155135 0.0012828281865 0.3163867172055
272 0.4713996423787 0.0236321720454 0.0175726407517 0.0343454233726 0.1339156415904 0.0054535781643 0.0360701573324 0.0367052884960 0.0092473716699 0.1402175541359 0.0141793032272 0.0064451378306 0.0455351607703 0.0016487561892 0.0236321720454
273 0.0333779250037 0.0030343568185 0.0014782763988 0.0007687037274 0.1095097770322 0.0113334523905 0.2592689326041 0.0076779509411 0.1529051979416 0.1789371454236 0.0038435186368 0.1143349735892 0.0810888688004 0.0004469207717 0.0419939999204
274 0.0047964458812 0.2552775085687 0.0101258301937 0.0538694166307 0.1538161824670 0.0958059318332 0.0207845988187 0.0695881521826 0.0039622813802 0.0128260515787 0.0195766050412 0.0058300234449 0.0121016019389 0.0014914013464 0.2801479686937
275 0.0786508763518 0.0786508763518 0.0207404451636 0.0016451742943 0.2278435828261 0.0031637967199 0.0858665530814 0.0037920684089 0.0649724630733 0.1179041577605 0.1179041577605 0.1574548125131 0.0030094651726 0.0094586894183 0.0289428811040
276 0.0552240706290 0.0933096365800 0.4351031771659 0.0043417545184 0.1533397429123 0.0083495279200 0.0552240706290 0.0459322729785 0.0141578951687 0.0217087725921 0.0458296310277 0.0208316504671 0.0079422338751 0.0025242758828 0.0361812876535
277 0.0060166979085 0.0127019178068 0.0029312118016 0.0353960109550 0.0054436790601 0.0127019178068 0.0795541167901 0.0233318915742 0.0215380345420 0.2277877260022 0.0076211506841 0.2728987795464 0.0027882258600 0.1072278177645 0.1820608218977
278 0.4970448812114 0.0205748425774 0.2790792749598 0.0024689811093 0.0088177896760 0.0100236412556 0.0097459780630 0.0013132878241 0.0080510253564 0.0672111524194 0.0534945907012 0.0056113207029 0.0145529374328 0.0014354541333 0.0205748425774
279 0.2423902611778 0.2675518799852 0.3060470061947 0.0019122830294 0.0599485552855 0.0527103655529 0.0075484856422 0.0010171718241 0.0062357055305 0.0201852097544 0.0095614151468 0.0043460977940 0.0034980787122 0.0011117924589 0.0159356919113
280 0.1876521209017 0.0210969840067 0.0048685347708 0.0053445692817 0.0291339302950 0.0156875009281 0.0210969840067 0.0028428560009 0.0632909520201 0.6033737425918 0.0126581904040 0.0057537229109 0.0046310452698 0.0014718826051 0.0210969840067
281 0.0827065627598 0.0050855168040 0.0507247701732 0.0324795006549 0.2177085527046 0.0011735808009 0.0184684557619 0.0266538788522 0.0042010790990 0.0505161335864 0.0979809570904 0.0013869591284 0.0805000098975 0.0314986660961 0.2989153765907
282 0.0100621070288 0.0324223448705 0.1083898195891 0.0110459574938 0.0394498481921 0.0375823997570 0.1777638908415 0.0013558867627 0.4146851935382 0.0835527554018 0.0269068195362 0.0057933343499 0.0046629276475 0.0014820157639 0.0448446992270
283 0.2178492036607 0.1183746814412 0.0819006899607 0.0224281889431 0.2511021153740 0.0237463538939 0.0089527069998 0.0052277036145 0.0402655566028 0.0365403078286 0.0113400955330 0.0166092308312 0.0179782002353 0.0027837443815 0.1449012206997
284 0.0099251231808 0.2084275867966 0.2282602821004 0.0233228986561 0.0027868572478 0.0181741203425 0.2186949556043 0.0197847099649 0.2145880080812 0.0212420452444 0.0169069339700 0.0017734546122 0.0014274146879 0.0009577571420 0.0137278523688
285 0.0070773967807 0.0033524511066 0.0016332454109 0.0433136682978 0.0940282715148 0.0215951337667 0.0629515818913 0.0004517487307 0.0520034806928 0.1882587543661 0.0372742897116 0.0019301991220 0.0067321579133 0.0004937718684 0.4789038488262
286 0.1839706500832 0.3071309179214 0.0483759321268 0.0017550338167 0.0271612376393 0.0258754985795 0.0300203152856 0.0050825447410 0.0184405727116 0.2232793022349 0.0185253569540 0.0039887132198 0.0246132791366 0.0021541112737 0.0796265342759
287 0.2857571164154 0.2113965285006 0.0046577511111 0.0320246265286 0.1720410608831 0.0150083091359 0.0095606470176 0.0012883141371 0.0078979257972 0.0121101528890 0.0121101528890 0.0422020479464 0.1275012031807 0.0014081573127 0.0650360062556
288 0.0159384314721 0.0336477997744 0.0077648768710 0.0130104825795 0.3669212451594 0.0077648768710 0.0867759046815 0.1572617024919 0.2179792246257 0.0201886798647 0.0201886798647 0.0091766726658 0.0073861023895 0.0023475209145 0.0336477997744
289 0.0478484302166 0.0020604587175 0.0010038132213 0.0324209363528 0.1779298768661 0.0010038132213 0.2012381347387 0.0005861509827 0.1738051674666 0.1708043963490 0.0026099143755 0.1699080621190 0.0062595507379 0.0033382625733 0.0091830320618
290 0.0017287370641 0.2303061933165 0.0448240342459 0.0252549276875 0.0206808174705 0.0008422052364 0.0017287370641 0.0175748123435 0.0030148506287 0.1822344974750 0.1822344974750 0.0009953334611 0.0194939699829 0.0059128465818 0.2631735399672
291 0.0176108881006 0.3698286501128 0.2945684445546 0.0044614249855 0.0159336606625 0.0085796634336 0.0176108881006 0.0050098743927 0.0307127082334 0.0223071249274 0.0223071249274 0.0101396022397 0.0172290802285 0.0025938517357 0.1611070133648
292 0.0209167841482 0.0673985266997 0.0894475584228 0.0170742934306 0.0189247094674 0.0215127039245 0.0209167841482 0.0435313057016 0.0172790825572 0.0264945932544 0.0559330302036 0.0388052123422 0.4620398579723 0.0065038407214 0.0932217170061
293 0.6197200848840 0.0192992413978 0.0094021945271 0.0048891411541 0.0174612184075 0.0198490773350 0.0407428429509 0.0372753669550 0.0159428515895 0.0244457057705 0.0244457057705 0.0234580004869 0.0089435508917 0.0028425239268 0.1312824939527
294 0.0065698051204 0.3661801906608 0.0133080667824 0.0016643506305 0.0028156307659 0.0015161088739 0.0065698051204 0.0111360526510 0.0054272303169 0.0740198043571 0.3280522690144 0.0893891666388 0.0014421523435 0.0269412938660 0.0649680728578
295 0.0562406553326 0.0266403104207 0.0273992936236 0.0067488786399 0.1580094602200 0.3158129107136 0.0266403104207 0.0195446249028 0.0220072129562 0.0337443931995 0.0337443931995 0.0323809833733 0.0123455097071 0.0475211738856 0.1812198894049
296 0.0224324560176 0.0069617966951 0.0561505596692 0.0017636551628 0.0482905580281 0.0146971263564 0.0688444339851 0.0124039577050 0.2996935765713 0.0088182758138 0.0088182758138 0.0040083071881 0.0068108634334 0.0010253809086 0.4392807766516
297 0.0378063619712 0.0281124230042 0.1884352597656 0.0071218138277 0.0078936360160 0.0089731076079 0.4255639206499 0.0233823307990 0.1833840367186 0.0110510904223 0.0233300797805 0.0050232229192 0.0040430818618 0.0069961683552 0.0388834663008
298 0.0268126982620 0.0268126982620 0.0275765927994 0.0143398282557 0.1051228011224 0.0130625965892 0.0566045852197 0.0036130586310 0.0221496203034 0.0339627511318 0.0339627511318 0.4957189432879 0.0124253967556 0.0083371094510 0.1194985687972
299 0.0245627370981 0.0245627370981 0.0119664616632 0.0062225600648 0.0222234288030 0.0119664616632 0.0245627370981 0.0033098723749 0.0202909567332 0.0311128003242 0.0311128003242 0.7212512802427 0.0113827318259 0.0036177674796 0.0518546672070
300 0.0614892598145 0.0019835245101 0.0074085488114 0.0021774691289 0.2331008618776 0.0074085488114 0.1452380724652 0.0005642650498 0.0034591900877 0.3542574775122 0.1002194124719 0.0036798720710 0.0621988132978 0.0126272434578 0.0041874406325
301 0.0195712607410 0.0630629512767 0.0413171060089 0.1316638444815 0.1751058302280 0.0307229762630 0.0195712607410 0.0026372620857 0.0341315223551 0.0247902636053 0.3553271116761 0.0488293071014 0.0090696086361 0.0028825887913 0.0413171060089
302 0.2711366495819 0.0052030487127 0.0532311906757 0.0276802191513 0.0465521448312 0.0250665395245 0.1150451882021 0.0123864540275 0.2860671371921 0.0065905283694 0.0065905283694 0.0795523373878 0.0131274752073 0.0041722983217 0.0475982604454
303 0.0061215668718 0.0061215668718 0.0029823018093 0.0015507969408 0.0055385605030 0.0029823018093 0.0061215668718 0.0008248919898 0.0050569465462 0.0077539847042 0.0077539847042 0.0035245385019 0.0028368236723 0.0089160806031 0.9319140876005
304 0.0182707267876 0.0182707267876 0.0385715343293 0.0149143266073 0.0165306575697 0.1176926303894 0.0588723418710 0.0106687222613 0.0150932090854 0.5631444012077 0.0231429205976 0.0222078530987 0.0084669221698 0.0355814929084 0.0385715343293
305 0.1506703880205 0.1854851118250 0.0790571954654 0.0611991267114 0.0033248982258 0.0507888299832 0.0017407361902 0.0007558279281 0.0349913202296 0.2569971333879 0.0046548575161 0.0154790716444 0.0025993106797 0.0056690125196 0.1465871796731
306 0.3976721877398 0.2372758950492 0.0024250898364 0.0657145454789 0.0145120455291 0.0293705324635 0.0105087226246 0.0036519674369 0.0041121088531 0.0693575693221 0.0063052335747 0.0028660152612 0.0048698958504 0.0007331666947 0.1506250242853
307 0.0044111529337 0.0436214012331 0.2480927922048 0.0023591499393 0.0882463981072 0.0379660769592 0.1759559892437 0.0005944106790 0.0238884175781 0.0055874603827 0.3222102154005 0.0025397547194 0.0338427478462 0.0013715988019 0.0093124339711
308 0.0243982087390 0.0515073295602 0.0250933144011 0.0061808795472 0.0220745698115 0.0250933144011 0.0243982087390 0.0032877018868 0.0201550420018 0.0309043977361 0.0309043977361 0.6695952842826 0.0113064869766 0.0035935346205 0.0515073295602
309 0.0038192097455 0.0080627761295 0.0183996686032 0.0052676804046 0.0034554754841 0.0121975331190 0.2923817238535 0.0005146452849 0.0101661090328 0.1714683723538 0.0155880338503 0.0095287354258 0.0194686545566 0.0005625192648 0.4291188628916
310 0.1946577534024 0.1735566419224 0.0742732071387 0.0012027633544 0.0042955834084 0.0254430709575 0.0047477500830 0.0006397677417 0.3438334371692 0.0060138167718 0.0060138167718 0.0027335530781 0.0070894587960 0.0006992810200 0.1548000983847
311 0.1336404635118 0.0227597295937 0.0878516584120 0.0028089785926 0.0047520314536 0.1390273817589 0.0052522452909 0.0046396902845 0.0091597128019 0.0066528440351 0.0805733333138 0.0063840422559 0.0024339673299 0.0024926676617 0.4915712537036
312 0.0061048409030 0.0332374671384 0.0194972269294 0.1063689390515 0.0177977107806 0.0095833827280 0.0061048409030 0.0008226381359 0.1451300583744 0.0077327984771 0.5662126884892 0.0464748999381 0.0028290726136 0.0048954408963 0.0272079946416
313 0.3102941600984 0.0173382093311 0.0026214268750 0.0089361529472 0.0102776577480 0.0026214268750 0.0053808235855 0.0039476333791 0.0044450281793 0.0068157098750 0.0068157098750 0.0030980499432 0.0246584625559 0.0007925244041 0.5919570243282
314 0.1773690169555 0.0146451481890 0.0150623888781 0.0037101042079 0.1310314581353 0.3163101664407 0.1936414038321 0.0019734596850 0.0120981658952 0.0597739011269 0.0185505210394 0.0084320550179 0.0143276382011 0.0021570373302 0.0309175350656
315 0.0572426843923 0.0177649710183 0.0086547294704 0.0345035214889 0.0160730690165 0.3356111761318 0.0177649710183 0.0263324747718 0.3407956517566 0.0225022966232 0.0225022966232 0.0102283166469 0.0082325475451 0.0026165461190 0.0791747473778
316 0.0243448641393 0.2277323366951 0.0163642368167 0.0264650244592 0.1586451634777 0.0148629306868 0.0181816073951 0.0327636105855 0.0557506767658 0.2494270004344 0.1050013507306 0.0583735119810 0.0012852645162 0.0049473274097 0.0058550939069
317 0.0324686289511 0.2375336539056 0.0074927605272 0.0038962354741 0.0139151266933 0.1656732605455 0.0153798768716 0.0089806846035 0.0127051156765 0.1060641879070 0.3225217142478 0.0088550806230 0.0071272600137 0.0249177850090 0.0324686289511
318 0.0468390924163 0.0145362700602 0.1251113158176 0.0814246475522 0.2031232234343 0.0149504088084 0.0306876812383 0.0063116507511 0.0120082230932 0.0184126087430 0.0184126087430 0.0269679623003 0.0591299223859 0.0045198910351 0.3375644936210
319 0.0216129890043 0.0216129890043 0.0105294048995 0.0115589467119 0.0412819525426 0.0222287436768 0.0216129890043 0.0029123885892 0.0178542083079 0.0273764527388 0.0273764527388 0.0124438421540 0.5441904629779 0.0703864870157 0.1470216906341
320 0.0069168883007 0.0797262388345 0.0015962049925 0.0008300265961 0.0820145327084 0.1026891878490 0.0688048362544 0.0107432520415 0.1350296890008 0.0041501329804 0.3177157359460 0.0144625846288 0.1668488421806 0.0015549593854 0.0069168883007
321 0.0056018634602 0.3354893783396 0.0027291129678 0.0029959595691 0.0050683526545 0.0087938084518 0.1300877181317 0.0007548610336 0.0046276263367 0.0622844226206 0.0070956937163 0.0032253153256 0.0112492705258 0.0008250806647 0.4191715362021
322 0.0064213348237 0.0706346830612 0.1386898555522 0.0287390407445 0.0122650892665 0.0100802150652 0.0064213348237 0.0152867238003 0.0111985597651 0.0081336907767 0.2521444140792 0.2008775146378 0.1815201722128 0.0440312200963 0.0135561512946
323 0.0190276621182 0.3667745904861 0.0028768613813 0.0014959679183 0.0053427425652 0.1339338798615 0.1240078669085 0.0007957276161 0.0699202396579 0.0074798395913 0.0324126382290 0.0751761655894 0.0453047194758 0.0752815896851 0.0401695089163
324 0.0024848742543 0.1736651006641 0.1733819241109 0.0013289475642 0.0022482195634 0.0012105797649 0.1570992723018 0.0010789327929 0.0020527222101 0.0136391986849 0.0206336595490 0.0014306851767 0.0011515270935 0.0003659892313 0.4482283670381
325 0.0066317728164 0.0140004092790 0.0032308636798 0.0483480800437 0.3326763919165 0.0463090460769 0.0066317728164 0.0157876955700 0.0054784210222 0.4750805548691 0.0084002455674 0.0038182934397 0.0030732605734 0.0009767727404 0.0295564195891
326 0.0157643856555 0.0074673405737 0.1249024401937 0.0018917262787 0.0067561652809 0.0198065358236 0.1485171069651 0.0289572757786 0.0061686726478 0.0094586313933 0.5979956958658 0.0042993779060 0.0111504191222 0.0010998408597 0.0157643856555
327 0.0077990685448 0.1126830938024 0.0758599054477 0.0210521064030 0.0021898862416 0.0064199229135 0.0562070802021 0.0017757233591 0.3352430198618 0.1767968159086 0.0030658407383 0.1345563435142 0.0596966550262 0.0015448034728 0.0051097345638
328 0.0108328582240 0.0108328582240 0.0052775463143 0.0027443240834 0.0206913323750 0.0111414866634 0.3358186049445 0.0095694515911 0.2674721661012 0.0137216204171 0.1966765593116 0.0547478794419 0.0105979995091 0.0015955372578 0.0482797755416
329 0.0070313844453 0.2335982165719 0.0072317087885 0.0275109426964 0.0063617287839 0.0034255462682 0.0070313844453 0.0009474915210 0.0122624627283 0.2365149390085 0.4047473224037 0.0085465649318 0.0104994385620 0.0194468350163 0.0148440338290
330 0.0043285280372 0.0020503553860 0.1119867894744 0.0524617598105 0.0183447140623 0.0598224772316 0.3073254906389 0.0008902646318 0.0035757405524 0.0025971168223 0.0285682850453 0.0943094442037 0.0590157847019 0.0003019903282 0.2544212590735
331 0.0165469782316 0.0051352691064 0.0164006742685 0.1313944188684 0.0046461958581 0.1553894392558 0.2847221426756 0.0076118527889 0.2116375881472 0.0065046742014 0.0498691688774 0.0062418590822 0.0023797588542 0.0184046983218 0.0831152814624
332 0.0459560314814 0.0970182886829 0.0721418044052 0.0245779664663 0.0415792665784 0.0970182886829 0.0459560314814 0.1025228724379 0.0801455428250 0.0582109732097 0.0582109732097 0.1440574589533 0.0212966975157 0.0142895153874 0.0970182886829
333 0.1446335989961 0.0031826464327 0.0015505200569 0.0509742082721 0.1564548571746 0.0015505200569 0.2684031824891 0.0037645014149 0.1545351656755 0.0129899124771 0.1249719165898 0.0486612708781 0.0211400173618 0.0004687618777 0.0067189202468
334 0.6727876053312 0.0268015491399 0.0197531469992 0.0033078151246 0.0055959278424 0.0231011380160 0.0061849728784 0.0063896764725 0.0164633819131 0.0078342989793 0.0078342989793 0.1341326946463 0.0538209970532 0.0029353316589 0.0130571649656
335 0.0327987958613 0.0024805811996 0.1126579626860 0.0432209118348 0.0022443353711 0.0656611963688 0.0162615878640 0.0003342627148 0.0111566236562 0.2475252543687 0.3243313981785 0.0934686336859 0.0266948182753 0.0101082081441 0.0110554297908
336 0.0282909157860 0.1854626701526 0.2434953179187 0.0071670319991 0.0255965428540 0.0137827538445 0.0282909157860 0.0122839200930 0.0233707565189 0.1154688488747 0.1154688488747 0.0162887090889 0.0131104243886 0.0458356697618 0.1260866740585
337 0.0176662623834 0.0372954428093 0.0946730471313 0.0094481788450 0.0159837612040 0.0181695747020 0.0176662623834 0.0023805601793 0.0145938689254 0.0223772656856 0.5693770935554 0.1231879777641 0.0172832539848 0.0026020076379 0.0372954428093
338 0.0174987031586 0.0758277136871 0.0085250092311 0.0142841265783 0.0158321600006 0.0085250092311 0.0174987031586 0.0023579812767 0.0144554504353 0.7117435484716 0.0221650240008 0.0436583806077 0.0081091551223 0.0025773283722 0.0369417066681
339 0.0240554596728 0.0113946914240 0.0055512599245 0.0060940497838 0.0103094827169 0.0178873930900 0.0113946914240 0.0015354548727 0.0303307969787 0.0144332758037 0.0144332758037 0.1742198442969 0.0111476520435 0.0016782878841 0.6655343842807
340 0.0127981436673 0.0127981436673 0.0062349930687 0.0068446368354 0.1402378599731 0.0062349930687 0.0127981436673 0.0017245725509 0.0105723795512 0.0162109819785 0.2323574083592 0.0155559928077 0.0059308470653 0.0123572084849 0.5073436952545
341 0.1238608964314 0.2868997974314 0.1089484213686 0.0098018013915 0.0306031085672 0.0781251465527 0.0386913212821 0.0186579184790 0.0158806872421 0.1044909016260 0.1753844337026 0.0012609521516 0.0010149127074 0.0017562098442 0.0046234912224
342 0.1143853155749 0.0074062434545 0.1038351112237 0.2457885327763 0.0290371767184 0.0036081698881 0.0074062434545 0.0231758808178 0.0740982134988 0.0093812417090 0.0198048436079 0.2079982378919 0.0682618807282 0.0701775058078 0.0156354028484
343 0.0089565796116 0.0089565796116 0.1982951001769 0.0753812278130 0.1431631058560 0.0043634618621 0.0089565796116 0.0012069149831 0.0320619588997 0.2508505741602 0.1247950092556 0.1140229882546 0.0087623990239 0.0013191861444 0.0189083347357
344 0.0089732787223 0.0042505004474 0.0872018624549 0.0154340394023 0.0081186807487 0.0020707566282 0.0042505004474 0.0005727624716 0.0659340914810 0.0412770821225 0.0771701970115 0.0051664332037 0.0019697441098 0.0006260427016 0.6769840280470
345 0.0604659202654 0.0604659202654 0.0604659202654 0.0233801558359 0.0259139658280 0.0139536739074 0.0286417517046 0.0167246162436 0.0236605774951 0.0362795521592 0.1169007791797 0.0164907055269 0.3082287154990 0.0135931138581 0.1948346319662
346 0.0560110897339 0.1739291733842 0.0272874539729 0.0141894760659 0.4507559126205 0.0129256360924 0.0560110897339 0.0035751759405 0.0462700306497 0.0336066538403 0.0336066538403 0.0152757517456 0.0122951172587 0.0082496953872 0.0560110897339
347 0.0088509105739 0.0088509105739 0.0138941644621 0.2214825637082 0.1948605232689 0.0138941644621 0.2350408474613 0.0038430667661 0.0073116217784 0.0361248276014 0.0485816647054 0.1013533564367 0.0815770917661 0.0056490307797 0.0186852556559
348 0.0178965938987 0.0487527902759 0.0057123522524 0.1030267826235 0.0050251519814 0.0327708629216 0.0178965938987 0.0464856257761 0.1014498073930 0.0461197281850 0.4916832038709 0.0280697883407 0.0025738583319 0.0408115056269 0.0117253546233
349 0.0164655349891 0.1079407293732 0.2486717976565 0.0041712688639 0.1473186225748 0.0080216708921 0.0896456904964 0.0096146268140 0.0136019636867 0.0440300602302 0.0440300602302 0.0200136637410 0.0754558798554 0.0590121370283 0.1120062935681
350 0.0021889733670 0.0046211659971 0.3150687278530 0.1034525027882 0.1714232529397 0.0117306521465 0.1359595680197 0.0002949680424 0.0098450927764 0.0951960195401 0.0027726995983 0.0012603179992 0.0686412217617 0.0010388667745 0.0765059703963
351 0.3931552296631 0.0253815629163 0.0022711916581 0.0379238535982 0.0089045133263 0.0956424042703 0.0202016521171 0.0006282019480 0.0038511510725 0.1961804883370 0.0059050983111 0.0772434577064 0.1221827252184 0.0006866393385 0.0098418305186
352 0.0196497093788 0.0196497093788 0.0414827197998 0.5083015932799 0.0177783084856 0.0095729353384 0.0196497093788 0.0026478331787 0.0162323686173 0.0248896318799 0.0248896318799 0.0113134690363 0.0091059628829 0.0028941432418 0.2719422742430
353 0.0386605697847 0.0089216699503 0.0236640305520 0.0022601563874 0.0170408616511 0.0043464545912 0.0287476031732 0.0092169498068 0.0073700751763 0.4507756350453 0.2749856938020 0.0336740471862 0.0592601979627 0.0013140444113 0.0397620105193
354 0.0606857633998 0.0287458879262 0.0295648590922 0.0072822916080 0.0260081843142 0.4341366150911 0.0287458879262 0.0167854239191 0.1029019466345 0.0364114580399 0.0364114580399 0.0165506627454 0.0873282936729 0.0277555041906 0.0606857633998
355 0.0617478154242 0.2144574664732 0.1648594601496 0.0453584550005 0.0078093755298 0.1411386745165 0.0019918650137 0.0002684073423 0.0034737356036 0.0053263945921 0.0894273618365 0.0049696026099 0.0460504076741 0.0126803396349 0.2004406385991
356 0.3507459994764 0.0405934901865 0.0019998521527 0.1200533467822 0.0078406901858 0.0019998521527 0.0041049596818 0.0005531505954 0.0335337527627 0.1554107328413 0.0283090182499 0.0154938040514 0.1223811963665 0.0120249507991 0.1049552037156
357 0.0166249895345 0.0166249895345 0.0080993538758 0.0042116640154 0.0317546096400 0.0080993538758 0.1644026742855 0.0918501194849 0.0595126436959 0.0912527203338 0.0210583200770 0.0095719636714 0.0077042634428 0.0051693550577 0.4640629794751
358 0.3617046591631 0.0074781159131 0.2145644027362 0.0048857023965 0.0530590129069 0.0017257190569 0.1727838360964 0.0105542203312 0.0061775740151 0.0643117968523 0.0044868695478 0.0020394861581 0.0435919439810 0.0451585449323 0.0074781159131
359 0.1588696981788 0.2650356062696 0.0478427137102 0.0008644938230 0.0030874779394 0.1734529273121 0.0034124756172 0.0004598371399 0.0748601535156 0.0811663644951 0.0043224691151 0.1613285189938 0.0015813911397 0.0005026126878 0.0232132600627
360 0.1277850102393 0.0234707161664 0.3925828336553 0.0059459147622 0.1156150092642 0.0114344514657 0.0756278632029 0.0031627206182 0.0624751913415 0.0297295738108 0.0297295738108 0.0585582514455 0.0108766733454 0.0034569271873 0.0495492896846
361 0.0095369621290 0.0095369621290 0.0201335867168 0.0024160304060 0.0086286800215 0.0046462123193 0.0095369621290 0.0012851225564 0.0078783600196 0.0120801520301 0.0120801520301 0.2434333666664 0.0093301987224 0.0029654119970 0.6465118401275
362 0.0045636133611 0.1972495108293 0.2196125164734 0.0011561153848 0.0041289835172 0.2492565006993 0.0096342948734 0.0409286711289 0.0121475891882 0.1406607051518 0.0057805769240 0.0084665015554 0.0961079659323 0.0006721601074 0.0096342948734
363 0.0172149869238 0.3615147253993 0.0177054423917 0.0043611300207 0.0155754643596 0.0456614040628 0.0172149869238 0.0048972500232 0.0300222718816 0.0218056501034 0.0218056501034 0.0319375683333 0.0079776768671 0.0025355407097 0.3997702518966
364 0.0019849511271 0.1806305525693 0.0976697746916 0.0167059368196 0.0037913616767 0.0031159774104 0.3107551264593 0.0237458968172 0.0745171749226 0.0919105888572 0.0472124301425 0.1116184133815 0.0305596405237 0.0015917222217 0.0041904523795
365 0.0066549226151 0.0066549226151 0.0032421417868 0.0016859137291 0.0060211204612 0.0032421417868 0.0066549226151 0.0008967626219 0.0054975447690 0.0084295686457 0.0084295686457 0.0038316221117 0.0030839885289 0.0162274641888 0.9194473948789
366 0.0034383630182 0.2594053877075 0.0016750999320 0.0008710519646 0.0964378960823 0.1971034253262 0.0148995730789 0.0020077438901 0.3058149832287 0.0237119701478 0.0140336149855 0.0481718131946 0.0015933877401 0.0235769233316 0.0072587663718
367 0.0151913405409 0.0658291423438 0.0074009094943 0.0081245539782 0.0137445462037 0.2458746598654 0.0151913405409 0.0043215712650 0.4587491290872 0.0192423646851 0.0192423646851 0.0476199934127 0.0070398895189 0.0047235778943 0.0677046164847
368 0.0171166832739 0.3023947378385 0.0083388969796 0.0284263732593 0.2219734957898 0.0083388969796 0.0171166832739 0.0304971007740 0.0141398687915 0.2384924536160 0.0457712789768 0.0208051268076 0.0079321215172 0.0025210618775 0.0361352202449
369 0.4632381270450 0.0107466720560 0.1209689495533 0.0027224902542 0.1171899000391 0.0024800012437 0.0050905288686 0.0136429382838 0.0182226178341 0.0064480032336 0.0709280355695 0.0289834488783 0.0076013046250 0.0015828431710 0.1301541393448
370 0.0572517114541 0.0137693989573 0.0031775536055 0.0365348052334 0.2157205836647 0.0208306291918 0.0210164510401 0.0106444289812 0.0293348064743 0.2928292178258 0.0082616393744 0.0079278357633 0.0769071307616 0.0084324226173 0.1973613850550
371 0.0074956455216 0.4738913668679 0.0239390844153 0.0145582093020 0.0067817745196 0.0604563318284 0.0907805957621 0.0032546104668 0.1231530938120 0.0094944843274 0.0094944843274 0.1241955273131 0.0343499636235 0.0023306873672 0.0158241405457
372 0.0415632297550 0.0415632297550 0.0202487529576 0.0105293515379 0.0793879679447 0.0202487529576 0.1339259625438 0.0118237399067 0.0724846663843 0.0526467576896 0.0526467576896 0.3430016031294 0.0192610089108 0.0129236226887 0.0877445961494
373 0.1065625446724 0.0293433094025 0.1572500426957 0.0035211971283 0.0125757040297 0.0142954584269 0.4617710269136 0.0060351487424 0.0242401251586 0.0176059856415 0.0176059856415 0.0080027207461 0.0279119284561 0.0839355129421 0.0293433094025
374 0.1202047260228 0.0718812180739 0.1939290522524 0.1528714173962 0.0103838014104 0.0409046104144 0.0295981486187 0.0015465236143 0.2739470170731 0.0068860998827 0.0068860998827 0.0761644380967 0.0025193048351 0.0008007092887 0.0114768331379
375 0.0949379376043 0.0096004656004 0.0046771499079 0.1834897877203 0.0762449675463 0.1138106477590 0.0096004656004 0.0012936797618 0.2370433801151 0.0121605897606 0.1743017865679 0.0116692528005 0.0044489962539 0.0014140220652 0.0653068709363
376 0.2823430155455 0.0182812024454 0.0385936496069 0.1075476369047 0.0349180639301 0.0583852647900 0.0182812024454 0.0024634244430 0.0151018628897 0.0231561897642 0.0231561897642 0.2093413115043 0.0084717767430 0.0356018938235 0.1243573154002
377 0.0522241229078 0.0247377424300 0.4271665437839 0.1664208716660 0.0223817669605 0.0120517206710 0.0247377424300 0.0070372931578 0.0204355263552 0.0313344737447 0.1009666376217 0.0142429426112 0.0242014228109 0.0198370699417 0.0522241229078
378 0.0076685140712 0.0076685140712 0.0037359427527 0.0041012349329 0.0146472676176 0.0037359427527 0.0247096564518 0.0033296700183 0.1259933157309 0.0097134511569 0.3119097093717 0.0927193064977 0.1614959968770 0.0325036673080 0.1960678103894
379 0.0117685468587 0.0379208732113 0.0057333946235 0.0029813652042 0.1644483188031 0.0375855869760 0.1033016890929 0.0033478687281 0.0097218430572 0.5614904467909 0.0149068260210 0.0067758300095 0.0115134022113 0.0036592983772 0.0248447100350
380 0.6095959475864 0.0157202393360 0.0076585781381 0.0039824606318 0.0142230736850 0.0076585781381 0.0331871719316 0.0350701320412 0.0851323106072 0.0199123031590 0.0199123031590 0.0090510468904 0.0639460142097 0.0048880330752 0.0700618074112
381 0.0571338190760 0.0131847274791 0.0706566164904 0.0404526971988 0.0384380150316 0.0278344246780 0.0131847274791 0.0017766654050 0.1077071215803 0.0167006548068 0.0352569379255 0.0160258808752 0.0061099956610 0.0019419366054 0.5535957797078
382 0.0172307992824 0.0363761318184 0.0083944919581 0.0043651358182 0.0155897707793 0.0363761318184 0.2278294571786 0.0023218807544 0.4412582946671 0.0218256790911 0.0218256790911 0.0209438334712 0.0700905954550 0.0391959869982 0.0363761318184
383 0.0047293927494 0.0835526052385 0.2941520601455 0.0025293493074 0.1088761262033 0.0023040631343 0.0047293927494 0.0006372940584 0.0690217173710 0.0059905641492 0.0059905641492 0.0602081952367 0.0241083679174 0.0014705519229 0.3316997556674
384 0.0573964718650 0.2570363740040 0.0076997868240 0.0082185093047 0.3228700083999 0.0036472674429 0.0158048255860 0.0021297282705 0.0061844969684 0.1043118488677 0.0200194457423 0.0761505232780 0.0767112266248 0.0084537439181 0.0333657429038
385 0.0250684164401 0.1086298045737 0.1207712028496 0.0204632554941 0.4006967516694 0.0122128182657 0.0250684164401 0.0033780135628 0.0207086918418 0.0317533274908 0.0670348024805 0.0144333306776 0.0890642112546 0.0077947444745 0.0529222124846
386 0.3723342334418 0.0451786308360 0.0220101022022 0.0074986141296 0.2241127155265 0.0599585542749 0.0140209543974 0.0018893484649 0.0115825275457 0.0177598755700 0.0966926558813 0.0887993778501 0.0064975154524 0.0020651018105 0.0295997926167
387 0.0317723593362 0.0317723593362 0.0154788417279 0.0080489976985 0.1884487556397 0.0154788417279 0.0317723593362 0.0185526542696 0.0262467316256 0.1296782962538 0.3979782195374 0.0182931765875 0.0147237762778 0.0046796498247 0.0670749808209
388 0.0153807399514 0.0153807399514 0.1490310443721 0.0212140279922 0.5087037324658 0.0241446943396 0.0153807399514 0.0043754508451 0.0268234160505 0.0194822706051 0.1493640746389 0.0088555775478 0.0071276599775 0.0022653803029 0.0324704510085
389 0.0055305731789 0.0055305731789 0.0026943818051 0.0014010785387 0.0050038519238 0.0026943818051 0.0055305731789 0.0007452545418 0.0045687343652 0.0070053926933 0.0070053926933 0.0031842694061 0.0025629485463 0.0008145805457 0.9457280135986
390 0.3347163896584 0.0104236937956 0.1517820484024 0.0026406690949 0.0408674978970 0.0050782097979 0.1725700417270 0.0014046112207 0.0373138024277 0.0132033454744 0.0132033454744 0.1327002903741 0.0048304922467 0.0083587070833 0.0709068553256
391 0.0333531311934 0.0157988516179 0.0761135558004 0.0884969747666 0.0301766425084 0.0076968764293 0.0157988516179 0.0021289232677 0.1580648391342 0.4647202946287 0.0422472995117 0.0090963085073 0.0154563290896 0.0074979907334 0.0333531311934
392 0.0287006300899 0.0188038610934 0.2839865175383 0.0022564633312 0.1692347498403 0.2454144947827 0.0089070920969 0.0038674607923 0.0727627668396 0.0112823166560 0.0864977610295 0.0165246052033 0.0316455223279 0.0013118972856 0.0188038610934
393 0.0087034294568 0.0087034294568 0.0042401322995 0.1246975796689 0.0078745314133 0.0089513904100 0.0570558153278 0.1210592855332 0.0631103749499 0.0355228861532 0.0110243439786 0.0050110654448 0.0040332965775 0.0112522373942 0.5287602019358
394 0.0016325318539 0.0016325318539 0.0167020566586 0.0013326297059 0.5217278121934 0.0034464561359 0.0070743047000 0.0200187771299 0.0552931440935 0.0526158970082 0.2203434289559 0.0155612716440 0.0789322515029 0.0002404504281 0.0034464561359
395 0.6112279074857 0.0885929918045 0.0027945769413 0.0030678244644 0.0570892146572 0.0555810302762 0.0121098334121 0.0222443039272 0.0047386304656 0.0072659000473 0.0072659000473 0.0289902072593 0.0469625246958 0.0130485801883 0.0390205743280
396 0.0930498505188 0.3642504198701 0.0066061677150 0.0200189661652 0.0038074956781 0.0407760007234 0.1164292099456 0.0011971558515 0.0073390858723 0.0053304939493 0.3133145887988 0.0024229517951 0.0019501807132 0.0047519907300 0.0187554416735
397 0.0139775852522 0.0066209614353 0.0032255965967 0.0408145489366 0.0459263515431 0.0749055209671 0.0066209614353 0.0455015009275 0.0054694898813 0.2320279151872 0.0829336724966 0.0376971238621 0.0064774175559 0.0887414133456 0.3090599405774
398 0.1722108133521 0.0164422384608 0.2736157118213 0.0019730686153 0.0305355857128 0.0037943627217 0.0077884287446 0.0220395962346 0.0421779160515 0.0317883276908 0.0756342969195 0.0044842468529 0.0076195739208 0.0011471329159 0.3087486999853
399 0.0073525325500 0.0481999356053 0.0513420435327 0.1053427293196 0.2579610758667 0.0075620064118 0.0236914937721 0.0009907667975 0.0060738312369 0.0196612166706 0.0196612166706 0.1688606886307 0.0071931280502 0.0191317836636 0.2569755512216
400 0.0235499600985 0.1543830717571 0.0114730574839 0.0059659898916 0.0213071067558 0.0114730574839 0.4160492950741 0.0031733988785 0.0194543148640 0.0629743377450 0.1624075026054 0.0436903300145 0.0109133961432 0.0034685987742 0.0497165824302
401 0.1747099652045 0.0227882563310 0.0357730177732 0.0057730249372 0.0435267753201 0.0234374944031 0.0734288259555 0.0030707579453 0.0815753523734 0.1250822069725 0.0288651246860 0.2901090814398 0.0105604114705 0.0331911640446 0.0481085411433
402 0.0313143577486 0.0313143577486 0.0152557127493 0.0608194414939 0.0283320379630 0.0152557127493 0.0313143577486 0.0042196652285 0.1408389713233 0.1718810303089 0.2159530893624 0.0180294787037 0.1596268480355 0.0097368502560 0.0661080885803
403 0.0678044599634 0.0218353345645 0.0666257644404 0.0259112636832 0.0301535572557 0.0218353345645 0.0103430532148 0.0029423500477 0.0939868748646 0.0131012007387 0.0131012007387 0.0059550912449 0.2391235419380 0.0015233954347 0.3857575773061
404 0.0115788730088 0.0115788730088 0.1623351398190 0.0159702678092 0.1268774920703 0.0056409894146 0.0115788730088 0.0015602736679 0.0095651559638 0.0146665724779 0.1287399139723 0.0066666238536 0.0053658191992 0.0017054154044 0.4861697173214
405 0.0607879061965 0.0287942713562 0.2166543323414 0.0153996029031 0.0549985817968 0.0607879061965 0.0287942713562 0.0125024771610 0.2352227674560 0.0364727437179 0.0364727437179 0.0902608304130 0.0578226424796 0.0042410167114 0.0607879061965
406 0.3183170183938 0.0143962470630 0.1940417232343 0.1252153577883 0.1722217704208 0.0225992368425 0.0143962470630 0.0019399198170 0.0118925519216 0.0384966310352 0.0182352462798 0.0267081889957 0.0066714315658 0.0044763524460 0.0303920771331
407 0.0073696332924 0.0319350776005 0.0115688545417 0.0101646349559 0.0214850155774 0.0674184971565 0.0073696332924 0.0120271950737 0.2631350708417 0.0819394042364 0.4034737752905 0.0325306035231 0.0072098580449 0.0095278377019 0.0328449088711
408 0.0127395422460 0.4657010443275 0.0131024921676 0.0103992411520 0.0755609886657 0.0062064436583 0.1259799177664 0.0017166759055 0.0105239696815 0.0161367535117 0.0340664796357 0.1866321492004 0.0124633462082 0.0018763666874 0.0268945891861
409 0.0180483912231 0.1784785354280 0.0185625904032 0.0045722591098 0.3792072039512 0.0185625904032 0.0180483912231 0.0348594222913 0.0149095405756 0.1752699325439 0.0228612955492 0.0103914979769 0.0083638886156 0.0174265689587 0.0804378917472
